1043 300
0 -0.12864542 0.032331306 -0.15430526 0.094288245 -0.02664742 0.03516457 -0.12086378 -0.011978051 -0.10945804 -0.16189002 -0.10086122 -0.048796833 -0.06709152 0.06058566 0.0459424 -0.17596443 -0.08621528 -0.19152026 0.018480947 0.18179612 0.09488539 0.055999827 0.032264754 -0.03589226 0.03903232 -0.06486217 0.044929694 0.043188833 -0.053423643 -0.032153994 -0.033559024 -0.07079556 0.22410837 0.10792523 -0.018776957 0.067426324 0.09947655 0.09927679 -0.050776407 -0.0850258 -0.14015837 -0.023973884 -0.15948915 -0.13859223 0.09791359 0.08218019 0.1034792 0.18818948 0.11036675 -0.10487993 -0.019217502 0.021868048 0.09376585 -0.08124654 0.04053452 -0.01646418 0.18693201 -0.11679757 -0.1402978 -0.105335854 -0.062393077 -0.14589883 0.010128339 -0.13737053 0.08682523 0.12763967 -0.075807355 -0.0011033972 -0.038021334 -0.0042469087 -0.01456101 -0.1906493 0.057232138 0.07489822 -0.04340817 -0.132018 -0.015994603 0.031808708 -0.05354613 -0.05791121 -0.014390433 -0.1925282 0.09745248 0.025778098 -0.0771786 -0.017071664 -0.007537183 -0.22685565 0.075786695 -0.10925717 -0.05784619 0.15990411 0.06875317 0.02846813 0.09725568 0.07204329 -0.14180964 0.020765718 0.065947026 0.13815357 -0.021646474 -0.11229171 -0.0890838 0.061691374 0.03290748 0.03125123 -0.025202652 -0.0045924457 0.11776606 -0.00071081816 0.08965255 0.057791796 -0.10169753 0.03571423 0.06702367 -0.17891361 0.070137575 -0.114662305 0.020712998 0.055121772 0.02798723 0.08184679 -0.13409613 -0.0030159953 0.066777565 0.026115399 0.102045745 0.055576295 0.113940686 0.027955417 -0.044437367 -0.07221094 0.21384387 0.06515769 -0.060681388 -0.104553945 -0.20027235 0.121961765 -0.04161099 -0.023094121 -0.003477794 0.15099221 0.017227853 0.15486416 -0.1164221 0.17142692 0.061226048 -0.09854669 0.037452992 0.10425822 0.13038744 -0.14082488 -0.1156656 0.025680758 -0.05487292 -0.08432109 0.042737935 -0.044783995 0.18634708 0.016067311 -0.15616634 -0.0019162721 -0.051992185 0.069654614 0.0068350635 0.05400311 0.18152615 0.012396724 -0.06415481 -0.07740066 0.059281237 -0.16773115 0.062474683 -0.083343334 0.0005537814 0.031528633 -0.10714613 -0.008012306 0.023112355 0.10843966 0.14457726 0.13646328 -0.066065356 0.04879071 -0.049877744 -0.02684412 0.13206443 0.012710144 0.089469425 0.0142532345 0.026198609 -0.025834136 0.036993537 -0.011451371 0.10654636 0.10889425 -0.096141465 0.07439393 -0.021399865 -0.19720876 -0.09057608 0.121555746 -0.002323251 0.07878932 -0.027504064 -0.103399366 0.005337918 0.046998635 -0.03770648 0.06470263 -0.0846387 -0.068693414 0.18118504 -0.0790287 0.049337965 0.047886286 -0.011209754 0.051538978 0.053657975 -0.03883357 -0.026751954 -0.07989211 0.02470394 0.099435456 0.017146213 0.0010694274 -0.022583282 -0.13035952 -0.044324007 0.12494359 0.00030025578 -0.04011391 0.11797488 0.06313544 -0.0024906483 -0.10052104 0.054473888 0.1528916 0.024066234 0.09438842 -0.08548523 -0.06605097 -0.12686186 0.052453984 -0.00069882936 0.022699298 -0.05874789 0.04056438 -0.13975233 -0.019993566 0.057006087 -0.008959955 -0.01151971 -0.0037760204 -0.079067126 -0.07346943 -0.06493887 -0.06777748 0.022802288 0.007017571 -0.14725071 -0.032127485 -0.060753107 -0.14036727 -0.05712074 -0.013637821 0.035071943 -0.037011623 0.13370077 -0.10239528 0.06867543 0.05805128 -0.107736014 0.024175232 -0.10235333 -0.12662177 0.013681765 -0.099587485 0.22924004 -0.10369648 0.1728737 -0.062863834 -0.16689755 0.018749211 0.068234555 -0.12810838 0.07542176 -0.069292255 -0.15470962 0.01823294 0.025046749 0.04410726 0.023480466 0.006511124 0.055475056 -0.023737773 -0.05267828 -0.07316218 -0.18463236 -0.10306916
1 0.009657874 -0.082651705 -0.09161065 0.022028716 0.11968536 -0.04410054 -0.047031567 -0.047807135 0.0127417445 -0.12985039 -0.033893995 0.024389327 0.10698298 -0.1253643 0.008432458 -0.002313073 -0.09025326 -0.08440327 -0.13381788 -0.03860394 0.024358168 -0.18455352 0.059031166 -0.052252665 0.08256713 0.14259773 0.017036296 -0.09367993 -0.11587107 -0.011804663 0.044881362 -0.045279518 0.007825815 0.17523116 -0.03319129 0.14376 0.115421794 -0.011691771 0.0134411855 -0.21720032 0.066266336 -0.111601055 0.030886363 0.09341573 -0.03449364 -0.19098337 -0.13634393 -0.028685834 0.06936411 -0.052706 0.02215496 0.15378706 0.19568269 -0.06482791 -0.007423875 0.0028558061 0.091340765 0.046007965 0.049450386 0.020032639 -0.005225649 -0.06325485 -0.08205394 0.016412474 -1.9911078e-05 0.07862524 -0.15164645 -0.04656964 0.13265617 0.15900758 -0.053370938 0.048307817 -0.17838517 0.014312081 -0.04551236 0.054663047 0.16699776 -0.07070251 0.056347392 -0.086863354 0.015769644 0.06930814 0.042579237 -0.020905511 -0.04174233 -0.06255886 -0.11637476 0.044905767 -0.087183215 -0.03466929 0.033882286 -0.09340718 -0.019787993 -0.08377832 0.064614035 -0.10217925 -0.08285714 -0.12900518 -0.030379688 -0.0340056 0.13253823 -0.0035617668 0.0014081382 -0.036448974 0.11098282 0.024934826 0.090160385 0.021831483 -0.01165391 -0.023582414 0.103291504 -0.07379334 -0.0122542 -0.048535068 -0.12428664 -0.055111006 -0.056674182 0.0006889514 0.08255844 0.073266596 -0.15079255 0.1701674 -0.005812737 0.07135287 0.08268823 0.0177921 0.009945056 -0.035489324 -0.10010974 -0.10570498 -0.047648583 -0.010832468 -0.07446897 -0.08691863 0.14483954 -0.12221372 -4.4491197e-05 -0.09196442 0.07935874 0.06679144 0.033606254 0.05241634 -0.10633249 -0.04172287 -0.14283626 0.057997614 -0.02109004 -0.07562687 -0.030964151 0.112003855 0.15621465 0.04509773 0.025666516 0.14801772 0.025954168 0.023447743 0.015299331 0.16211878 0.064580746 0.05074014 0.12806077 0.08026915 -0.0134027535 -0.09851969 0.07460361 0.08806452 0.083159715 0.10045295 -0.053129457 -0.08502064 -0.13085751 -0.05173191 -0.105526045 -0.055556767 -0.18438244 0.049052898 -0.053469043 0.021325303 0.16567795 -0.06529429 -0.11844423 -0.06046848 0.008579525 -0.11348746 0.14349136 -0.029860655 0.030883946 0.026402578 0.05778226 0.007934293 -0.10093151 0.0848171 -0.13463415 -0.108115934 -0.01740542 0.12509626 0.052491195 -0.023290178 -0.004407563 0.04367424 0.06394131 0.17295489 0.16463952 0.064982936 -0.06697337 -0.030032555 0.06274285 0.037015714 -0.03343405 -0.07367977 0.015522744 -0.060860556 0.13734731 -0.0330616 0.10288588 0.10151541 0.015467867 -0.01465879 0.0026815408 0.060671426 -0.10602665 0.05091227 0.040829394 0.011427131 -0.12648371 0.09992836 -0.009082642 0.18517147 0.16066861 -0.17272054 -0.010987341 0.029484412 -0.082612984 0.056686558 -0.13404556 -0.09542349 0.020981565 0.09905521 0.21789642 -0.07661336 -0.028002487 0.086512476 -0.0866457 0.12727779 0.10045467 -0.11899672 -0.017988648 0.05473395 0.10549559 -0.062651694 0.1748496 -0.013225118 0.0074754986 -0.032548744 -0.12970799 0.08161712 0.15047325 0.15303285 0.0433639 0.10851829 0.09448232 0.13545915 0.13844192 -0.15738468 0.064403564 -0.02309572 0.011391891 -0.09418855 0.0488215 -0.07604821 0.07529264 0.08147331 -0.00014664527 0.062034424 0.07174442 -0.09985751 0.015737018 0.077452876 -0.039025117 -0.1679945 -0.10743833 -0.09571716 0.007671948 -0.06993585 -0.09298545 -0.0629367 -0.13196078 0.019552443 0.0062622144 -0.023233566 -0.004341342 0.1302839 0.00039993034 0.095666386 0.06714485 -0.07286034 -0.14901365 -0.076363854 0.056496244 0.07222563
2 0.013067922 0.019088155 -0.051687274 -0.02658769 -0.13709234 -0.2054582 -0.059307028 0.2719834 0.1264506 -0.009045834 -0.15320283 0.08557065 0.051175456 -0.08071214 0.12887496 0.101222664 -0.015037285 -0.06729497 -0.041734222 0.017915796 -0.14058945 0.061522976 -0.03420089 -0.048176404 0.14414553 0.036272492 -0.13239571 -0.0615187 0.028271258 0.086073935 0.09648709 0.10181695 0.109813295 -0.12483624 -0.1672479 0.03215644 -0.017637283 0.087331146 -0.1616483 -0.06297782 -0.10022292 -0.029190904 0.13618505 0.009426737 0.15172844 -0.017237099 -0.038796928 -0.15485072 0.004876438 0.02729792 -0.12740546 -0.01689674 -0.03917672 0.0861924 0.0032519451 -0.012289172 -0.08711628 0.050481807 0.12617385 -0.07955047 -0.12092047 0.029069858 -0.010584936 -0.07154287 -0.059996676 0.09918355 0.0047314707 0.06258325 -0.029068047 0.051973995 -0.0018514008 -0.05573092 -0.102134444 0.09964957 -0.06153032 0.08275612 0.1395748 0.14002866 -0.048518397 0.14122576 0.029870247 0.09226725 -0.036605433 -0.052292746 -0.07165612 0.03816136 0.031182926 0.15441936 0.21551017 -0.048536092 0.007280437 0.15769373 -0.05990684 0.048920535 0.07830243 0.07725422 0.028192764 -0.08100045 0.054267302 0.030993555 -0.03847251 -0.1322812 -0.10497027 0.091805995 0.08172834 0.08098463 0.058335193 0.015549368 -0.14629717 0.032103956 0.11749942 0.095068395 0.19197218 -0.05634461 0.05310024 -0.11269957 0.047807846 -0.16718198 -0.050226513 -0.035233703 -0.0957385 -0.0359594 0.08878339 0.0925602 0.20587827 0.16527937 -0.13588452 0.016435236 -0.028192038 -0.010039593 0.083300464 -0.11184353 0.06600665 0.13875118 -0.055686917 -0.12599728 0.042310562 0.070820145 -0.08095823 -0.14275269 -0.093227305 -0.016664281 -0.08921599 0.036512814 0.06522374 -0.035256825 -0.0856642 -0.09136831 0.014146671 0.13188949 -0.04040696 -0.017922893 -0.0051761735 0.014308378 0.035929255 -0.13350634 -0.020642964 0.11538155 0.1197045 -0.116908714 0.13408224 0.021451484 0.013919419 -0.04471325 -0.106886804 0.09184442 -0.07267648 -0.031546246 -0.029011866 -0.08249637 0.065615304 0.05786851 0.08795686 -0.053244952 -0.07859559 0.05098812 -0.063703656 -0.0027932143 -0.028278878 0.08073877 0.08518763 -0.04338984 0.16873614 -0.048548494 0.12066316 -0.021459103 0.06442121 0.015550418 -0.096195154 -0.07103129 0.07705208 0.016019493 -0.02797328 -0.15151335 -0.102605924 -0.02390972 -0.052603096 0.08362876 0.0891539 0.09846107 0.081582345 -0.19490577 0.020543883 -0.019384647 0.004056434 0.06269156 -0.058157843 -0.019360244 0.010746895 0.09131726 -0.0858418 -0.07076369 -0.18601736 0.1491816 -0.15290424 0.085975535 -0.049247365 -0.08432407 0.14454654 -0.15383063 -0.004197925 0.0008914974 -0.09133169 0.027625266 0.03302093 0.08499987 0.055582 -0.053915504 0.027806673 -0.107509024 0.010641467 -0.1622042 0.1978574 -0.022473985 0.04201052 -0.11111451 -0.13514297 0.10067938 0.15089001 0.04882163 -0.022257028 -0.005670325 0.13575108 0.07506306 0.028185578 -0.011343708 0.10537494 0.057036463 -0.07722469 0.051678397 0.15746391 -0.0037402876 0.15649258 0.14907974 0.02243505 0.11936046 -0.033787444 0.0639683 0.19472829 -0.1664262 0.08752956 0.06485474 -0.15685141 0.11776802 0.09642426 -0.106623635 -0.097974055 -0.07183049 0.01810365 0.13891546 -0.08316166 0.03141062 -0.10376294 -0.08907915 -0.16753687 -0.03571201 -0.09918401 -0.116015255 0.030115744 0.023649422 0.18890314 0.18136418 -0.19343501 -0.008215524 -0.20080382 0.01961974 0.032615524 0.009683301 -0.02282279 0.0758444 0.11524208 0.04035842 0.017721204 0.104413055 0.024094068 -0.021650176 -0.031506028 -0.00980271 0.12938601 -0.09220085
3 -0.019342866 -0.060167067 0.14523005 0.071134634 0.15331745 -0.02756306 0.24794617 0.001682767 0.086778924 0.046114866 -0.041496437 0.0111976005 -0.054253247 -0.14183743 0.13573219 0.016485956 0.065277085 0.04640546 0.15706693 0.07219116 -0.049359027 -0.13042906 0.19445981 -0.06897534 0.0006871903 -0.12043858 0.077396326 0.025104545 -0.14814097 0.014156049 0.062327586 0.0146099925 -0.014742647 0.18291356 0.06503731 0.07513335 0.097281836 0.07331482 -0.082130305 0.0037293416 0.13735697 -0.12565763 -0.042199317 0.06790893 0.20437239 -0.07530165 0.03699978 -0.20037872 0.044565637 0.09813029 -0.07717047 -0.13113308 -0.055269625 0.08255946 0.04816047 -0.21097007 -0.025164416 -0.040928774 0.03540935 -0.1390186 -0.20529303 0.14725259 -0.14738967 0.10256884 -0.0033304163 -0.10299459 -0.1169578 0.06213205 -0.07608194 0.21832392 0.09831157 -0.120078735 0.050524384 -0.029941494 0.05472707 -0.071810484 0.060253575 -0.06649451 -0.07005433 0.111391194 0.011606274 0.016322525 -0.25502822 0.0071639414 -0.02038621 0.03559252 -0.018299006 0.10560642 0.052361447 -0.09660834 0.033398278 0.15431978 0.15027143 -0.11555224 -0.13514169 -0.09663683 0.0528185 -0.17331068 -0.037300035 0.022848379 0.03560983 0.021427453 -0.13819633 0.019325444 -0.19911726 -0.059356634 0.09219089 -0.17564997 0.13114399 0.11175007 0.067481376 -0.120380566 0.17813848 -0.037703764 0.035855573 0.07434713 -0.056593426 -0.05783805 0.048772495 0.0063031297 0.13673598 -0.075200036 -0.04886697 -0.0813946 0.09003383 0.17225148 -0.066550285 0.014765509 0.033257212 0.023055393 -0.14967152 0.020077664 -0.013024457 -0.16273864 0.029115506 0.12968443 -0.020597553 0.07640163 -0.18429583 0.04992793 0.030169135 -0.09872825 -0.045728896 0.19721632 0.05563562 -0.043968 0.14774379 0.15572786 -0.041985665 0.07006871 0.04223909 -0.054763265 -0.049540933 -0.031511605 -0.076384015 -0.14824082 -0.047992725 0.116232224 -0.055862885 -0.0902133 0.0116867125 0.110650405 0.1831149 0.21565156 -0.043369714 0.046044182 -0.15141407 -0.0020251658 0.07335452 0.14895418 0.10991047 -0.13756737 -0.026590625 -0.017023608 0.08292171 0.039492175 -0.05578198 0.04280735 0.110411875 0.039343104 -0.14334244 -0.044804286 0.04930865 0.09333937 -0.1542613 0.09781507 -0.039014004 0.009059663 0.021204663 -0.0016910754 0.028696608 -0.0018512126 0.07826784 0.07867827 -0.10504445 0.027146077 0.009850012 -0.016662244 -0.12822779 0.07987269 -0.054228857 0.08489694 0.029932907 0.01846235 0.16917211 -0.0492996 0.09883642 0.045317236 0.04702654 -0.07268293 -0.12650974 0.17529523 -0.09532134 -0.0028131744 -0.11018885 -0.10482108 0.12575659 -0.07780524 0.02314089 0.020765098 0.031854685 -0.02037226 0.13567017 -0.04686006 -0.08624783 0.04999412 -0.19935142 0.12575983 0.046940304 0.12845676 -0.043624204 0.006896326 0.039226208 -0.038058266 0.019966051 0.088740036 -0.13159512 -0.00347762 0.037281502 -0.08448144 0.04474932 -0.05520387 0.026023975 -0.06403697 0.06893358 0.050840672 -0.0075338194 0.028765349 -0.08998722 0.0787531 -0.12068357 -0.03309706 -0.096756056 -0.004927908 0.035972465 0.0374856 -0.023197448 -0.09004195 0.13094868 0.109127134 -0.076764785 0.1408567 -0.047731638 0.055304587 -0.050439544 0.06517417 0.12587254 0.00060729677 0.035165284 -0.119074985 0.048655972 -0.10277098 -0.0076487157 0.044080354 0.013837188 -0.013835968 -0.057885047 -0.003314584 -0.0851454 0.027775457 0.029417267 -0.035535004 -0.020555517 0.09836926 -0.10321457 0.09488982 0.2220681 0.063907035 0.0013892016 -0.08080098 -0.011837707 -0.046967395 -0.13148795 -0.11028696 0.13650553 0.035063818 0.062455893 -0.037456498 -0.12357109 -0.0025262854
4 -0.094997674 0.012694403 0.017070588 0.09483823 -0.016265363 0.0012917874 0.006701315 -0.1329207 -0.08889614 0.02622908 0.039638773 -0.011120146 -0.033237915 0.18348344 0.045134407 0.06325446 -0.046036296 0.027334953 0.060588993 -0.121146075 0.035669077 0.17045182 0.19046892 -0.013301842 0.031435296 -0.092780836 0.13894577 0.02584454 0.10667689 0.19213183 0.05788548 0.050896164 0.065563075 -0.07370879 0.13109665 -0.10554056 0.11937861 -0.07128169 -0.012210115 0.024683863 0.06577902 0.027933175 0.07522288 0.09091707 -0.05480573 -0.033930656 -0.078426026 -0.03503851 -0.09551761 -0.088730596 -0.07246896 0.02634825 -0.14950491 -0.111038476 0.035136014 -0.055605568 0.12896885 0.13392797 0.06828723 -0.037362687 -0.02920112 -0.08447775 0.064074524 -0.010474193 -0.037764095 0.05095864 0.09209534 -0.15585262 0.0051090647 -0.014844718 -0.036178596 0.17691074 -0.20600991 0.079952344 -0.085343316 0.13841031 -0.0032963757 -0.02681847 0.043735273 0.07599512 0.17260608 -0.066293694 0.03288912 0.08135792 -0.027724003 -0.026818125 0.013265751 0.074607775 -0.050034188 -0.0072667734 -0.10474941 0.09592712 0.070435494 0.13438423 0.03999844 0.058842573 0.10934789 0.0118690245 0.015454415 -0.023504607 0.0027161199 0.02418065 0.10466413 -0.047289897 0.0116887335 -0.058767464 0.08724858 0.09949457 -0.161634 -0.043151315 0.03412827 -0.005254255 0.08753654 0.041872405 0.003961253 -0.0076558283 -0.026107006 0.011217473 0.040270463 0.12495612 -0.07771277 0.023485588 0.001686003 -0.031141587 -0.021887908 0.032124437 0.16564295 0.073211886 -0.062115896 0.09532876 -0.00023848008 -0.1029147 -0.00930151 -0.1095835 -0.028076518 -0.012682373 -0.045110855 -0.045268722 0.02921908 -0.07739283 -0.09752653 -0.035310004 0.0016461815 -0.08618619 0.020381805 0.20386085 -0.027836585 0.051165644 0.075085156 -0.11433231 0.009763394 0.07501584 0.10471557 -0.04847634 0.08232938 -0.1580954 0.047043998 -0.08995893 -0.16315389 -0.03869043 0.07437877 -0.20848414 -0.083257794 -0.10217363 0.035295572 0.115334935 0.036745477 0.08927079 0.18947503 -0.053090077 -0.13957196 -0.053244237 -0.19232337 0.071453385 -0.056883108 0.028299509 -0.053528722 -0.04390012 -0.09065409 -0.06516141 -0.0050943517 0.13220115 0.1718923 0.047808874 -0.100449495 -0.055963673 0.0010030415 0.056266114 0.06705737 -0.090368204 -0.0029134054 -0.07141177 -0.11333637 0.03999207 -0.15421675 -0.03595566 -0.020472838 -0.07933323 0.08761453 0.08073573 -0.03234625 0.07910301 0.12472188 -0.03471979 0.07166085 0.15984125 -0.029715957 -0.12247642 -0.0067444397 -0.15693887 0.040849708 0.06830205 -0.015526995 0.15920427 0.09635991 0.046010803 -0.03743547 0.11842202 -0.19795556 -0.11206205 0.07265336 -0.07834584 -0.09063006 -0.021347227 -0.0038968462 0.008733798 -0.015841644 0.0651926 -0.16803889 0.05740332 0.15353973 -0.09189904 0.074187204 -0.10978794 -0.106479496 0.037106566 -0.17826758 -0.08149627 -0.049211375 -0.06067953 -0.057351038 -0.0066770706 0.04025049 -0.019141816 0.08380991 0.059657134 0.025910387 -0.012839909 0.16046558 -0.13977507 0.09037669 -0.049758 0.08603919 -0.16273831 -0.07467333 -0.07929648 0.12547871 -0.10879933 0.062463626 0.06252188 -0.12169527 -0.102302246 -0.015824934 0.055670958 -0.07286524 -0.09476513 0.009195507 0.020565547 0.18820712 0.065982856 0.07766601 0.06315879 0.01892964 -0.07797401 -0.063112274 -0.043596473 0.11521997 -0.26740232 0.10813053 0.090683706 0.04810445 -0.11814013 0.19913164 0.0012828615 0.060886692 0.16467601 0.068223044 -0.16676907 0.057824913 0.042181496 -0.25444147 -0.14268683 0.050320435 -0.16524148 0.017182339 0.022349551 -0.04594322 0.13016263 -0.079500556 -0.09908493
5 -0.00555021 0.045368005 0.15171479 -0.034691952 -0.07136713 0.09292636 0.097419955 0.13130376 0.0068327286 0.11424418 0.08187098 -0.017701015 -0.014044338 0.014692747 0.028627634 0.07807223 -0.12616834 0.09088502 -0.0052683423 0.0020005123 -0.05107847 0.09670237 -0.041345775 0.00088442414 -0.054874994 0.030504394 0.023673605 0.084612295 -0.13000044 -0.05226325 0.09427034 -0.025292948 0.13722055 0.03346238 -0.062013026 0.14334159 0.077913925 -0.01345229 -0.015054429 0.0012856121 0.11528818 -0.14787918 -0.00053030584 -0.119908094 0.10661491 -0.14436491 0.085802585 -0.10840614 0.15222967 0.020538077 0.043788165 -0.041361466 -0.029330743 -0.04087376 -0.019127632 -0.011676174 0.03429335 -0.11309496 -0.051970083 -0.08339563 -0.09936377 0.027310038 -0.19021845 -0.04235205 0.05637306 0.036754876 -0.117827676 0.25056428 -0.12731116 0.07598833 0.027598124 -0.17171934 -0.029764924 0.017545734 0.16456133 -0.027858485 0.038251914 -0.093037084 -0.031077284 0.0060031023 -0.0369747 -0.020552035 0.03161355 0.07511412 0.17880987 0.28400227 -0.037871033 -0.1714959 -0.0055313436 0.058059927 -0.06742173 0.051627487 0.17851996 0.0055078357 -0.07968024 -0.10327298 -0.016182983 -0.022856351 0.00796992 0.13658543 -0.07849873 0.1330951 0.15859838 0.0073035266 0.0387728 0.06828976 0.029196795 -0.22333504 0.052531376 -0.12626497 -0.13700132 -0.20964327 0.04194866 0.019541208 -0.048244588 0.012632579 0.04269757 -0.13662995 -0.013551036 -0.058174476 0.0092505915 0.042656858 0.11261839 -0.15972693 0.06158494 0.113181725 0.013445913 -0.1904484 0.035947483 0.011852162 0.05888031 -0.00066363846 0.0034867516 -0.030597573 0.005960325 -0.06816031 0.029084211 -0.078021325 -0.086631104 0.18904386 0.14190267 0.024927083 -0.075345874 -0.043162193 0.19976851 -0.13725428 -0.026858477 -0.087944224 -0.03237797 0.0014044638 0.16169278 -0.11845461 -0.053157076 -0.04669277 -0.15570658 0.07893721 -0.01847031 -0.040961895 -0.087333664 -0.0870996 -0.0639852 0.09637335 0.05931588 -0.036071718 0.05082129 0.17914262 -0.10004789 0.078565694 -0.032251455 -0.10583249 0.16747068 0.039190006 -0.13293032 -0.06558034 -0.046459354 -0.110940926 0.07472318 0.0035941005 -0.028962277 0.009892037 -0.09206482 0.17039648 0.06637681 0.074441664 -0.15317658 -0.054127574 -0.051174723 -0.037869543 0.02136065 0.02213189 0.0676086 -0.029692857 -0.005008877 0.05347432 0.06635663 -0.03563622 -0.044314668 0.09448388 -0.043183804 0.047759198 0.083281025 -0.068702035 -0.07204244 0.15593997 0.08885275 0.0405121 0.17736791 0.10887569 0.1250254 0.02536069 -0.020404866 0.19394927 -0.041192364 -0.13036533 -0.080356196 0.005739379 0.17652483 -0.080432 -0.10920396 -0.045013614 0.1299852 -0.023214374 0.09295909 0.008121483 0.14020015 0.09090466 0.016823933 -0.023137322 -0.05875328 0.08751936 -0.015149605 -0.16247497 0.1335492 0.09137105 0.12585197 0.06414252 -0.16151129 0.059408274 0.122890726 -0.098754466 -0.05012144 -0.121617615 0.045494303 -0.04137002 0.027142338 0.0068944166 -0.031147799 0.028029336 0.051397927 -0.05551463 0.03960233 -0.0055685793 -0.008125231 -0.10785398 -0.12285266 0.09018301 0.060213514 0.047015127 0.034052134 -0.20060933 -0.02951295 0.047514882 0.06625442 0.18805985 -0.098735556 0.12850076 -0.1934353 0.0512297 0.0065470682 -0.13814591 -0.020490637 -0.0896931 0.10475576 -0.0058128876 -0.048276 -0.016082635 0.08241735 0.09624119 0.020256754 -0.115733 -0.015893348 -0.15338218 0.05368614 0.040827777 0.068293594 0.012133494 0.039335802 0.09431271 0.07529914 0.12735544 0.01412313 -0.01729307 0.12773556 -0.04105044 -0.010725755 -0.15171781 -3.599125e-05 0.05978948 -0.0015335826 0.039646335
6 0.00517376 -0.15677989 0.08519553 0.14850298 -0.047222104 -0.059561096 0.037252422 0.08145587 0.09758548 -0.011525221 0.017051592 0.09381253 -0.09302137 -0.034689542 -0.12536079 0.048353925 -0.053828724 0.035383556 -0.08493568 0.10826657 0.07317274 0.086629026 -0.0789813 0.08077525 -0.09952257 0.0045355135 0.19386634 -0.0744579 -0.054168023 -0.13689277 0.13834384 -0.17834972 -0.194835 0.07721807 0.0361374 0.12109084 0.011956484 -0.030753354 0.07016951 -0.13864827 -0.04183292 -0.031916913 0.077176094 -0.039162785 0.054679107 0.09750771 -0.0443811 -0.025908671 -0.07920349 -0.07108084 0.08720467 0.055212636 -0.06442795 0.033078026 -0.031435348 -0.021321971 0.013245423 -0.0028507141 0.042193696 -0.024216656 0.05566586 -0.15312622 -0.052231003 -0.023547435 -0.0081512 0.020903429 -0.077551745 0.21404077 -0.056869365 0.12374643 -0.026992599 0.0064831376 -0.011203137 0.0060476847 -0.12536879 0.08971453 0.072749995 -0.008106357 -0.064418696 0.0014915093 -0.0078733135 -0.0991777 0.061203927 0.06385352 0.09837146 0.018752376 0.05328446 -0.100809075 -0.19634548 0.21128295 0.06403234 0.08184106 -0.077723 -0.059213284 -0.044568077 -0.07014923 -0.09342688 -0.06836514 -0.07512676 -0.1072112 0.022916272 0.09059684 0.09493594 0.16445473 -0.03722465 -0.05893816 0.0055404496 -0.01503413 0.020088123 0.053162914 -0.06961012 -0.11679054 -0.15009947 0.056651622 -0.062515914 -0.098299816 -0.040651087 0.071415395 0.0034764896 -0.005714867 0.055467933 0.07444181 -0.1464553 0.037033897 0.0460768 -0.16203956 0.06513219 0.038864326 -0.12295923 0.021837005 -0.025016423 0.08604143 -0.030379554 0.06594247 0.07274967 -0.06721604 -0.112166226 -0.03282651 0.065454215 -0.16400543 -0.09083912 -0.12143291 0.008620222 -0.017367242 -0.017990354 -0.08984071 -0.029153548 0.009323775 -0.1350544 -0.028456619 -0.05570113 0.06825094 0.09454428 -0.107296534 -0.0014958875 0.11759247 0.064710535 0.09009579 -0.11913588 0.084487505 0.10693701 0.04623419 0.07623147 -0.08126294 0.15597093 0.06917385 0.13049646 -0.034098774 0.074412294 0.023614975 -0.021677181 0.1340541 -0.07801523 -0.10764463 0.0306001 -0.033662427 0.0015273491 0.0013770148 0.08618966 -0.014922938 -0.20760538 -0.0038729678 -0.18091163 -0.09917601 0.035164602 0.013968974 0.10382918 0.10918312 -0.03046138 0.119714916 -0.09483728 0.014990375 0.024041891 -0.18030164 0.021866122 0.06323283 -0.007588403 -0.08631822 0.036004186 -0.1398139 0.06854545 0.005276247 0.06546546 0.111550644 0.0020297493 0.06043253 0.029966211 0.08657093 -0.061038394 0.1145067 -0.14868203 -0.013706067 0.06997844 -0.021823442 0.09263594 0.13337168 -0.0004168831 0.06359808 0.006748168 0.13323043 -0.011454823 -0.009939564 0.03282782 0.020705441 -0.19103613 -0.015351058 -0.050543677 -0.09617346 0.16057716 0.008237315 -0.061724875 0.029162556 0.18184865 0.054603264 0.06793622 -0.14502431 -0.049543492 0.085533954 0.032295078 -0.07526522 0.015471136 0.024758777 -0.1413155 0.11121457 0.111738615 -0.111689225 0.07094766 -0.08188084 0.06704156 -0.15201618 0.22736889 0.0125934 -0.057164684 0.06529124 -0.0065526054 0.0677694 0.16891295 0.049127948 0.08139378 0.026992576 0.03028453 0.08751268 0.04528766 -0.17511097 0.07285393 -0.101784706 -0.003508462 0.07032543 0.054649066 0.0032123013 0.010997578 -0.04563686 -0.061266623 0.08525453 0.01604531 0.0009766865 -0.13091788 -0.043223087 0.02471085 0.06455599 0.11643649 0.02092016 0.09179657 -0.026524177 -0.07737629 0.03919576 -0.085649654 0.027432498 0.03588623 -0.14021598 0.067463465 0.07602564 0.13074586 -0.10513806 -0.07828161 -0.14746864 -0.1906841 0.024790213 -0.08466225 0.06513334
7 0.05397854 -0.09536492 0.05749 0.023960495 -0.095719874 -0.06464071 0.007112081 0.028393898 -0.011768227 0.0009920117 -0.0655017 -0.14810123 0.017966926 -0.059830446 0.09023499 -0.07460265 -0.003460475 -0.073247366 -0.11727999 -0.005826265 0.010177503 0.1263884 -0.09084803 0.08048565 0.020506427 0.011302882 -0.017586702 -0.04164673 -0.15124403 -0.14517765 -0.01632719 0.03342962 0.12114927 0.088973515 -0.08317254 0.0076854965 -0.16921136 0.111928254 0.1289707 -0.04912776 0.043472514 0.0775834 0.07072363 0.058679566 -0.0020185388 0.02800766 -0.1297131 0.10440343 -0.09041064 -0.014793634 0.08824482 -0.0053876187 -0.04555053 0.008701456 0.038118303 0.1160876 -0.062424414 -0.1604815 -0.005187917 0.010569324 0.101259105 -0.11940905 -0.0016558757 -0.0524771 0.068649136 0.20054938 0.14886726 -0.0743902 0.07967269 -0.13624942 0.07643714 0.1312802 -0.06622682 0.11396856 0.025165956 0.12055717 -0.13907667 0.11091583 0.0975674 -0.089637 0.008880514 0.20429578 -0.08912457 -0.08488591 0.061751634 0.1649403 -0.029109556 0.0006211728 -0.036650553 0.10254567 -0.022059137 -0.050848823 0.010512778 0.053958934 0.059018075 -0.2234019 0.023393316 0.110526614 0.013796584 -0.14270128 0.095415786 0.12634341 0.09431172 0.08934087 -0.072001785 -0.039595902 -0.017061157 0.053232457 0.08036046 -0.07858858 0.09764645 -0.13628459 -0.03928377 -0.017329322 0.11247319 0.038808543 -0.074571654 0.08570646 0.0062833396 -0.061594125 0.058154613 0.09751989 0.020397166 0.11239678 0.06839739 -0.083554916 0.07095229 0.0058224145 -0.06536765 -0.013678388 0.017055444 0.06618956 -0.06033648 -0.05556442 -0.04485363 0.10134471 -0.061253 0.1028514 0.07330492 0.083488844 -0.026595036 -0.08475095 0.08164605 0.029595274 0.0101366695 -0.14259394 0.13908055 0.080562145 -0.0040237824 -0.17850469 0.039520267 0.24957512 -0.11406963 0.13762374 -0.038231328 0.07313979 -0.020806978 -0.046554673 0.05571002 -0.022069812 -0.06798299 -0.050133713 -0.09188236 -0.00571964 0.044048373 0.1466132 -0.05156297 0.022804208 -0.1462902 -0.05555632 0.03196208 0.023081057 0.03493931 0.024080595 -0.05888898 0.011468125 0.022685675 -0.008229307 -0.029839734 0.013119294 0.029096007 0.021039529 -0.11514242 -0.08718186 0.031586178 0.059155412 -0.16829713 0.016430093 0.03850772 -0.13450448 0.038028877 0.013042298 -0.18487647 -0.0499075 0.080072545 0.0011834089 -0.10620842 -0.081302404 -0.07915313 -0.13949712 -0.014686495 0.091947466 0.0020819874 0.07401435 -0.027743518 0.043173652 -0.16714805 0.0029838586 -0.018604558 -0.12200158 -0.027165582 0.082852975 0.093346864 0.11751253 -0.032727975 -0.058857735 0.019422822 0.03172612 0.055807926 0.08118485 0.06039019 -0.023532066 -0.14642267 -0.0743906 0.12535556 0.07730632 -0.061329134 0.052432023 -0.05394159 -0.084966466 0.085065 -0.08705566 -0.03300661 0.16897373 0.11143446 -0.03950909 -0.031730004 -0.033166237 -0.092965126 0.106994666 0.11076562 -0.16109724 -0.04667931 -0.140519 0.027900504 0.05392403 0.09932502 -0.05357009 0.036817767 -0.13726078 0.054795574 -0.07500939 -0.10138052 -0.057249077 0.025548982 -0.1062735 0.011876731 0.008939872 0.037391696 0.0144201685 -0.059078235 -0.083692126 0.003990638 0.035124466 0.13564204 0.10578867 -0.18070187 -0.036990672 0.045165855 0.04369417 -0.160138 -0.026846237 -0.010782392 0.06965787 -0.02543059 -0.029053062 0.1215342 0.07507992 -0.016277794 -0.03988333 -0.04122698 -0.07010296 0.15085877 0.0442804 -0.035333008 0.07209 0.18900146 0.040098496 -0.0038089503 0.08204384 0.06892166 -0.08986811 -0.14567025 0.030572612 0.114442624 0.05348163 0.035985842 0.051021963 -0.022494452 -0.092314176
8 0.1471391 0.12965669 0.064114206 0.026733736 -0.04048755 -0.07468655 0.08182393 -0.018297618 0.037596937 -0.13819346 -0.00713443 -0.021205483 -0.12911381 0.03943223 -0.21215408 -0.08074648 -0.050959382 0.012900803 -0.035931572 0.13122639 -0.08933405 -0.027149687 0.06612153 -0.18326654 0.013235502 -0.11848294 0.16854501 -0.006920527 -0.07860258 0.09477006 -0.12765487 0.08245607 0.057837587 0.024938894 0.054828756 0.13586913 0.07816659 -0.051813897 0.033641867 -0.08994452 0.07468952 0.08881573 -0.0028540858 0.011633297 -0.038382385 0.041707918 -0.03772122 -0.06571162 0.048712116 0.15463775 -0.15409647 0.0903351 -0.015578324 0.050832182 -0.029572478 -0.17925662 0.1734373 0.05875331 0.00856765 0.020531334 -0.08138656 -0.1590002 -0.0064339796 -0.040410858 0.11688413 -0.02332527 0.04159641 0.008408513 0.14802086 -0.0980819 -0.0122748995 0.07739254 -0.023010345 0.058510598 -0.052472137 -0.10738762 -0.0011187998 -0.14121169 0.03356726 0.097207084 -0.0790697 0.1055968 0.13330017 0.056081317 -0.036747225 0.023471968 -0.11515898 -0.018744478 0.084712334 -0.0649143 -0.0010562672 0.06820564 -0.026276793 -0.13053279 0.09504946 -0.07486049 0.015093353 0.12732099 -0.06684091 0.040621888 -0.06214392 -0.03980576 -0.1508092 -0.08092664 0.013780537 -0.039832648 -0.05733081 0.14585128 0.13447659 0.10319544 -0.12132322 0.096313514 -0.025107114 0.012445682 -0.09978446 0.15492263 -0.11011434 -0.06915141 0.08424444 0.07722216 -0.32880586 0.039511517 0.024465688 0.12600219 0.026666043 0.13711752 -0.046282757 -0.0960195 0.11508163 -0.000996409 -0.05951157 -0.16311708 0.08080456 -0.11880001 -0.024598155 0.07075942 -0.044916272 0.21727587 0.017198859 0.12952341 0.05853771 0.02434641 0.10718081 0.08848203 -0.04070558 -0.01592817 -0.033932168 -0.0983959 -0.070766315 -0.032688487 -0.14194301 -0.10263694 0.20719683 -0.107488096 0.11877269 -0.12203752 -0.25523594 0.0051401085 0.10115354 -0.045964386 -0.048372038 -0.023922594 0.066849165 0.108774014 0.27882886 0.057741944 -0.07286754 0.1149942 -0.026318666 -0.057230603 -0.006649543 -0.048568524 -0.07997658 -0.081474625 0.05234785 0.02742634 -0.031929113 0.10831661 0.10526368 -0.020033067 0.007042049 -0.08329741 0.09156742 0.039330017 -0.016049655 0.09043501 -0.08291393 -0.038757425 0.050111257 -0.082943134 0.16200073 -0.07725145 0.039846864 -0.039869 -0.08271916 0.004662579 -0.13646632 0.09921962 -0.17090617 0.06601895 0.16697784 -0.040975187 -0.11651543 -0.1245528 -0.054741114 -0.10515722 -0.24553266 0.06747146 0.11117028 -0.08501378 0.05733272 -0.02279355 -0.04400411 0.015867408 0.005782707 -0.05579331 0.024994364 0.15543984 0.007219618 0.13223171 0.13980767 0.1927897 -0.003686388 -0.10569776 0.028793845 -0.02398789 0.06831488 -0.014430472 -0.031539265 -0.068914 0.05332096 0.10564419 0.08320089 0.040578503 -0.08568131 -0.03540424 0.08159645 -0.031810112 -0.04969744 0.0761569 -0.05287434 0.067116916 0.019121557 0.0035236287 -0.008423726 0.104268976 -0.028202375 0.043590844 0.22488889 -0.063681155 -0.0616202 0.057808846 -0.19761364 -0.039227292 0.09950064 0.1707829 0.01256172 -0.12551072 0.113725826 -0.089117534 0.029775482 -0.052327566 -0.100929394 -0.04819637 -0.020022552 0.08078352 -0.009008499 0.045134313 0.022676855 -0.11555621 -0.0031632641 -0.09667383 0.079827264 -0.069929495 -0.09947721 -0.033639222 -0.05984451 0.0880439 0.14890558 0.0770408 -0.22726327 0.07558286 0.0805386 0.06147689 -0.06605966 -0.09593094 -0.06546966 0.010371344 -0.048530962 -0.10730838 -0.022363666 0.09559539 -0.11864477 0.08318304 -0.10727801 0.095753975 -0.08680573 0.03241946 0.13635184 -0.06908024
9 -0.099356405 0.057564802 -0.025218345 -0.07620864 0.04156146 0.079700984 -0.066162154 0.046048056 -0.12678665 0.10286556 -0.05459116 -0.031952277 -0.22690764 -0.03825077 0.02323014 0.07918522 0.05042039 0.011896373 0.12868416 0.011693849 -0.055064317 0.029157355 0.11267447 -0.23777786 -0.13122194 -0.09108923 0.01392298 0.018177941 -0.12993062 -0.036438398 -0.055590775 -0.07475756 -0.015561748 0.16641632 -0.04474051 0.04863237 0.03836176 0.036518354 0.046193093 0.11843745 -0.01692618 0.037682287 -0.010652284 -0.087246075 0.10932011 -0.0786794 0.054865666 -0.010597365 0.23156841 -0.0454334 0.07272454 -0.060931783 0.004190444 0.051966902 -0.019759377 0.19479623 0.09137384 0.10861144 0.1290292 0.006994283 0.03991329 -0.03435465 0.14298892 -0.061679542 0.0029967614 -0.03473673 -0.03269316 -0.07181487 0.045777477 0.05466698 0.06434087 -0.08137554 0.073325425 0.019207586 0.025485747 -0.1654141 0.11777201 0.019907448 0.10285744 -0.04306716 -0.10421501 -0.23133531 0.10501 0.043620955 0.0023581963 0.101169206 0.044233434 0.1586204 0.110882424 -0.0019754374 0.007028359 0.03190435 -0.03519802 -0.11081789 -0.050977904 -0.09702342 -0.05141521 0.12038112 -0.07767427 -0.018607369 -0.15329677 -0.036435716 0.08043122 0.17944257 -0.0019025105 0.04872236 0.12228754 0.007976011 0.018594863 -0.014130854 -0.05615991 -0.23252086 0.09274318 -0.04378016 -0.051170923 -0.037896026 -0.024470828 -0.1280186 -0.04234153 -0.05543048 0.009507383 0.08224017 -0.07347466 0.14409065 0.098968744 -0.0975667 0.015112011 -0.044698235 0.050569832 0.054900922 0.13940568 0.06414837 -0.05317265 0.08442915 -0.033715997 -0.04125379 -0.07494002 -0.019336687 -0.15799154 0.06542652 -0.096049905 -0.16034062 -0.17145753 -0.0568949 0.0185238 0.023626788 0.049929872 0.120651744 0.11715247 0.0948111 0.06853759 -0.091302924 -0.08936061 0.058117114 -0.113696545 0.0634749 -0.02868156 0.120116755 -0.12164052 -0.01859904 0.20622636 -0.004599546 0.08895063 -0.054539993 0.086839035 0.17040755 -0.028735874 -0.09010352 0.1260902 -0.017138766 -0.15761678 -0.015760563 -0.0654346 -0.1122273 0.07253929 -0.009173686 0.10878217 0.10605045 -0.12443281 0.070541866 -0.30305615 0.15549354 0.050917346 -0.12744255 0.115807466 -0.2937078 0.0714089 -0.030817632 -0.18991338 -0.043769065 -0.0014400587 -0.020408554 -0.0193827 0.08701446 -0.03286753 -0.08917332 0.098578684 -0.0108650755 -0.01180779 -0.16616838 -0.04381759 -0.12714356 -0.10543819 -0.010010718 -0.0021880416 0.03168802 -0.0682648 0.15600856 0.03928257 -0.07957751 0.17454761 0.08299904 -0.07981254 0.023499504 0.04602681 0.08430151 0.04851073 0.051888853 0.09580669 -0.0640816 0.0030870442 0.041677214 -0.11421338 -0.083193555 0.07929936 -0.0006355021 -0.021611512 -0.012409733 -0.0543334 -0.05758478 0.09977938 0.17533776 -0.039941404 0.17427471 0.047839463 0.05025975 -0.20488816 -0.14242399 -0.010574621 -0.1741091 -0.12986341 0.0026981467 0.01474272 -0.04915165 0.025634233 -0.053882074 -0.083858766 0.1265895 0.08172077 0.030634357 0.059136305 0.1739588 0.109805204 0.106053606 -0.098534025 -0.011565798 0.053733006 -0.008985712 0.011711001 0.14409837 -0.13170482 -0.019727644 0.16149163 0.15966794 0.044639375 0.12617908 -0.040037643 0.13427678 -0.0577007 0.07206039 -0.0482016 0.054956086 -0.13586272 -0.05066375 0.009874814 0.10832047 -0.013875369 0.093832105 0.10244448 -0.06332524 0.036278006 0.15152925 0.1259387 -0.06103995 0.0119517725 -0.0684903 -0.13614005 -0.055705685 -0.20708184 0.08005245 0.071196206 0.05685195 0.022072276 0.033846922 -0.053964872 -0.12370285 -0.087387696 -0.0119852265 -0.07729041 0.13914067
10 -0.07490162 -0.054088846 0.008374119 0.0785157 0.06660656 -0.045392964 0.043345608 -0.09790914 -0.08083673 0.079124115 -0.01692847 -0.024714006 -0.05460086 0.18086417 0.19730683 0.1798473 -0.11976737 0.03052905 0.04903181 -0.11635518 0.0049984893 0.17159882 0.074998364 -0.023215754 0.089857325 -0.019888518 0.10772333 0.019651283 0.14445713 0.022466548 0.026205203 -0.02655448 0.06902448 -0.06755532 0.097400464 -0.10244236 0.08606071 -0.114932664 0.035585053 0.004345025 0.122770436 0.08600561 -0.106450364 0.08533313 -0.016943889 -0.024405234 -0.07725971 -0.08704746 -0.029648382 -0.050858393 0.059154063 -0.06540226 -0.05708064 -0.103319205 0.08901825 -0.13440172 0.11441268 -0.029804794 0.03287012 0.06555059 -0.08035117 -0.06567585 -0.07399615 -0.23275234 -0.07785933 0.013002354 0.19329424 -0.16337912 0.08445525 -0.020454679 -0.15054938 -0.020501044 -0.105597064 0.101724215 0.0090571875 0.11481268 0.048967 -0.109947294 -0.104658045 0.09915068 0.047282327 -0.09241718 0.035204932 0.020415707 -0.10504254 0.02701376 0.10206364 0.15705962 -0.05712511 -0.04304859 -0.085631765 -0.069100805 0.097824976 0.011277544 0.14172576 -0.03471008 0.0057144463 0.023283862 -0.0045120786 -0.0796056 -0.034401845 -0.013043346 0.05726898 0.038606595 -0.10412637 -0.009559891 0.10178703 0.009449874 -0.14575084 -0.009037674 0.054841455 -0.03093929 0.102359585 0.08392281 -0.18682583 -0.06239627 0.03416359 0.07700027 -0.07704104 0.16640832 -0.08226213 0.11284569 -0.017367527 0.033114787 0.0056249844 0.008873792 0.029721735 0.029970562 -0.06918343 0.16989556 -0.09544169 -0.10798542 -0.037573535 -0.03510559 -0.02735953 -0.06473125 -0.28519967 -0.028144605 0.058639083 -0.1311702 -0.1451662 -0.120409176 0.041206054 -0.08702139 0.04589956 -0.019431144 0.102461696 -0.028528968 0.035934534 -0.16533168 -0.0900447 0.044040233 -0.019622441 -0.09957801 0.1867013 -0.13013475 0.010329726 -0.05412863 -0.31631193 -0.011204728 0.023256024 -0.061889578 -0.12121725 -0.09935564 -0.08263032 0.09671392 0.08794544 0.10605807 0.07980023 -0.07529138 -0.032653626 -0.06237783 -0.046882685 0.06551987 -0.02860872 -0.063872665 -0.07343791 -0.13006248 0.06311368 -0.14282365 0.060966384 0.061341237 -0.040782314 0.073372915 -0.09340403 -0.101150334 0.15572737 -0.012178038 0.19098921 0.0421115 0.0036073786 -0.057655644 -0.089893356 0.026124123 -0.14762078 -0.06942348 0.02811727 0.08412926 0.1069496 0.053518154 -0.017122973 0.10729559 0.0066074533 0.053893533 0.028610958 0.11008063 -0.08980079 -0.013409108 -0.049622506 -0.014637582 -0.04165074 0.06801441 -0.012811404 0.05260337 0.108671375 0.1011379 -0.030453546 0.063054554 -0.16266042 -0.20361362 0.0075940937 0.11010584 -0.1515047 -0.089960456 0.11141776 -0.020281434 0.029044667 -0.0049565 -0.18366557 0.01470163 0.08310437 0.012425564 0.10493685 -0.046858713 -0.16906692 0.1357414 -0.076536626 0.03523512 -0.0068844426 -0.06797357 -0.057167385 0.0472246 -0.048237566 -0.045851093 0.036772966 0.10351199 0.09823713 -0.048781544 0.07127038 -0.137558 0.012611437 -0.15388188 0.02153424 -0.06748324 -0.012708112 0.03388071 0.026114391 -0.19724464 0.019353291 -0.026096722 -0.118617035 -0.07814532 -0.050330266 -0.06403804 0.04944286 0.08109955 -0.04433476 0.0881504 0.10279285 0.077434056 0.045864146 -0.005785311 -0.0678521 -0.10122306 0.081875116 -0.17045537 -0.0165093 -0.18244566 0.037301783 0.18524125 0.028304739 0.13527915 0.016166199 0.021925526 0.00014556201 0.1001918 0.14971079 -0.07015505 0.07250897 -0.014244944 -0.10172892 -0.18440427 0.047265455 -0.06187762 -0.028080804 0.09033221 -0.054856837 0.072252646 -0.04542465 -0.108793475
11 -0.023917565 -0.09988461 -0.052711822 0.101641946 0.14006843 0.025266647 -0.041647438 -0.047312252 -0.0837678 0.05709927 -0.060939856 -0.23426104 0.009841217 -0.014243353 -0.091067836 0.018020105 -0.13828032 -0.06398757 -0.007565907 -0.13100012 0.17942052 0.031557906 -0.16527046 0.11215684 -0.1234396 -0.09983898 -0.13939184 0.1519265 -0.0076401974 -0.047889445 -0.07456158 -0.065820485 -0.12513374 0.20339341 0.022938378 0.081970826 -0.096019655 -0.10114251 0.004632079 -0.042914864 0.0055331355 0.067861505 -0.12068047 -0.06843657 -0.1694434 -0.015335647 0.0645289 0.108374864 -0.04016987 0.069418505 -0.012110866 -0.071113095 0.047321867 0.14367555 0.11958035 -0.121990345 -0.1255587 -0.018429777 0.0356148 0.07123192 0.01981278 0.093179025 -0.041055687 0.1577134 0.09376679 -0.15805711 -0.0013813354 -0.13570735 0.0031670707 0.052611828 -0.06187604 0.09553932 -0.10340755 0.11435861 0.061264906 -0.03137904 -0.078838535 -0.111105405 0.039239373 -0.16808778 0.06698827 -0.03928843 -0.022118658 -0.03138118 -0.059146415 -0.17187278 -0.081511244 -0.10883311 -0.06261625 -0.08979151 0.03659613 0.13204129 0.065098815 -0.06518712 -0.15028456 -0.06349579 0.00033829614 -0.0048572063 0.020992482 -0.03321507 0.15694688 -0.0950648 0.10685691 0.019033516 -0.03886184 0.120758325 0.01700487 -0.11087736 0.16925244 0.04660036 -0.09498061 -0.048166543 -0.043867715 0.085087694 -0.043354243 -0.008163554 0.11520008 -0.08920972 0.029156607 -0.08053301 0.022281025 -0.006085593 0.13295428 -0.05965743 0.025509328 -0.06177531 0.092476584 -0.11465563 -0.0059754844 0.05132576 0.04632298 -0.064324945 0.037238706 -0.09291551 -0.07392672 0.022561457 -0.034598116 0.059908602 -0.095103815 -0.14515595 0.08367818 -0.07324647 -0.031480156 -0.10475371 -0.07651561 0.011032546 -0.12195435 0.022154741 0.20457707 0.09407586 0.03933916 -0.014041883 0.040078912 0.008088803 0.12424893 -0.24558534 -0.041007947 -0.22765844 -0.08625334 -0.056811247 0.10597386 0.077580325 -0.13290624 0.05449721 0.07806585 -0.009355208 -0.044879112 0.02082625 -0.054658413 -0.053541515 0.08155545 0.031827003 -0.05220332 0.121132486 0.048288334 -0.0033585182 -0.028106308 0.051168084 -0.18022951 0.05502069 -0.19563079 -0.04254502 -0.10230673 0.041551836 -0.19334629 0.0129062785 -0.101263605 -0.0049665063 0.053286254 0.13052359 -0.020041786 -0.025336552 -0.13197157 -0.2978613 0.11234269 0.14311258 -0.0014514392 -0.023997756 -0.039078943 0.037289653 0.024535963 0.04984255 -0.03345766 -0.057278544 0.08056541 -0.05370914 0.02633825 0.03662345 0.2325007 0.016230978 -0.24975018 -0.022731379 -0.037769433 0.03042545 -0.08689727 0.033958793 -0.009000681 0.12735496 0.058924634 -0.04144911 0.044364896 -0.07921371 0.047335505 -0.06413384 0.0035944304 -0.0013739899 -0.017995443 0.09148988 -0.029750293 -0.012584006 0.00055116974 -0.19964197 -0.030998472 0.15166602 -0.1436126 -0.069536306 0.038956862 -0.030865833 0.07781966 -0.036811486 0.0012275687 -0.12778278 -0.12869425 -0.0742104 -0.007975045 -0.07966939 0.036779195 -0.018487126 -0.052976985 0.058271233 0.13211119 0.018222714 -0.08222263 0.048806462 -0.012483065 -0.056162413 -0.066381164 -0.08309488 -0.07904063 0.17492889 0.16528049 0.0026453857 0.13940752 0.04403848 0.019311236 -0.0018307259 0.075374834 0.19888742 -0.0389147 -0.02457628 -0.104423046 -0.040482312 -0.024354512 0.1325736 0.056295525 0.07096896 0.1435849 0.095103465 -0.050835732 0.13923503 0.031055946 0.1677187 0.024645662 0.16116033 -0.095760666 -0.016033657 0.16395366 -0.108306885 0.19536366 0.05321788 0.07590968 -0.1457371 0.0882134 0.05661819 0.07168249 0.07263058 -0.028841032 -0.0060652136 0.14169024 0.023950255
12 -0.056165725 -0.07077108 0.14572157 0.01872457 -0.035350397 0.05279675 -0.052532643 -0.1351493 0.0067045772 -0.00024577384 0.044410516 -0.004898589 0.04620775 0.097952455 -0.000733072 0.07517441 0.014035026 0.056641735 -0.1808036 0.0803518 0.029222049 -0.015703175 0.0054585603 0.07725704 0.09354833 -0.11023414 -0.0059464946 -0.001528925 0.027339464 0.016543396 -0.06836007 0.008121367 0.06915017 -0.043574512 0.068406865 -0.037924387 -0.021168921 -0.046069957 0.066323616 0.004062691 -0.23123103 -0.090233855 -0.13534993 -0.052853 0.0034860333 -0.05025029 0.087653324 -0.021980334 -0.04861483 0.009237994 0.16071293 -0.060655292 0.006385534 0.08821615 -0.0061423685 -0.12092066 -0.083713815 -0.14797336 -0.10316973 0.08705369 -0.21869764 0.060452085 0.059172384 -0.028517991 -0.011531856 0.10374432 0.013887762 -0.10163838 0.06332077 0.05875129 -0.049801067 0.061756145 -0.002871653 -0.089213416 -0.04039434 -0.111332335 -0.1090488 0.123372376 0.04607097 0.04196155 0.018204045 -0.15954998 -0.043200888 -0.063453406 -0.121570215 0.05853012 -0.090816386 -0.105088465 0.003048003 -0.028225835 -0.03525578 -0.07015266 0.0019484992 0.060263354 0.12010631 -0.1462453 -0.12000169 -0.11155267 0.08821456 -0.16766413 -0.031817406 0.02739585 -0.08105488 -0.008541639 -0.037657335 -0.06330089 -0.097982034 0.010863094 0.101209536 0.0701602 -0.07060029 0.11122761 -0.047880102 -0.04750318 -0.08739882 0.09294499 0.050366547 -0.04821784 0.08860835 0.14468573 -0.024122035 0.05724814 0.2047315 0.15539518 0.021131469 -0.20906806 -0.03398483 -0.06452167 0.20175466 -0.11875886 -0.02602522 0.014727944 0.03876064 -0.22940414 -0.022639396 -0.038876466 0.13280843 0.010315162 0.05758325 -0.032230582 -0.080988005 0.12350243 0.021204894 0.018961996 0.049627494 -0.039141286 0.14477289 -0.11701208 -0.025059141 -0.124819495 -0.10009112 -0.12801626 -0.020380875 0.14540336 -0.11164762 0.025411636 0.06647922 0.17214428 -0.0039752126 -0.24176842 0.042561922 -0.09463042 -0.17668746 0.13558444 -0.16055012 -0.095404305 0.17370892 -0.18586837 -0.055612423 -0.041484676 0.0977608 0.037368894 0.07213659 -0.06132219 0.066115566 0.078355156 0.21173699 0.015768016 0.072557285 0.080113664 -0.06769733 -0.014330751 0.016369132 -0.027845236 0.0059300982 -0.1141721 0.083831996 0.11095225 -0.053824157 0.050944004 0.041026644 0.09460732 0.060194436 -0.0326493 -0.015379085 -0.020120542 -0.12751944 -0.041651756 0.041109994 0.048351187 0.038612925 0.006190149 0.0976363 -0.053379677 -0.06102691 -0.03678861 0.04677238 -0.18916874 -0.044464346 -0.08047298 0.107156314 0.09498577 0.07203948 -0.07333874 0.08817293 -0.016968712 -0.0021712272 0.082002886 -0.0026205315 0.059580363 -0.00086932175 -0.00089843594 -0.124938205 0.014324484 -0.096321926 -0.021553336 0.04948033 0.059679314 -0.037872244 0.104083054 0.010224477 0.06365055 -0.02970829 0.037394445 0.13172877 0.032424327 -0.007183817 -0.08195332 0.038520016 0.037816614 0.008019022 0.033628408 -0.11664718 0.13755694 0.042383134 0.12609135 -0.12805372 0.04879015 -0.16413519 -0.020424368 0.06793054 -0.09388797 0.09367064 0.06396901 0.15486337 -0.014852894 0.11647038 -0.14274271 0.02609465 -0.1939988 0.09385025 0.10078103 -0.06452901 -0.03722671 0.03463168 -0.11598615 0.050423075 0.13022912 0.057209287 0.11401925 0.0080605475 0.014811474 -0.13238719 -0.004547174 -0.14664291 -0.15236239 0.09734799 -0.018220162 0.0065380554 -0.0069410554 0.059476968 0.08276097 0.12284477 0.0935959 0.075227074 0.09862353 -0.0704752 -0.09259945 0.013412847 -0.15821561 -0.10448394 -0.022564864 -0.04928713 -0.0216476 -0.12044318 -0.06488616 0.058503088 -0.14603071 -0.18717815 -0.02997792
13 0.02461363 0.25532633 -0.06538357 -0.13739473 -0.15328777 0.17207618 0.12919408 0.18614423 -0.03713599 0.09786777 0.1012546 -0.0694522 -0.0008206431 -0.08523067 -0.014002143 0.010155726 -0.08520344 -0.013143256 0.0061697257 0.00030393805 0.040494062 0.16176485 0.108531564 0.00059123413 -0.01652515 0.061541416 -0.111650735 0.043181803 -0.07152854 0.012001956 -0.02501068 -0.04088871 0.08963562 0.017209105 -0.06002886 0.040683944 0.029776817 0.025469473 -0.11414366 0.030556668 -0.003023212 -0.012220477 -0.03783866 -0.20000382 0.007974242 -0.023053117 0.15001027 0.24965547 0.21408732 0.036037337 -0.13672282 -0.1615447 0.038835574 0.073415734 -0.050272767 -0.031732094 0.038748916 -0.11209286 -0.10959749 0.005466395 0.07585757 0.09122836 0.0322074 0.10023622 0.04132027 -0.08411998 -0.089034654 -0.045857713 -0.1959525 0.10965243 -0.013429354 0.13687503 0.07073135 0.034105256 0.017037766 0.0039799903 -0.018448053 -0.046656955 -0.023374554 0.03594656 -0.014226395 -0.059991952 0.086315446 -0.052449666 0.013756286 0.18664964 -0.16079627 0.1225003 0.035975583 0.046698518 0.019949216 0.04370326 0.017253445 0.07349964 0.0037179594 -0.042804476 0.14830962 0.11398239 -0.02403905 0.11622584 -0.0093153985 -0.056635495 0.16665266 -0.08838627 -0.01320037 -0.033605527 -0.049056042 -0.04910113 -0.06915652 0.05525732 -0.10512956 0.019122832 0.1302078 0.097188644 0.07677736 -0.07369581 -0.03810636 0.09309842 0.10055104 0.042950515 -0.16136421 -0.05518788 0.15797465 0.16369046 -0.028452216 -0.005898245 -0.12962613 0.051917166 0.060203664 0.16489422 -0.16316943 0.0968224 -0.094435446 0.05629187 -0.011322523 -0.066064835 -0.094654426 -0.040926844 -0.07796328 0.13316727 -0.009754091 0.029665437 0.07572431 -0.0187313 -0.09991792 0.16488582 0.2589826 0.023682646 -0.109561935 0.047040384 0.036519073 0.12321798 -0.09576335 0.028158797 0.019651987 0.10990404 0.016928462 -0.11595705 0.0013526846 -0.1340862 0.09294025 0.026442692 0.1556568 -0.034303553 -0.14155822 -0.0365082 -0.026638342 -0.14371368 0.14483273 0.056182515 0.0724925 -0.058561683 0.19598146 0.022604855 0.0611364 0.17384048 -0.03040743 0.011281331 0.10202615 -0.15185587 -0.18674248 -0.07648382 0.10314817 0.013062116 -0.13497597 0.083821274 -0.027342495 -0.1725152 -0.22809088 -0.05884619 -0.039225716 0.040860176 0.03968498 0.04935979 0.027218215 -0.1227086 -0.011536947 -0.08257097 -0.1365382 0.038356658 0.10721092 0.057983514 0.00713131 -0.12453087 0.012135178 -0.033972133 0.13693339 -0.060067166 0.044675242 -0.020411646 -0.085202836 -0.097948596 0.100821264 0.11102504 0.0012880636 0.017305005 -0.0022688585 0.09107243 -0.078155115 0.019147053 -0.034346182 0.014504193 -0.117964946 0.102647096 0.028693987 -0.0026346762 0.07108151 0.01649704 0.13880935 -0.055143196 0.06791761 0.04070273 -0.18628128 -0.031470243 0.046579096 -0.01695322 0.016651968 -0.054768413 -0.11977304 -0.037861425 0.043141764 0.18208727 0.1153662 -0.15574317 -0.04899544 -0.007846308 -0.13386427 0.20485994 0.019367462 0.003802847 -0.03418776 -0.054767396 0.045323767 0.031129638 -0.1278846 0.0637303 -0.14542332 -0.06864891 0.0015285322 0.08563515 0.009677958 0.04011453 0.07297276 -0.17872691 -0.04750613 0.08311116 -0.0097766705 -0.0847944 0.052020565 -0.193486 -0.18990217 -0.08247919 -0.11570713 0.114475586 0.11476076 -0.053739622 0.00994962 -0.0070586465 0.015126061 0.09206518 -0.065261886 0.10255043 -0.120381065 -0.02972755 0.07814448 -0.0027248566 0.14225432 0.01952233 0.23040004 0.018846385 0.02526506 0.09520261 -0.035261102 0.08027373 -0.096203156 -0.21037114 -0.0068012397 -0.003934057 -0.07814928 0.02645051
14 0.19814117 -0.10590746 0.014465058 -0.055560656 0.18224525 0.0478798 0.08797611 0.12698056 0.14051484 0.048689928 0.16951232 0.047214534 0.02018152 0.058570247 -0.15987433 0.03602078 0.03280195 0.13503456 0.009197046 0.07138758 0.05801754 -0.23461914 -0.06886495 0.07305894 -0.024365243 -0.14061843 0.007919713 -0.16988385 0.020226305 -0.03132865 -0.061790977 0.0671417 0.045784116 0.13389473 -0.049806934 -0.0506047 0.018159822 0.17102113 -0.012751774 -0.0032222448 0.003033492 -0.06368389 0.00016913353 0.1865652 0.023829866 0.07606751 -0.0428783 -0.04021235 -0.11323872 0.10785862 0.015777033 0.0047381516 -0.04490982 0.13409536 0.2067879 -0.17121533 -0.06120975 0.17685519 0.011554845 0.035429694 -0.19040951 0.1638707 -0.23004998 0.01458155 -0.06593063 0.004584178 -0.08946255 0.1119696 -0.12434667 -0.03172671 0.10457917 0.06876976 0.12191648 -0.14117174 0.013024197 -0.06626376 -0.021439746 -0.04215626 0.13200854 0.03389348 -0.01592803 -0.04795737 -0.102649756 -0.009714758 -0.018108586 -0.015283745 -0.059496164 -0.049914375 -0.04420471 -0.12953262 -0.0025709292 -0.0021408377 0.13396463 0.04467196 -0.032733455 0.10301461 -0.033483446 -0.17617068 0.06566337 0.041849677 0.022943854 0.27417028 -0.0289543 0.06669575 0.014962197 -0.05056158 -0.018302303 -0.12951483 0.026105152 0.17068107 0.077469766 0.017765032 0.06630833 0.04995017 -0.064427055 0.022664813 0.07550372 0.016101358 -0.027396176 0.078481965 0.04455106 0.041662786 0.09678829 0.12138185 0.032240972 0.13203113 -0.06687528 -0.00040591497 0.031589754 -0.026119847 -0.115512945 -0.05969738 0.007698421 0.019895101 0.09629527 -0.028584298 0.05250654 0.10750054 0.09757077 0.038427614 -0.038213167 -0.15885851 0.057208724 0.082704686 -0.034214273 0.0026634955 -0.033194564 0.106130004 0.04097963 -0.121550955 -0.050758693 -0.03149228 -0.053305637 0.100874186 -0.026767556 -0.22539271 -0.005000495 0.113860294 -0.15250179 -0.07157379 -0.069177136 -0.00438493 0.16220483 -0.036148794 -0.010504992 0.12276557 -0.17780712 0.0883497 -0.017545242 0.006297957 -0.029955925 -0.02123782 0.13656057 -0.050990976 -0.022577966 0.11821096 0.07239286 -0.04840556 0.14280601 0.07511771 -0.2036099 -0.011526957 0.07692033 -0.0241967 0.13313474 0.029684616 0.1421489 -0.058315873 -0.036731493 0.024522066 0.07886769 0.029417027 -0.0069395923 0.075482704 0.0028500385 0.07082615 0.07009675 0.09563423 -0.07762533 -0.008685137 -0.043076266 -0.18239431 -0.15799865 -0.17383036 0.07904739 0.05590367 -0.19601403 -0.033718925 -0.053149626 -0.0475197 -0.006830084 0.18615387 -0.011321226 0.0048251674 0.03547101 -0.1276287 0.15023822 -0.050940152 -0.058552653 0.083057925 -0.1071422 -0.009416786 0.06579378 0.11687461 0.0014007387 0.010640393 -0.17032757 4.671139e-05 -0.10571406 0.050259706 -0.03838385 0.081244506 -0.07884725 0.032839943 0.044394694 -0.07836984 0.10910281 0.042374715 -0.07704833 0.05242792 -0.116117716 -0.04535909 0.03184686 -0.0135447 -0.0115030715 0.08553102 0.08222071 -0.10170411 -0.04600986 0.1359233 -0.083421834 0.079206824 -0.026185723 -0.025962394 0.047939826 0.022848178 -0.012681265 -0.12331204 0.15500952 0.20205306 -0.20625654 -0.02984189 -0.08676693 0.11043291 0.0685619 -0.06415826 0.05615449 -0.12312178 0.07117432 -0.103774905 -0.10189487 -0.08546713 0.04972522 0.06111324 0.1429532 -0.019152036 -0.033472434 -0.057037055 -0.0052689165 0.04162597 0.10303509 -0.0026494476 -0.033828463 -0.08131495 0.05890097 -0.12161924 -0.08342042 -0.041726593 -0.045381334 0.0054410715 -0.105383955 -0.14043358 -0.02371073 0.030943397 -0.06464422 0.1364356 0.14499177 0.15105478 -0.02221807 -0.057838168
15 0.13898976 -0.069724075 -0.013272568 0.15592578 -0.0005451337 -0.0049061547 0.09495188 -0.06210699 -0.09844557 -0.041977793 -0.02791435 0.2660025 -0.084552735 -0.050336815 -0.02424565 -0.09286543 -0.09303479 0.012287705 -0.031614725 -0.017752843 -0.16987617 0.021221979 0.036942918 0.08336232 -0.116568536 0.05357768 -0.13466322 -0.16592179 -0.12165549 0.03211162 0.035497088 0.08896837 -0.11475969 -0.06329068 0.0067935316 -0.050105285 -0.06023469 -0.12456083 0.11599428 0.10686909 -0.06553307 -0.092889525 -0.16080694 0.05982164 -0.124319315 -0.10671132 0.013243739 0.00085732306 -0.086911514 -0.11189928 0.009368893 -0.01891346 0.111194275 -0.029419249 -0.012103245 0.099981524 -0.047359325 -0.050259523 -0.15879083 0.013306147 0.21308056 0.086861104 -0.025977634 -0.040380042 -0.057149634 0.11355492 0.024813471 0.18061747 -0.0870162 -0.05781378 0.117633924 0.07049691 0.012000734 0.006310066 0.052730337 0.14987446 0.11566709 -0.05983837 -0.14436905 -0.15148672 0.17771515 -0.07713598 0.1488375 0.16835864 0.040213883 -0.025183382 0.10298264 -0.09470251 0.113175415 -0.031720307 -0.02458835 -0.053583045 -0.030467454 0.0335342 0.08693862 0.111558564 -0.01401653 0.010176738 -0.06627906 0.0812099 -0.1082689 -0.059429 -0.12103067 0.0042284327 0.105078526 -0.09607746 -0.06282466 0.084462225 -0.12544245 -0.023238037 0.16237006 -0.069894046 -0.059864957 0.06358152 0.01062442 -0.02269905 0.1925373 -0.07635887 0.01886819 -0.09938655 0.16324373 -0.11644073 -0.06618649 -0.1431252 0.09178857 -0.0028378821 0.0837547 -0.0349987 -0.10923951 0.037387166 0.03741902 0.008986309 -0.13380674 -0.071174495 0.03527667 0.16002898 -0.070352055 -0.103655316 0.1394135 0.2613358 0.11733275 -0.06307887 -0.07485964 0.12191464 0.14339569 -0.001472248 -0.05705664 0.124205634 -0.08837015 0.06933748 0.06591896 -0.025093302 -0.1312594 0.05618933 0.13240671 -0.015556548 0.052402068 -0.022594344 -0.105442226 -0.048365247 -0.1338444 -0.19277057 0.032786783 0.208 0.17220594 -0.17765093 -0.20402819 -0.07392869 -0.05195276 -0.020632187 -0.17318095 -0.055589803 -0.09252901 -0.120279565 0.124004155 0.0439378 -0.105723485 -0.014001334 -0.1996342 0.055717316 0.078296885 -0.094252825 -0.008517087 0.027976338 -0.07013919 0.13696808 -0.07509882 0.14450052 -0.00080582115 -0.034017686 0.0067201722 -0.043231737 -0.037594434 -0.07041486 0.006151066 -0.098132506 0.17967696 0.0852331 -0.10008433 -0.07170166 -0.08766082 -0.037175 0.13464488 -0.060776908 0.00941712 0.10331059 0.02999738 0.0187465 -0.08251737 -0.114821285 -0.21043846 -0.05274298 -0.0962348 -0.06884384 -0.028542573 -0.015603163 -0.008127915 -0.029073808 -0.11763862 -0.05330246 -0.1756137 -0.09748622 -0.024047907 0.02648882 -0.022160126 -0.03595323 0.07163308 0.022252833 0.058040626 -0.09929216 0.111438215 -0.12659499 0.03099685 -0.11744522 -0.06212425 0.012509074 0.093733236 -0.069384 0.052198894 -0.10773864 -0.15047118 0.05929384 0.038135476 0.08968115 0.015975013 -0.071530856 -0.032225378 -0.051159125 -0.10710785 0.003418106 -0.0013754361 0.1434585 0.12952952 -0.14772166 0.074350186 -0.09031265 0.011336167 -0.05751666 -0.1446283 -0.10646338 -0.04601347 -0.049411003 -0.037863396 -0.05929907 0.014925039 0.07829786 0.06371092 -0.015904646 0.08644975 -0.07540729 -0.059891924 0.008645816 -0.015855834 -0.1159574 -0.009994717 -0.04083493 0.15381148 0.095116325 0.11354632 0.009587746 0.100757204 0.08602373 0.12475697 -0.12077674 0.102308445 -0.06988623 -0.0037005986 0.027938386 0.05164512 -0.04045894 -0.123787 0.0843098 -0.02947245 0.13357565 -0.058654457 0.03897471 0.020575099 -0.04664604 -0.040494163 -0.05205594
16 0.0998713 -0.0005251092 -0.14878686 0.22012627 -0.19827518 0.021926971 -0.06047892 0.08087945 -0.06922611 -0.030036824 -0.05105216 0.09452324 -0.029922148 -0.084092416 -0.037600387 -0.039588973 -0.08833146 0.07791866 -0.15332313 -0.056044314 -0.14928964 -0.14652331 -0.037684 -0.11464003 -0.030875986 -0.046110943 -0.07397678 -0.06290545 -0.18232828 -0.052255917 -0.1334723 -0.17078522 -0.042607818 0.10184084 -0.05969364 0.08118902 -0.23509504 0.026583383 0.11210134 -0.029517435 -0.18878245 0.014049304 -0.01516549 -0.007341635 -0.116426 0.08367962 -0.11757637 -0.0956432 0.09057303 0.30380073 0.17125562 -0.07465499 0.15130542 -0.13581257 -0.0760794 -0.00081134937 -0.083004005 -0.026510933 -0.03411821 0.022617586 -0.035068564 0.044689562 0.17345968 -0.008820733 -0.061611395 0.09172067 0.06838349 -0.025044609 -0.09561736 0.1469623 0.16605945 -0.16571645 0.0032061946 0.044297613 0.089424536 0.08750113 0.16465782 -0.10676717 -0.028979938 0.013956261 -0.005725841 -0.036251847 -0.00644768 -0.23315933 -0.068567656 0.05100578 -0.07666055 0.038656883 0.022645205 0.049045306 0.116680145 -0.08219691 -0.020805243 -0.09925723 0.08837185 0.17461649 -0.108772844 -0.13990726 0.07642719 -0.0030318792 -0.0016600877 0.07017544 0.2051292 -0.03027637 -0.06399716 0.024259193 0.04444246 0.01485439 -0.026940607 -0.16432002 -0.030971466 0.18389823 0.0145203285 0.051851023 -0.043522835 -0.05713348 -0.035306506 0.022924218 0.025511455 0.03356208 -0.0033424622 -0.07080508 0.12120677 0.0035317575 -0.052631535 0.03601717 -0.010211673 -0.01880883 -0.008422214 -0.17441715 0.017065678 0.073528975 0.10792632 0.02119524 -0.11243057 0.019301511 0.10147126 0.044278003 -0.03598566 0.092952885 0.06106504 0.032605365 -0.06585903 -0.056259543 0.06111305 0.049529143 -0.059105605 -0.035006553 -0.11283212 -0.13024186 0.036633536 -0.009880487 -0.23288326 -0.12664765 0.10177001 -0.08916352 -0.056825962 0.004093844 -0.04644674 0.028106127 0.028510783 -0.05833937 -0.07095153 -0.03547592 -0.06747203 0.09161575 0.14948775 0.15831721 0.007418281 -0.05596267 0.01171937 -0.14608692 0.19226956 -0.088388704 0.011447567 -0.07373954 -0.10984869 0.035289504 -0.1283945 -0.012558157 0.1076761 0.1255474 -0.046145286 -0.013937169 0.07111782 0.060547195 -0.020784311 -0.02444999 0.053886242 0.07492056 0.02314573 0.06289343 0.10070272 0.06273677 0.043661095 -0.037828796 -0.061227176 0.09412189 -0.052382085 -0.019030815 0.12164365 0.001692824 -0.1758823 -0.10416976 -0.033901375 0.12652975 -0.04100461 -0.018137662 -0.1553654 -0.05057792 0.021335997 -0.019423949 -0.11734953 0.19137059 -0.07035082 0.021190567 0.07774218 -0.0767665 0.08394849 0.0464623 0.09998166 -0.08614057 -0.078910194 -0.034382813 -0.07232818 0.12929247 0.07253642 -0.053372838 0.017019171 -0.04285943 0.08229507 0.006905467 0.050884668 0.031977013 0.1287296 0.042418938 -0.17549567 -0.17167431 0.01170925 0.07525631 0.018177656 0.019005867 0.04256166 -0.10213226 0.043091852 0.09849711 -0.16406712 -0.1536459 0.11909565 -0.00036968035 -0.029699037 0.043797642 -0.057205033 0.22930937 0.19879864 -0.045283303 -0.07100533 0.17105435 -0.050244257 0.004337236 -0.04259917 0.026543336 0.17643549 -0.05920107 0.13793705 0.10586732 0.014536093 -0.0036591836 -0.071909055 0.1511499 0.10047309 0.020774452 -0.094651915 -0.030228069 0.11613763 0.042258453 0.05736629 -0.21813892 0.07994837 -0.07549839 0.086781584 0.037124045 -0.03241158 0.06180603 -0.049303707 -0.027308447 0.11557957 0.040720735 -0.031245073 -0.013205774 -0.05060383 0.072101295 0.021327373 -0.10821177 -0.024214001 -0.0045166453 0.055304334 -0.17573547 -0.0026158062 -0.13575801
17 -0.04417203 0.07459946 -0.009793636 -0.025721554 0.00052750105 0.051032513 0.15587538 -0.11352587 0.04317603 0.02055794 0.0019935123 -0.10533547 0.015369095 -0.06886025 0.027054187 0.027641676 -0.10016365 0.027111994 -0.123949304 -0.018883837 0.07453001 -0.012681597 1.3425579e-05 -0.037004285 -0.0659455 0.005095849 0.092556804 -0.07800791 0.018510623 0.04535946 0.027586907 0.1545265 0.049700413 -0.0076022837 0.098661624 0.10769462 0.11434423 0.054490738 -0.09836589 -0.100864284 0.025253385 0.11163616 -0.017564453 -0.010019878 -0.12587114 -0.043879412 -0.0022758045 0.023073453 -0.061627522 0.0049796766 -0.0026069125 -0.123987935 -0.096171714 0.025758794 -0.05737992 -0.06186611 0.0017507332 0.11271461 0.04565856 0.0035775555 -0.010660171 -0.100775115 -0.06686216 0.0122194 -0.105884776 0.04725775 0.0983588 0.088528074 0.09950673 -0.0053944085 -0.14929557 0.05066562 0.13475448 -0.039997637 0.07978488 0.11669255 0.062446866 -0.018777646 0.024329858 0.11714497 0.050073482 0.035590425 -0.029086983 -0.007832116 -0.014869807 -0.12126046 0.08548996 -0.0022173868 -0.01805306 0.031104486 0.100154825 0.04163354 -0.08894712 0.05226905 0.086233415 0.0511703 -0.05669872 0.01767757 -0.014039946 -0.005115408 0.03317573 -0.060422506 0.07006431 -0.07356505 0.052800644 -0.054613423 0.06157887 0.12234705 -0.063181736 0.053628933 0.003627187 0.0052613574 -0.036169905 -0.052731887 0.10338472 -0.053510066 0.022915594 0.08533223 0.03274509 0.080417 -0.004728778 -0.059969228 0.059986923 -0.030095361 -0.012924038 -0.043544095 0.068392746 -0.14721556 0.020708427 0.112480015 0.100606 -0.077168815 -0.07303322 0.10685722 0.053842798 0.0023985114 0.07410948 -0.01867161 -0.06281792 -0.07150836 -0.07492638 0.037585504 0.017803458 -0.0022213527 0.099835455 -0.044251077 -0.17640258 -0.026100542 0.031662248 0.01069154 0.13647754 0.09990955 -0.011642186 0.08082747 -0.06848295 -0.043670606 0.040074926 0.036342956 -0.079617724 -0.036428005 0.069721036 0.045457475 -0.042912073 0.077295795 -0.07620117 -0.08670357 0.0031739955 -0.09251994 0.021250919 0.028881354 0.02707676 -0.081297256 -0.11282445 -0.04844043 -0.040453088 -0.06288425 -0.0787854 0.043680757 -0.00899223 0.008191471 -0.16792044 0.00893499 -0.07574802 -0.012920302 0.027408889 0.073118426 0.12494048 0.11739794 0.05319466 0.025483014 0.031144168 -0.07301064 0.14039262 0.08515966 0.030088462 -0.07769063 0.013970069 -0.08625874 -0.12524839 -0.1608071 0.18278912 0.055905852 0.0862478 0.0061821793 -0.075361826 -0.12612623 0.048462458 -0.005333267 0.11787387 0.09408429 -0.026971307 0.047715276 0.14325094 0.09301752 0.016743183 -0.20619415 -0.04221743 0.028085344 -0.024129104 0.015440807 0.12313494 -0.0369834 -0.015888447 -0.00037419435 0.1439934 -0.03464206 -0.028264135 -0.088927455 0.0016568621 0.03455064 0.07957904 0.21399072 0.058958117 0.05583003 0.010238261 -0.035179507 -0.054145895 0.10540546 -0.1274251 0.09070594 -0.11942628 -0.015554799 -0.028938724 -0.02712046 -0.010997684 0.06480776 -0.12527718 -0.00959743 -0.15985255 0.094417505 0.0703498 0.07376102 0.028365714 -0.023913266 -0.010755313 0.0008867393 -0.044305168 0.06340758 -0.13958377 -0.11678283 -0.079021096 -0.14180306 -0.10431993 -0.052676678 0.04354234 -0.06562881 -0.042045128 -0.06786125 -0.069238946 0.0923958 0.012130897 -0.10986868 0.14565478 0.06373396 0.088016 -0.022954203 0.0338028 -0.0873019 -0.033766054 0.09959127 0.06613994 -0.06822248 -0.07343325 -0.016380861 -0.048305098 0.034455452 -0.0748533 0.13269278 -0.043944396 -0.014188775 -0.05080774 0.007819203 0.045842808 0.0022412853 0.06769685 0.071837135 -0.032490082 0.04323218 0.08849791 -0.039603207
18 -0.0011669466 0.067152984 -0.030421086 0.05927424 -0.011391682 -0.12359566 0.0013897932 0.031374384 -0.050899968 -0.06372603 0.020928582 -0.12155185 0.11929536 -0.030534472 0.022252198 -0.04317608 -0.07190374 0.18125828 -0.02048306 0.08291996 -0.15990543 0.08341641 -0.045801442 -0.0942316 0.14566486 -0.10083242 0.0015667927 -0.04267687 -0.007577104 -0.08454779 -0.0834902 0.028815815 0.0027575516 0.10516242 -0.1009712 0.060893383 0.035943378 0.14641362 -0.085947745 -0.14359576 0.09106129 -0.023448167 0.15090546 0.007476151 0.05027852 0.012976508 0.14630821 -0.144388 0.12284635 0.009910343 0.17010093 -0.08341291 0.03133513 0.053003635 0.03889802 -0.076745324 -0.04500764 -0.2080063 -0.10615762 -0.06568468 0.050795324 0.06567271 -0.02166149 -0.06561438 -0.2458833 0.03763557 0.01827922 0.0048546665 -0.010791364 -0.009264357 -0.08221682 0.16483265 -0.09940456 -0.1198966 -0.0008916397 0.021886248 -0.1221126 0.10141939 0.11956244 0.06843191 -0.13831495 0.059031855 0.10422762 0.053645127 0.07039948 0.055946037 -0.12158608 -0.024802897 0.06332283 -0.03160819 -0.095843054 -0.16914813 0.10743568 -0.091606304 0.008017743 -0.19277488 -0.0661126 0.12143433 0.022422506 -0.020329764 0.10965424 -0.027478723 0.12326112 0.02606501 0.100576766 0.09463431 0.037248332 0.13779533 -0.06073704 0.06739326 -0.06475145 -0.03651652 0.00456727 0.016314974 0.0943363 -0.08100748 -0.027154732 -0.109079555 -0.09199935 0.037596274 0.04032042 0.044155516 0.023049908 -0.05160344 0.12100363 -0.011826429 -0.07617783 -0.0007935314 0.108774014 0.06621522 -0.12558477 0.00039127623 -0.09534796 -0.064624704 0.08337853 -0.020125711 0.13538052 -0.023771774 -0.009797182 0.27091596 0.09276666 0.004068047 -0.10527094 -0.107531376 -6.928182e-05 0.054958526 0.05604561 -0.012907157 0.12817512 -0.05166522 0.112367906 0.05797676 -0.04207615 0.022290336 -0.02617214 -0.09689045 -0.02251005 0.11351435 0.07340512 -0.12537222 -0.06666409 0.081399195 -0.11911453 -0.040920135 0.04477771 0.0676309 0.008760214 -0.012187478 0.0130057875 -0.057929326 0.080168694 0.03707819 -0.07720732 -0.10725256 0.05916654 0.17906985 -0.17658271 -0.021227807 0.10236957 0.12693043 -0.037896123 -0.10032504 0.042067405 0.018005533 -0.071844466 0.06750236 -0.031541083 -0.025682313 0.017257368 -0.11811446 -0.07789049 -0.12027071 -0.04381792 -0.042218674 -0.0029224977 0.13511974 0.010751819 -0.056278817 -0.022161694 0.1170875 0.02974986 0.057804022 0.034353077 0.086046 0.02734069 -0.06291365 -0.11411454 -0.06834459 0.10855152 0.030562228 0.11881592 -0.019642077 -0.033207223 -0.11481736 0.060361978 -0.12470913 0.114397 -0.06534207 -0.12033694 -0.013487206 -0.048704166 0.049395386 0.0026082068 0.059657525 -0.13828047 0.0066356487 0.13450119 -0.11207739 -0.1368492 -0.019196253 0.004897227 -0.03718793 -0.106986314 -0.16940199 0.028640559 0.09985407 0.016767962 -0.06475448 0.08895597 0.058797415 -0.0672904 0.06781902 0.13585633 -0.05811751 -0.044788487 -0.19184236 -0.14876203 -0.031816788 -0.10229886 -0.028517686 0.0642406 -0.074809566 0.010576787 -0.112786815 -0.009007027 -0.0535434 -0.1932237 0.04784025 0.112229794 0.06460229 -0.032654822 -0.09096544 -0.060398336 -0.016602965 -0.050840188 0.13550399 -0.07599365 -0.056727342 0.010969556 -0.004889057 -0.11645977 -0.16864157 0.051194303 0.20186701 0.13465504 0.05556568 -0.08546795 0.008460162 0.06296436 -0.15472926 0.0038808754 -0.026305065 0.07212291 -0.008649824 -0.057805683 0.12488621 0.09114753 -0.029478189 0.0027760873 0.18540259 0.07126164 -0.029730419 0.06699162 0.03446152 0.08723217 -0.057701647 -0.112774745 -0.05125706 0.13378885 0.14390385
19 -0.00030559924 -0.021694541 -0.14451288 -0.021835087 0.04972365 -0.07013471 0.062725455 -0.042802263 0.032817375 0.06659992 -0.0042551667 -0.048509452 0.01814191 0.028023878 -0.061594628 -0.17606401 0.030626219 0.010669849 -0.038072824 -0.14283015 0.059269868 -0.044634398 -0.025442366 -0.00015924823 0.0068038525 0.17335123 0.01829481 0.08758485 -0.021014532 0.099950954 -0.14620963 0.05164952 -0.012606048 0.0077138254 0.08963585 0.03636895 -0.08878582 -0.08924856 0.14575435 -0.08744951 -0.024946265 0.14494926 -0.03756179 -0.100645825 -0.041753132 0.0496059 -0.155064 -0.016602054 0.005771371 -0.08411005 -0.07918064 -0.15214309 -0.12927087 -0.11762733 0.011054942 0.033098392 -0.041545164 -0.18223621 0.19348937 0.03981354 -0.08687707 -0.031460423 -0.07577992 -0.087192126 0.042518783 -0.041425366 -0.20631824 0.05864294 -0.13075726 -0.15780964 -0.15821722 -0.0644603 -0.05388365 0.024267118 0.08195646 0.01887986 -0.016700648 -0.099060334 0.010074343 -0.063251615 0.11992447 -0.01143832 0.06554312 0.15381163 0.018405821 0.05193124 0.12780811 0.03668313 -0.0060308278 -0.0123754395 0.13249317 -0.10796152 0.15787734 0.066575184 0.013738223 -0.10083352 0.07723007 0.095819905 -0.10171086 -0.088200495 0.080994815 -0.12816854 0.14602765 0.163477 0.04767478 -0.10021466 -0.11099864 0.032242425 0.00852378 0.07115343 -0.1319982 -0.03876849 -0.20189673 0.00906593 0.05184194 0.07439841 0.012391639 -0.07447605 -0.08479994 -0.01319682 0.13472103 0.08995102 -0.12840971 -0.00899593 -0.06535025 -0.018349446 0.007903579 -0.11690713 -0.073560156 0.17764185 0.01860237 -0.04597349 -0.0023257732 0.008195777 0.03733885 0.04044899 -0.050001826 -0.18755548 -0.058138173 0.0040030507 -0.05245744 -0.036164906 -0.08547223 0.000753204 -0.09461097 0.047435205 0.11408822 0.041279633 0.038109764 0.06288717 0.096597575 0.13874641 -0.025758484 0.12085227 0.086226024 -0.05668165 0.071718924 -0.17011182 -0.044746935 -0.11257853 0.07607813 -0.026342586 -0.018829623 0.103349596 -0.0043447926 0.056365978 -0.007871553 0.10855027 0.09147457 0.07080116 0.09431262 -0.05253175 0.04331646 0.11249262 0.09460724 0.11332463 -0.07102165 0.08085357 0.14186166 -0.032097913 -0.0012050435 -0.132754 0.05329934 0.045168813 -0.03547001 -0.0024477465 0.10327753 -0.047808252 -0.14714888 -0.13788445 0.008421152 0.093914494 -0.030177034 0.029544575 0.010484323 0.0393768 0.013042752 -0.16549984 0.068252236 0.09333644 0.06443499 -0.070283785 -0.049556404 -0.11206083 -0.23226427 -0.13099064 0.09095776 -0.18565832 -0.12681085 0.040236562 0.05202204 0.08876025 0.1833726 0.0367997 -0.09815645 0.041480903 0.17988086 0.019773945 0.02723625 0.052587997 0.012180397 0.09625891 -0.12607867 -0.1517431 0.009898604 -0.19002129 -0.02591953 -0.10042919 0.16958095 0.1275452 0.08116056 0.006618166 -0.034711517 -0.095631026 0.07017746 -0.038929265 0.024285777 -0.13443619 0.023279589 -0.04590419 0.07192774 0.18306263 0.02929528 -0.1256417 -0.07816623 -0.030130666 -0.15892321 0.16074854 -0.009645314 -0.10800995 0.07404005 0.022054143 -0.016534312 -0.004087752 0.07679737 0.021126352 -0.06689712 0.09537829 0.07354241 0.068984665 0.00610072 -0.031778913 -0.019606834 0.024389932 -0.033266928 -0.0884023 -0.13749334 -0.037197407 -0.09824575 -0.11695077 -0.009582852 -0.089402914 0.0058313073 0.08479051 0.05847749 -0.10882048 -0.013624541 0.04966339 0.07435258 0.02302226 0.07898278 0.06291557 -0.117756695 -0.05303322 0.06354176 -0.048244536 -0.021901706 -0.0015577428 -0.05646347 0.025816936 0.0385403 0.10963955 -0.0010075375 0.07361035 0.25936148 -0.10296795 0.02270283 0.12515667 0.02445409 -0.0047807717
20 -0.036493152 -0.06742082 0.063073784 0.1313072 -0.11550931 -0.13651185 0.107565075 -0.03665177 -0.06264066 -0.10498318 0.048531223 0.013580462 -0.07004809 0.026226085 0.06541151 -0.034433942 -0.010444854 -0.048527326 0.0023007644 0.061722293 -0.067586094 -0.06561667 0.07788613 -0.0062458185 0.09920766 0.009767575 -0.08955421 0.051205117 -0.070373915 -0.0397988 -0.2300715 0.00864858 0.056864813 -0.11615885 -0.06203255 -0.008045919 0.026584037 0.063869745 -0.033462923 -0.14910898 0.107114784 0.13104232 -0.012873747 -0.005990237 0.006429561 0.041330952 -0.06869926 0.04504166 0.089918286 0.035419933 -0.048820313 0.13874009 0.015189906 -0.033070553 0.084457025 0.0588182 -0.15231368 0.06212647 -0.066485345 0.17020564 -0.042818688 0.046594467 0.07409045 -0.010650327 0.16080436 0.1563603 0.098174684 -0.011638923 -0.19631174 -0.0027393005 -0.02740532 -0.032690175 -0.07466727 -0.029153913 0.031055005 -0.12992962 -0.083144225 -0.027861755 -0.03333912 0.16210607 -0.09174439 -0.019888883 -0.032264385 0.085937664 0.012916033 -0.006141903 0.028615966 0.08423625 -0.0100553315 -0.032927956 0.13065544 -0.019876301 0.0273381 -0.03933191 -0.09384219 -0.12388533 -0.048901986 -0.013462322 0.113395534 -0.016077928 -0.00819648 -0.12662004 -0.08551412 -0.030733803 -0.04019 -0.11504603 -0.09717992 0.16599274 0.04004189 -0.072121605 0.0869827 -0.023071487 -0.046505403 0.0013392082 -0.13744865 -0.016545868 -0.05227993 0.09616701 0.08380619 -0.10754153 -0.0022998722 -0.045849867 0.028117418 -0.06686605 -0.18032435 -0.19663808 -0.025539659 0.09926593 -0.13795869 0.013921002 0.023568893 -0.0006096763 0.06680919 0.07741328 -0.00112725 0.0006823825 0.040414445 -0.07753671 -0.030761346 -0.043180645 -0.060147434 -0.03408692 -0.13012095 -0.14414673 0.117691725 -0.071871415 -0.0031108581 0.14193447 0.00047824136 -0.057105444 0.06805218 0.037705403 -0.072049186 0.057714127 -0.123280965 -0.1166001 -0.025076058 0.020575566 0.04180883 0.13756843 0.08217561 0.037156675 -0.0027769008 0.072930574 0.1647558 0.12209131 -0.01401467 0.15580352 -0.031247567 -0.009472464 -0.0562841 0.042099044 -0.07401866 -0.09339988 -0.0058383537 -0.06102853 -0.026798751 0.010979226 0.0020649508 0.093511514 0.053240467 0.15498085 0.059547056 -0.05178705 -0.17156291 -0.08156082 -0.07836326 -0.07074003 -0.13264729 0.1264722 -0.1103123 -0.024501866 -0.05145758 -0.11314694 -0.10034304 -0.022671103 -0.010617102 0.0041173226 -0.00594178 0.05150311 0.028341424 -0.047430422 -0.03916916 -0.038764518 0.04305325 0.053401623 -0.030127762 -0.053840637 0.056764428 -0.07771133 0.017354297 0.052765388 -0.036386024 -0.06861436 -0.0463505 0.10256592 -0.13802628 0.045907773 0.09350595 -0.017606545 -0.10328327 0.123861216 -0.053280823 0.061263755 -0.11765881 0.03287524 -0.0117356675 -0.04339276 0.078570195 -0.03410528 0.018770376 0.044451457 -0.07037589 0.09885644 0.07960044 0.032046434 0.01145556 0.12541342 0.03939252 -0.10197425 0.048539232 0.052860875 0.13597357 0.05244589 -0.055555962 -0.0027771725 0.13436066 -0.07302901 -0.00854189 0.039363872 -0.1461203 0.028889095 0.0008395271 -0.00880113 0.16050571 -0.059869595 -0.06839533 -0.013303737 -0.13556828 0.26608893 -0.08056678 0.02718262 -0.02581152 0.1326194 -0.019761076 0.07522831 -0.120856404 -0.06756632 -0.091091804 0.09021179 -0.05002584 -0.057545345 -0.08878881 0.0347105 0.082162514 -0.025743641 0.07111694 0.017059527 0.071164116 0.0127032595 -0.071273595 -0.14531413 0.030517738 0.048981372 -0.1757867 -0.045337193 0.03786231 -0.032944392 0.16778685 -0.036318503 -0.013103279 -0.07305441 -0.09786279 0.033112783 -0.06463743 0.043242566 -0.04230576 -0.093757324 -0.015409941 -0.0065426496
21 -0.0736281 -0.008411024 0.13362482 0.06388655 0.06888402 -0.018351791 0.05070039 0.100159295 -0.010703714 0.0055880537 -0.017521292 -0.03580777 -0.010205035 0.025539814 0.08379728 0.07200912 -0.12410522 0.081981465 -0.0103395665 -0.10314192 -0.1283804 0.015451935 -0.13944021 0.10397973 -0.027955076 -0.059777748 0.13338591 0.13484997 -0.17222385 -0.0832283 0.053343706 0.08247537 -0.010539961 0.020619692 -0.09688202 0.18965681 -0.0845974 0.0288568 -0.04169137 0.060737494 0.07528987 -0.20720848 0.08888155 -0.08882167 0.2360402 -0.06028294 0.055613607 0.083239436 0.079710156 0.05288856 0.0548376 0.08292944 -0.029993203 0.006207634 -0.11399667 -0.016464254 0.036539216 -0.14847428 -0.06666938 -0.000753466 -0.06458204 -0.07084455 -0.10333188 0.103711106 0.05327119 0.150469 0.0701128 -0.0060126027 -0.025496824 0.047330443 -0.026776591 -0.15901083 -0.11011067 -0.07701121 0.040371496 0.129441 -0.009710748 0.05786361 0.10732984 0.04702786 -0.06503657 -0.06594054 -0.06546144 0.042134464 0.09519725 0.15961894 -0.11461579 0.10596984 0.085797876 0.05307688 0.03396819 0.0124835735 0.014897905 0.08059641 -0.027114509 -0.07288059 0.055241063 -0.16852875 0.022493044 0.13726583 -0.05387001 0.077191204 -0.030130086 -0.13329124 0.027420454 -0.16607134 0.118490525 -0.084442385 0.13166098 -0.15568438 0.11737067 -0.03515275 0.11582713 -0.116782896 0.08698357 0.015251756 0.12662645 0.07810196 -0.21026492 -0.15960935 -0.027463818 -0.102306664 0.10819969 -0.06581277 0.023470469 0.09471722 -0.053467747 -0.1805869 -0.02137933 0.028522434 0.13510698 0.05251814 -0.05023269 0.024830773 -0.03186552 -0.0841059 0.084375285 -0.11533924 0.05355348 0.09333792 0.21052936 0.15803842 -0.038411792 -0.09124017 0.040660415 -0.003293404 -0.00810681 -0.1283838 -0.13602464 -0.088920146 0.25634176 -0.10153452 0.024915919 0.046873327 0.008753381 0.095427 -0.15002976 0.09336583 -0.054187533 0.03486927 -0.0044643227 0.2415989 0.11932059 -0.17634624 -0.016688379 0.04616189 0.032359682 -0.030244146 0.004514959 -0.031106522 0.013792048 -0.01702214 0.07737398 0.15655114 -0.14544159 -0.1372983 -0.04250364 0.072212905 0.022135463 0.023800243 -0.051820304 0.01492171 0.018673217 0.06268053 -0.064113215 -0.20511547 0.036960214 -0.08326656 0.08154259 0.03189268 -0.024526672 -0.02805187 0.16932802 -0.10549235 0.016717702 -0.15449636 0.03892021 0.06861919 -0.030350883 0.011766505 0.1820539 0.07849935 0.01992442 0.019055571 0.04207146 -0.00646211 0.17752406 0.090009116 0.18828478 -0.014367103 0.022206785 -0.010677511 -0.15799262 -0.1193871 -0.13980548 0.03992166 0.03704754 0.14175415 -0.038793944 -0.061536025 -0.014521367 0.030318156 0.011980569 -0.0070310044 0.14539088 0.0540313 -0.04893453 0.12185915 0.058066905 0.08866295 -0.047531262 -0.12950276 0.11055163 -0.09351219 0.130025 -0.027821714 -0.082383655 0.16609491 0.014711747 -0.012937958 -0.111017965 -0.0713026 -0.08512302 -0.06072921 0.11535773 -0.009938586 -0.13901463 0.023843495 0.13297889 -0.23169243 -0.12141748 -0.13076195 -0.041870765 0.0265849 -0.042439725 0.099208824 -0.1598894 0.008498434 0.05447886 -0.22187623 -0.0025616395 0.07952379 -0.09699686 0.046148907 -0.031448912 0.05194562 -0.17194757 0.02152632 -0.05999885 -0.16402635 -0.19524714 -0.11828088 -0.005051473 0.09666937 -0.004891711 -0.1353908 0.15029679 0.14795703 0.021058898 -0.1147066 -0.033139817 -0.024204649 0.17245793 0.008151661 -0.015089271 0.0055651185 0.04547771 -0.04972852 0.014632914 0.02578001 -0.004652461 -0.04812355 0.07284024 0.049962133 -0.08582046 -0.22922693 0.19790144 0.13170266 -0.098550394 -0.18406318
22 0.036293995 0.08270381 0.104625605 -0.11657177 -0.11668128 0.03583289 0.057045735 0.122794494 -0.05093895 0.06589679 0.17065853 -0.05138258 -0.006353978 -0.0917014 0.008785272 0.029555984 -0.028919982 0.18075839 0.03597555 0.06388161 0.047030225 0.07855066 0.13705468 -0.03810965 0.040280484 0.056922946 -0.0151953725 0.0065090675 -0.11890317 -0.04098207 0.081016496 -0.042195667 0.10461059 0.11654955 -0.08161651 0.09027522 0.06182482 -0.059519216 -0.14283934 0.08253319 0.034610633 -0.04666488 -0.046658028 -0.078694716 -0.034038436 -0.17619735 0.10829744 0.12994172 0.17429684 0.07383532 -0.08347223 -0.046405222 0.024873005 0.1259973 -0.080922335 -0.087880895 0.07499125 -0.16814888 -0.09415654 -0.12024556 0.08547345 0.12597066 -0.057152025 0.025573725 -0.040625956 -0.14497784 -0.11126581 0.03629229 -0.12713903 0.06640183 0.07790728 0.011853669 0.04382627 0.051646568 0.10514711 -0.14971034 0.027766248 -0.11874515 -0.063447624 0.0569798 -0.038236614 0.044941075 0.12937652 0.045586735 0.11594859 0.205215 -0.04349791 0.07696665 -0.0639143 0.064814344 0.014745275 0.10184315 0.11425199 -0.035345927 -0.06566492 -0.02704487 0.11345129 -0.002981537 -0.023199627 0.13952996 -0.11914735 0.08482871 0.11937211 -0.06896672 0.05847411 -0.026900727 0.031954706 -0.11260294 -0.040822208 -0.06303184 -0.122235045 -0.13139299 0.09732365 0.1188879 0.0025645401 -0.033211384 -0.03913135 -0.036535885 0.09112909 0.05611438 -0.102062345 0.10161477 0.16788861 0.011040249 -0.03558053 0.037823647 -0.13957614 -0.030002298 -0.03067749 0.07768718 -0.057391886 0.043217823 -0.083648436 0.029551653 -0.007318615 -0.043114558 -0.023155924 -0.023851076 -0.08893202 0.1914517 0.028644785 -0.02869975 -0.040007703 0.054551296 0.049838696 -0.042776037 0.0015799073 0.03432067 -0.18105634 -0.0005840318 -9.027581e-05 0.053581715 -0.112379715 -0.010825382 0.023400348 0.09956661 -0.03617947 0.05289093 -0.100415595 -0.15042345 -0.07823604 -0.05360499 0.17058751 0.07629679 -0.10599328 -0.02251435 -0.11386029 -0.09521621 0.049342304 -0.0632574 0.060356103 0.0184141 0.054146323 -0.017437428 -0.077614084 0.05244366 0.07595613 0.045267966 0.005469246 -0.039897256 -0.084555246 0.03526196 0.044694666 0.08533151 -0.06591199 0.15222472 -0.024815874 -0.08479998 -0.090631366 -0.06474384 -0.015663065 -0.013888855 0.0176133 0.029738767 -0.033309173 -0.093978174 -0.0739758 -0.1045984 -0.1134228 0.13146627 -0.04911956 0.013381006 -0.024487102 0.0015382657 0.086905815 0.032751225 0.15815686 0.086388946 0.12883851 -0.013157066 -0.11186908 0.005948244 0.08495011 0.07487161 -0.037122175 0.1195959 0.030309185 0.046511058 -0.04680706 -0.028369607 -0.009435574 -0.06920316 -0.022430027 0.030825028 0.033179518 0.043245163 0.13906038 -0.0054893764 0.003983209 0.04145376 -0.035583768 -0.047591012 -0.117776476 0.12491498 0.0942995 0.030066758 0.027642949 -0.042563286 -0.07219971 -0.050369248 -0.05149062 -0.021816526 0.03370836 -0.05859801 0.028003562 -0.05589004 -0.14488655 0.11822629 -0.03968552 -0.004386839 0.073603384 -0.04100033 0.044530105 -0.04235063 -0.038785487 0.05476593 -0.10348548 -0.0117772855 -0.047661785 -0.09383244 0.005459364 0.045617245 0.08014498 0.038905587 -0.14408617 0.06710623 -0.14007266 -0.0030969013 0.058715444 -0.14052008 -0.0633426 -0.102050446 -0.0780344 0.11065815 0.0060046664 0.005160506 -0.083287366 -0.013878352 0.020945104 0.012783512 -0.12047421 -0.086720124 -0.07273206 0.01606059 -0.021096446 0.03367516 0.028492324 0.09438752 0.1485951 0.0038077726 -0.045124102 0.09917615 -0.027049795 -0.023816917 -0.07704336 -0.23735785 -0.091041185 -0.06091876 0.015637774 -0.027585432
23 0.049871698 -0.05998417 -0.09442999 0.16338514 -0.041537426 -0.16520311 -0.037985835 0.12628737 -0.068237275 -0.02298119 0.07822124 -0.047465768 -0.003127153 0.15621452 -0.041088935 0.1938588 0.19138849 0.020852923 0.07195668 0.00047700494 0.12286068 -0.10301829 0.013747735 -0.13169348 0.05222663 0.11410058 0.08071576 -0.04731793 -0.04027787 -0.049005006 -0.022518598 0.11242355 -0.08149452 -0.037884336 -0.07101309 0.0278229 -0.10380953 0.0776525 -0.06905547 0.07305627 -0.09040798 0.0001956542 0.06644909 -0.049331225 -0.13405627 0.0319286 -0.045360483 0.05614937 0.08928519 -0.00079084287 9.860737e-05 0.08730926 0.130027 0.019904673 -0.02847285 0.10408502 0.03380921 0.15523916 0.0005342246 -0.2366012 -0.020850103 0.12313369 -0.08969386 0.010505778 -0.067435056 0.048092257 0.086115584 0.12081672 -0.1281285 -0.061030403 0.13274315 -0.02237764 -0.114521846 0.042745072 0.0038642897 -0.019012423 -0.15146394 0.09375876 0.012462653 0.05008466 -0.027330268 -0.08270374 0.023875654 0.0796707 0.08063885 0.119290434 -0.053667735 0.06670841 -0.10719429 0.009169004 -0.013960907 0.1481066 -0.03632616 -0.14088406 -0.008346666 0.028610686 0.08728628 -0.028099576 0.08294954 -0.105756395 0.11640731 -0.10690846 -0.022691736 0.13760844 0.078641795 -0.08566013 0.18397313 0.033116553 0.080948524 -0.012262631 -0.032430135 0.26059815 -0.07213141 -0.13235047 0.013740544 -0.08989808 0.07093851 0.039750826 0.007269718 -0.064926334 0.0015822188 -0.04853823 -0.027976485 0.19420525 -0.025298297 0.17662857 0.17216845 -0.012425411 0.062220585 0.08945447 -0.09328199 0.06277685 0.016084442 0.029076155 -0.21545748 0.03786518 -0.051221345 -0.18845303 -0.14507042 -0.0066082906 0.20433803 -0.1524711 0.10146057 0.004902601 -0.026481422 0.043680392 -0.18411224 -0.1851254 -0.03564209 0.04310351 -0.16140029 -0.04134938 0.12435412 0.034698498 -0.008143707 -0.10723251 0.048329044 -0.08545577 -0.017949762 0.025703538 0.08144145 -0.042240217 0.07335941 -0.051379062 0.10931355 -0.01968802 0.09292599 -0.019996462 -0.08698974 0.13681556 -0.17130919 -0.010316222 0.038466483 0.06609285 -0.049563143 0.13806847 -0.09779314 -0.05561734 0.14618708 0.06273387 -0.074045375 -0.063316345 -0.056509014 -0.007588772 -0.18463786 0.2139154 -0.07641316 -0.0597862 -0.023378517 0.13953938 0.07262848 -0.10406662 -0.09863577 -0.22017944 0.13025193 0.09941939 -0.14913373 0.024523431 0.092050105 0.017260863 0.032138456 0.07281672 -0.008156835 0.18672118 0.12557052 -0.06003199 0.07909709 -0.1044092 0.014962108 0.07610353 -0.2040929 -0.10004458 0.078543425 0.056065295 0.10602176 0.17110208 -0.058419134 0.0011793132 0.018455934 -0.13480827 -0.08184261 -0.1133985 0.107417196 -0.00691855 -0.1605834 -0.081070796 0.0061122924 0.14072031 0.020528065 0.019670768 -0.07854624 0.12761378 0.01687733 -0.15489054 0.117221385 0.010253098 -0.053157475 -0.05745432 -0.2111787 0.061314177 -0.028691681 -0.03099515 0.02907985 -0.019570729 0.09623897 -0.021227386 -0.07061151 -0.07043799 -0.077380426 -0.018098626 -0.028508738 0.14434966 -0.11054802 -0.015406007 0.004309281 0.0773937 -0.06194657 -0.0062960014 0.17455637 0.12209343 0.025016848 -0.06895185 0.091079086 0.17636895 0.020731457 0.10258594 -0.07589588 0.056426913 0.051305715 -0.06953417 -0.02528561 0.10053641 -0.17800249 -0.036908716 -0.040333673 0.14405133 0.15198445 -0.06833772 -0.13239652 0.0036666533 0.026299834 0.010073603 -0.094099686 -0.045162812 -0.057454575 0.1874489 0.11072413 -0.11635544 -0.036400244 0.08075438 0.07896319 -0.04478412 -0.06901985 -0.15714918 -0.023419192 -0.04634053 -0.027226763 -0.00018508545 0.11993212 -0.0822376
24 -0.049144965 -0.059049197 -0.026041621 0.029291008 -0.069934845 -0.02792442 0.03519507 -0.08608109 0.10190243 -0.05257443 -0.010475101 0.008770427 0.08093474 -0.0068071466 -0.03284 0.12136934 0.009324125 0.12068167 0.03799455 0.11654707 -0.064665765 0.10626466 0.035504702 0.015551335 0.02561554 0.01563118 0.026873382 -0.06369483 -0.039997984 -0.0739695 0.04792589 -0.114271484 -0.0067386026 0.041488122 -0.0025154636 -0.08975537 0.080167994 0.022874009 0.023663973 0.036927693 -0.0085032135 -0.07872516 0.042363543 0.06325478 -0.018504456 -0.008034546 -0.034209855 -0.004766778 0.14763792 0.04495748 0.002187397 -0.011271529 0.030265192 0.13550034 -0.1229166 -0.113353215 0.033482786 -0.023790542 -0.03900562 -0.08822323 0.09388055 -0.052191187 0.06863562 -0.023344066 -0.03532983 0.06391366 -0.011978456 0.16655345 0.16938871 0.045883443 -0.02152174 -0.024262436 0.022245238 -0.0428383 0.16360462 0.122143894 -0.061630275 -0.0059338436 -0.008479708 -0.01286522 0.1440136 0.004565002 -0.119236365 0.058648933 0.003037501 0.068586916 0.056871276 0.12043154 -0.04238706 0.26290947 0.06214265 0.120880544 0.028058978 0.14174801 -0.016335538 -0.09739687 -0.036649317 0.05906028 0.10373364 0.07596351 0.013509838 -0.095511824 0.08030002 -0.031449344 -0.09693358 -0.019002674 -0.024481898 0.18716918 0.004763934 -0.21784909 0.09459708 0.09204628 -0.043619774 -0.10436646 -0.02953262 0.07564204 0.009591746 -0.013932654 0.07480583 0.018084722 0.0053376444 0.007052195 -0.060401514 -0.02913162 0.08113928 0.008922777 0.023403807 0.102209225 -0.117312275 0.043334037 0.0136713125 -0.089935936 -0.11716127 -0.08814282 0.053488277 0.015225021 0.015934033 0.10745898 -0.15496013 -0.041151527 0.04614542 0.015666023 0.033743452 -0.0889428 -0.010307421 0.009918558 0.077176526 -0.035213184 0.084283024 0.08355828 0.0033958757 0.061408333 0.11524598 0.03962391 -0.00877843 0.05040215 -0.060201634 0.051353138 0.03726336 -0.09708451 -0.03841507 0.16377722 -0.009347453 0.080895774 0.0056936597 -0.12439745 -0.095358655 -0.07318807 0.044182364 0.057479676 -0.13687527 -0.03282452 0.05608743 0.04870402 -0.012490787 0.08903647 0.056362607 -0.06519236 -0.04118083 -0.016626347 0.04436977 0.07901706 0.04397799 0.010613414 -0.05994256 0.06955974 0.06975557 -0.0400828 0.08234041 0.099006236 0.06324602 -0.12578353 -0.0089282775 0.031995673 -0.021916028 -0.03793422 0.09976112 -0.09369812 0.006645903 -0.13428646 -0.06686494 0.03603037 0.011247791 -0.02470536 0.0051067118 -0.031510428 0.02662727 0.04344448 0.110006 -0.017125843 -0.12458168 0.092605196 0.13490663 0.14134859 0.07807265 0.12112938 0.10276637 -0.0006261177 -0.07359294 0.08820867 -0.015499939 0.105800234 0.044145264 -0.18086465 -0.08577941 0.004591892 0.06122407 -0.14990684 0.019912342 -0.025857156 0.035079997 0.024186457 0.15719649 0.039906137 0.05603059 0.036144994 -0.12177558 0.0030034275 0.054644078 -0.0966898 0.034572814 0.062161256 -0.06786808 -0.028035697 -0.044107337 -0.122894675 -0.047982506 -0.043973465 0.084016845 -0.06892265 -0.07984486 0.056164555 0.05178783 0.06339607 0.024283255 0.010942305 -0.036826212 -0.05877993 -0.015080431 -0.05573048 -0.012181002 0.021441009 -0.11278715 -0.057407178 0.15598097 -0.07958449 0.041209955 -0.068652414 0.21487014 -0.031776536 -0.0780667 -0.19377774 -0.115008384 0.054747526 -0.11994932 -0.033314824 -0.107114844 0.03624546 0.02307066 0.04053906 0.0116125 0.07560104 0.12069342 -0.045018952 -0.084496446 0.04861511 0.089076616 -0.04662408 -0.022423346 0.099506006 0.07546085 0.07135433 -0.016349323 -0.005380992 0.038362276 -0.040530544 0.1185509 0.043008883 -0.1170221 0.03043423
25 0.02826847 0.018749814 0.009308941 0.084153 0.021055408 -0.029985065 -0.05004698 -0.04335654 -0.03503694 0.03114107 0.08897606 0.11194201 0.13918254 -0.04638059 -0.042603068 0.009803568 -0.039899126 -0.058569234 0.0540923 -0.05142262 0.04841497 -0.04167428 -0.013754819 -0.0349039 -0.029865783 -0.06931503 0.026467165 0.11704343 0.029835416 -0.113258116 -0.15813118 0.011137722 0.07683652 -0.034150098 -0.020353641 -0.0017349629 0.06632835 -0.11105665 0.035693794 -0.10072287 0.08295995 0.07975694 -0.117243335 -0.12194664 -0.0078006913 -0.05712357 0.021478401 0.053340577 0.09604783 -0.06419608 -0.028883325 0.1299604 -0.08385295 0.026687592 -0.01759395 0.04775819 -0.14572355 -0.28610072 -0.09762976 0.074289575 0.024132498 -0.030194405 -0.095333256 0.14113127 0.015463686 -0.0206953 0.03564042 -0.060070507 0.0863587 0.08977186 -0.08406399 -0.05484213 -0.010640101 -0.11837872 -0.07815084 -0.038277917 0.009953671 0.03702622 -0.045684744 -0.03753616 0.13861881 0.1298216 -0.011671488 -0.09045255 0.009990038 -0.16266142 -0.065008946 0.07353961 0.06717918 0.026570423 -0.13073777 -0.06482305 0.07816521 -0.080485195 -0.0055390913 0.06203726 -0.056395356 0.09185177 0.06376816 -0.09286282 0.06864553 0.13778347 -0.17935736 0.026923608 0.018922564 0.06623321 0.033946197 0.04636681 0.12588812 0.109777614 0.04973647 0.048478577 0.046696372 -0.030044096 0.006873759 -0.07135381 -0.058881167 0.18263045 -0.12174718 -0.096747465 0.1357438 0.0725462 -0.08299828 -0.123938724 0.0776973 0.09135724 0.064884424 -0.031643994 -0.045981396 -0.030392552 -0.067029774 -0.06664867 0.060441144 0.03454037 -0.16628087 -0.037518106 -0.018352116 0.053306498 0.014240959 -0.064039215 0.12032554 0.050816916 0.10009527 0.032967344 0.03222135 0.07548496 -0.041285135 0.10655682 -0.11559038 0.060438294 0.029107122 0.18097395 -0.025231922 0.047674634 0.20954734 0.05319032 0.012745312 -0.12107758 0.08077513 0.028995069 0.114773415 -0.15199119 0.08289125 0.059181284 0.012527254 -0.06039978 -0.09661957 -0.026077272 0.05425133 0.07758504 0.02119788 -0.103650056 0.013877951 0.20295794 -0.106565 -0.079589665 -0.06765299 -0.053523704 -0.09702599 -0.03368314 0.019611185 -0.03996755 -0.029845089 0.014689618 0.20562707 0.02662538 -0.08392683 -0.013341947 0.08795256 0.09382971 -0.20547213 0.10954457 -0.0016128052 0.009412226 0.056927238 0.08920392 -0.067089036 -0.21608937 -0.040603194 -0.116814226 0.1857645 0.063584864 -0.041693173 -0.084175006 -0.052037995 -0.11097431 -0.11751644 -0.017432667 0.011967363 0.14171131 0.023141943 -0.012066984 0.03721105 -0.08487237 0.0038213048 -0.17536835 0.1822536 -0.033960637 -0.031328954 0.01974998 -0.055014152 -0.04483084 0.064653 -0.06542809 0.012497397 0.07186775 0.00882765 0.054531246 -0.1622748 -0.02706351 0.05303476 0.049499713 -0.25581512 -0.0048105796 -0.004143404 -0.044843044 0.082890265 -0.1483976 -0.13030931 0.14301048 -0.077960655 -0.01999631 -0.0036350128 -0.092844464 0.052016422 0.018082466 -0.07151404 0.03306935 -0.022922574 -0.21831085 -0.017420538 -0.014861361 -0.12668829 -0.04790442 -0.028298583 0.009955295 0.061702568 0.06093257 -0.08246523 0.092078276 -0.14354932 -0.036755297 0.03403566 0.027532825 0.15179011 -0.038113922 -0.098195605 0.1097332 0.18967365 0.008324672 -0.040583167 -0.04907193 0.111659 0.04584785 0.068168916 -0.10624228 -0.027448006 -0.07264066 -0.02379858 0.108286835 -0.027779313 -0.018725356 -0.05132878 0.1856246 -0.034593247 0.095427714 -0.012292125 0.052454688 -0.09289441 0.1370274 0.0661005 -0.13489161 -0.10561205 0.007991144 0.14691341 0.11441665 -0.0036016228 0.050918557 0.012516435 0.05854851
26 -0.040210772 0.080264255 0.08431146 -0.13115361 0.0049402025 0.007225281 -0.10104513 -0.11420568 -0.03799935 -0.05228047 0.009769944 -0.086244315 -0.16076133 -0.013066511 -0.2742977 0.074955605 0.026820477 -0.012398068 -0.09186174 0.027459716 0.07723316 0.097204015 0.0047726277 -0.024398224 0.1690312 -0.099714026 -0.07235033 0.04083073 -0.04081781 0.010862024 -0.005932071 -0.09807305 -0.023925966 0.053964596 0.027302945 0.04743933 -0.0004481971 -0.098843955 -0.22614394 -0.04004837 -0.07258194 -0.02567061 0.07914369 0.06898029 -0.13597034 -0.060188226 0.1409315 0.15747024 0.0761182 0.1165883 0.0061167264 -0.16971168 -0.117946014 0.053198047 -0.060168236 0.016521148 -0.30702785 0.014773164 -0.01724249 -0.019464752 0.14812483 0.09450149 -0.0016339428 0.024222154 -0.103685774 0.0071306364 0.055945594 -0.034556784 0.13112663 0.13477203 0.005965517 -0.027696583 0.038416952 0.12155678 0.045622826 -0.055103377 -0.034178335 -0.0436084 -0.08358163 -0.15343304 -0.20130052 0.038336035 0.04955846 -0.07207437 0.068665914 -0.086167865 0.10041583 0.055674084 -0.02284702 -0.05688297 -0.070255674 -0.09668646 0.0016712125 -0.09785211 0.11089896 0.056483302 0.2109153 -0.09212037 -0.17044114 0.060450323 0.11879565 -0.041183833 0.0626711 0.08425748 0.043357592 -0.085343234 -0.05702327 0.03695906 -0.07798836 -0.08247594 0.12669347 0.1546386 -0.082105406 0.009957876 0.024066996 -0.007803955 -0.017143229 -0.09536582 -0.010112878 -0.08814468 0.05583722 0.08459164 0.19087282 -0.10874873 -0.07620133 0.06017318 0.04852018 -0.21662314 -0.027018208 -0.054491673 0.06356746 -0.15399194 -0.034439046 -0.13334298 -0.11545514 -0.08950605 -0.08976782 0.13490696 0.013293808 0.11318276 0.03019329 -0.16241018 0.010576868 -0.00971767 -0.023904968 -0.09998023 -0.20020643 -0.07911326 -0.067019805 0.035586175 0.0022812984 0.0863692 -0.03269373 0.097035326 -0.09565488 -0.023804903 0.038762957 0.09410488 -0.032983895 0.13837638 0.1426977 -0.028701711 -0.038272373 -0.024247997 0.024720408 0.1149627 0.093941875 -0.017814154 0.18970816 -0.03554388 0.0447206 0.02364287 -0.014810937 -0.10856377 0.038113393 0.0011212907 0.14463894 0.07392644 0.012181497 0.042105507 0.1817683 -0.16973847 -0.09597729 -0.0051831235 0.024704969 -0.14974558 0.02136082 -0.012559205 -0.08825711 -0.03682698 0.010534461 0.0030434218 -0.016694415 -0.02492106 0.06796695 0.14915343 0.13062692 0.10392007 0.030437272 0.05944365 0.18747431 0.01984879 -0.020310614 -0.017527957 -0.07216737 -0.014726908 0.081081025 0.02562245 0.034395445 0.09073785 -0.061214726 0.061678134 0.18745777 -0.02963532 0.10028204 -0.024898972 -0.0924516 -0.08955775 -0.09023593 -0.06569253 -0.14325841 -0.08126749 0.07890365 -0.015717499 -0.13060531 -0.03055645 -0.20613083 -0.13084687 -0.062898286 0.14406244 0.021835025 0.048720706 0.048731845 0.15082309 0.079237774 0.102643915 0.023076758 -0.12529105 -0.06258215 0.08478258 0.11061555 -0.036606416 0.049338795 -0.08929218 -0.06282979 0.25107598 0.08221531 0.007076325 -0.17225775 0.030028438 -0.0060448823 0.011288036 0.0176668 0.047633942 -0.122572996 0.026762953 -0.0757676 -0.117768675 -0.092106596 -0.17191863 -0.13606963 -0.01645853 -0.16565128 0.068244964 0.12775174 -0.07381514 0.08844559 -0.2089732 0.03726848 0.16800159 -0.07710925 0.16185759 0.081872985 -0.008683633 0.008254121 0.031052703 -0.040024262 0.12509617 -0.0071721114 -0.016340673 -0.08523058 0.036324285 -0.03712954 -0.12849905 0.13755924 -0.06533151 -0.005788728 -0.068469405 0.06090586 0.010056105 0.15863875 -0.104133815 0.060998227 0.10217703 -0.03912005 0.11477131 0.12751037 0.09537848 -0.042759206 0.06821479
