1043 300
0 0.047581173 0.08476846 -0.12357336 -0.07514589 0.025619838 0.085071005 0.14007975 0.046444356 -0.19352776 0.017629448 -0.009447373 -0.089576446 0.11020195 -0.01261626 0.07030269 0.16891618 -0.13093926 0.0619201 -0.032227505 0.025252838 -0.01540951 -0.092413895 0.046742734 -0.15984108 0.014158128 0.03513792 0.023843499 0.08451292 0.07486934 -0.062635936 0.08658243 0.009355275 0.033693403 -0.26878074 0.10357928 0.060425423 0.08768677 -0.03144011 0.03714237 0.06983388 0.17041963 -0.016280137 -0.12534258 0.05996828 0.046416104 0.11429626 -0.048708435 -0.00018144074 0.027497644 -0.011959366 -0.00846776 -0.10196507 -0.051999714 -0.08221228 -0.16491064 -0.028109282 -0.101224616 -0.031926684 0.025575122 -0.09358535 0.019372819 -0.050907128 -0.13682063 0.13701558 0.15795065 0.07745045 0.08027824 0.014224946 -0.030005962 0.01056404 -0.1265071 0.13488995 -0.08813189 -0.28438085 -0.07940713 -0.15607433 -0.10101396 -0.102403164 0.044688433 0.010047813 -0.102144584 0.015415468 -0.0026431126 -0.019895287 -0.017861813 0.016367622 0.010870127 -0.0085493205 -0.024662796 -0.09374449 -0.109517835 -0.092125796 -0.06914586 -0.110873125 0.15121081 0.024821501 -0.10445825 -0.20575725 0.088109344 0.018899566 0.06795021 -0.034938693 0.09177108 -0.011604865 0.006842869 0.095491566 -0.037824295 0.106218494 -0.05212587 -0.061528113 0.28821155 0.007062986 0.0029224386 -0.010588309 0.1106581 -0.013221312 0.05187039 0.0337879 -0.07558673 -0.0395621 -0.028798284 0.09794509 -0.11072468 -0.0033590284 -0.008321541 -0.110717975 -0.048441097 0.092986375 -0.086887985 0.08092845 -0.01810697 0.09822515 -0.038124714 -0.106695876 -0.022120371 0.11086845 0.036929853 0.14631803 0.014263273 -0.17054592 0.009613324 -0.050778043 -0.032320336 0.10374531 -0.18903679 -0.012359785 0.045780536 -0.0020538042 -0.081903845 -0.15719154 0.0128617855 -0.1369852 0.09176217 0.047613993 0.13604942 -0.17059241 -0.057035487 -0.021077473 -0.0073231165 0.12391975 0.10006932 0.069039986 -0.055183284 0.1428093 -0.0338752 0.16085263 -0.04547719 0.10291424 -0.09395214 -0.0097688455 -0.03813842 -0.06950322 -0.08692095 0.018935706 0.15671621 0.030156888 0.045677423 -0.07564926 -0.06447289 -0.014321447 0.021846835 0.121503115 0.07524072 0.07840823 0.090542376 -0.12454992 0.0581812 -0.056815125 0.16561955 -0.011502984 0.008704426 -0.013051663 -0.10461497 -0.13908507 -0.02035989 0.01235038 -0.124097824 -0.073896475 -0.024327144 -0.043002527 0.022862835 -0.01165003 -0.0023715585 0.032603625 0.2200852 0.0234899 0.101090446 -0.13193716 -0.026938112 0.1910223 0.106310114 0.0031855893 -0.027778482 0.12880427 -0.041270968 0.08638107 0.13074993 -0.07363026 0.042743143 0.055194356 0.09456277 -0.058144856 0.03006789 0.04274365 0.05486562 0.021858005 -0.008667829 0.068828434 0.0006973814 -0.09869386 0.00087643263 -0.14111425 0.051847007 -0.14523932 -0.16440311 -0.1548638 0.050306946 -0.049745638 -0.03483645 -0.016954878 -0.065260425 0.009684903 0.03655618 -0.13822578 -0.021395529 -0.009600557 0.12124952 -0.08372745 -0.061231486 0.046310898 0.029727448 0.10300477 -0.107830614 0.18168691 -0.027831841 -0.011348656 -0.05758007 -0.09814869 0.10929985 -0.0264273 -0.219566 -0.03580633 -0.046561636 -0.012989483 0.06872184 0.11355588 -0.09768517 -0.00796423 0.073379554 0.00533789 0.081399955 0.13297087 0.03173976 0.025900977 0.10609511 -0.029145375 0.023296935 -0.06575216 0.0661982 0.09778126 -0.047378175 -0.04759682 -0.05652083 0.076218866 -0.052965127 -0.13103089 0.07171314 0.09023143 0.1427858 0.03313818 -0.0402603 -0.1931871 0.031590287 -0.05104849 0.06148978 0.15529896 0.06091438 -0.060213134 0.041389033 -0.17580609
1 -0.034487218 0.037639506 -0.04539951 -0.054524075 0.069001794 -0.113879204 0.051363006 -0.02619144 0.1252701 0.0017711538 0.12501408 -0.11840328 -0.008378949 -0.08411388 0.01904771 -0.0323536 -0.048667528 0.0899055 0.08173561 0.1800172 -0.09427364 0.012846094 0.057715993 0.036053836 -0.021719547 0.00021769493 -0.095002465 0.021898944 0.10370387 0.08434672 -0.003931441 -0.09873522 -0.08818992 0.10397903 0.11467101 0.13726452 0.023018707 -0.09645722 -0.07169479 -0.028170975 0.007463691 -0.039381422 0.110571355 0.0049722213 0.01947595 -0.19456854 -0.15195274 -0.027393792 -0.119459204 0.005232042 0.11353735 0.017420774 0.036803983 0.080081835 0.006204359 0.018962884 0.069499 -0.009605664 0.06754881 0.014401843 0.050485812 0.12719716 0.12160658 -0.05950092 -0.10590908 -0.049012695 -0.11082245 0.08206557 -0.010262797 0.14406845 -0.034963124 0.0058252863 -0.06262765 0.032705132 -0.017506402 0.12827924 0.15238576 -0.006795861 0.029709667 0.030116843 -0.041036136 -0.12631081 0.077979684 -0.03320846 0.07002828 -0.024055313 0.14277783 0.021214038 0.04849137 0.019763047 -0.030538563 -0.011651035 0.10242425 0.1829077 0.08421497 0.07717634 0.06728518 -0.08929675 0.017392367 0.17495961 -0.10903469 0.015018946 -0.017530434 -0.109373644 -0.15173599 -0.044922218 0.010106893 0.17055012 0.06338722 0.124628246 -0.033171616 0.14187908 -0.0026023602 0.27329418 0.009040028 -0.11318147 0.12677094 -0.08109899 -0.027870627 -0.01248565 -0.07305837 -0.10695095 -0.062343303 0.13863763 -0.114859864 -0.13219482 -0.0944243 -0.03193524 0.015481138 -0.059053265 -0.07346324 -0.20953645 -0.02647823 -0.054802902 -0.0947438 -0.095373996 0.03446196 -0.02923609 0.11650948 0.08673654 0.061601218 0.058934107 -0.058977716 -0.015434489 0.13677283 0.10332999 0.08942792 0.10051835 0.051143963 -0.072344266 -0.03868143 0.16522646 -0.024995124 -0.16800763 -0.017891794 -0.11069086 0.025380325 0.040714376 -0.02658313 0.15037368 0.15586722 0.022374861 0.015964787 0.10281524 0.16863376 -0.015567311 0.16735002 0.054387055 -0.057814177 -0.09887039 -0.043293975 0.043503165 -0.005110352 0.0013035587 0.005864787 -0.0060015866 -0.057730217 -0.103453845 0.055736605 0.141952 -0.118140884 -0.1230492 0.01411882 0.036916487 0.078661196 -0.080081806 -0.061561182 -0.030035436 0.08990026 -0.037858788 -0.0935749 -0.063493 -0.10957482 0.009282816 -0.065866485 -0.1054942 -0.15795168 0.09214287 -0.080719136 -0.035892922 -0.074157506 -0.012255397 0.038734306 0.1722399 0.009706422 -0.05257529 0.01920728 0.012798706 0.032375995 -0.028279167 0.12139164 -0.11296303 0.05669724 -0.091352455 -0.16455731 -0.033744883 -0.021985753 0.07331048 0.0048286477 -0.098054476 -0.1123753 0.008874137 -0.010532408 0.015281141 -0.084440924 0.10693272 0.011309616 -0.053532526 -0.021319814 0.107278526 0.15853423 -0.036195643 0.039554685 0.106540725 -0.16479866 0.028046178 -0.04888104 -0.02819765 0.11296061 0.0305747 -0.070226975 0.04011391 -0.10176509 0.068672866 -0.0055043963 0.055080883 0.065709904 0.0035617577 0.020588333 0.16809042 0.0842704 0.06789369 -0.007857932 0.010557903 0.0725904 0.087730035 0.14593042 0.017148033 0.017684067 0.0062594092 0.022851469 0.10429941 -0.017583994 -0.065948 -0.030746676 0.0066980696 -0.104187675 -0.16633323 0.04961794 0.067107834 0.054744907 0.0071764723 -0.036828972 -0.029536622 -0.03427614 -0.01768699 -0.034437347 0.0033710382 0.0016861629 -0.042448115 0.18153283 -0.030448869 -0.040691115 0.015771832 0.045904603 0.08579025 -0.08684485 0.045491125 0.13411157 0.106171526 0.009157001 -0.013603453 -0.04562349 0.11782625 -0.03351681 0.15409267 -0.019941296 0.08562825 -0.08892336 0.1198527
2 0.060134184 -0.06655858 -0.084707074 -0.19265184 0.17476627 0.068903424 -0.055932865 0.016883774 -0.09545273 0.00638974 0.019687125 -0.06462077 -0.07887776 0.10521263 -0.0082494365 -0.029293295 -0.03555037 -0.021760764 0.004711173 0.021918958 0.077858195 -0.15574534 0.10325861 0.1115369 0.034080207 0.046742536 -0.0010860844 0.058178704 -0.14491393 0.13311173 -0.15265529 0.025751166 -0.03412399 -0.006592362 0.023985118 0.15230356 0.07270968 -0.14762065 0.02810373 -0.017931469 -0.15359952 0.026906366 -0.08031969 -6.562896e-05 0.14254354 -0.09954765 -0.025428304 -0.04430751 0.16443871 0.024953496 0.15502086 -0.06959805 0.08591601 0.00020482145 0.08885114 -0.06818722 0.09765611 -0.117681704 0.19326839 0.038362928 0.15075727 0.06388201 -0.043324396 0.030699749 0.025295386 0.007022948 0.028400173 -0.17858027 0.12198792 0.085646264 -0.16623546 -0.07572768 0.22047156 0.13490115 -0.035267144 0.033762753 -0.010780323 0.10485916 0.03127012 0.057438243 0.037110176 -0.0015880512 -0.122930594 0.092024565 0.2406946 0.17258082 -0.28107256 0.060336977 -0.018951222 -0.009446267 -0.040501073 -0.12220159 -0.0025764285 0.024063835 -0.09690334 -0.13957253 0.09297297 0.21909422 -0.104419544 -0.11647353 0.05861087 0.058083173 0.018111045 0.021538405 0.02727287 -0.14438294 0.07470462 0.013905956 -0.17145066 0.07244379 0.16852614 0.0458781 0.06431518 0.027077096 -0.033108212 0.09649757 -0.07732581 -0.18474811 -0.05361811 0.044247895 0.044503238 0.059611425 -0.010247989 -0.16138984 -0.047679923 -0.042140905 -0.04365468 -0.0431897 -0.09660568 -0.10276119 -0.09889651 0.07217215 -0.063148946 -0.07872897 -0.03862884 -0.068248264 0.13296607 -0.025988296 -0.112532236 -0.18803939 -0.009606477 0.12997137 -0.013037546 -0.1478396 -0.06963469 -0.03443724 0.00437788 -0.026588948 0.042063348 -0.0055843308 -0.1416829 0.0967541 -0.093559265 0.05604917 0.12797694 -0.1332132 -0.022656647 0.09984248 -0.0548478 -0.22915284 0.059982736 -0.060068976 -0.014826978 0.11781501 -0.0532031 -0.19326325 0.043139845 0.13616334 -0.06774336 -0.05604151 -0.009896929 -0.0073159826 0.037155632 0.040975228 -0.06104901 0.005031338 0.027752316 0.13934846 -0.07001797 -0.013526012 -0.0032221025 0.074758366 -0.010373978 0.1402142 0.10772818 -0.053436384 -0.028317302 0.17847013 -0.08901601 -0.05465055 0.015048772 0.14201203 -0.10544439 0.057708036 0.01390185 0.12879631 -0.005051823 0.048349455 0.061259966 -0.10582941 -0.0033665698 -0.19850463 -0.0060362155 -0.10840664 0.03898342 0.06497147 0.08250276 0.025573442 -0.085949026 0.004534739 -0.0051833712 -0.03296638 -0.0012333378 0.068228506 -0.024557749 0.148247 0.08614643 0.10805688 -0.047593754 0.065671295 -0.09787004 0.17508729 -0.027053883 -0.10257828 0.0036045748 -0.1377385 -0.13566253 0.046716012 -0.083865345 -0.016481323 0.014848957 0.11199158 0.08896901 0.09159414 0.024885787 0.12277349 0.03978434 0.07959896 0.10923678 0.12764238 -0.003178654 0.02982296 0.03652597 -0.15243267 -0.07221998 -0.09522592 -0.14838992 0.07678485 0.110916324 -0.0991651 -0.08594579 0.017128896 -0.2030402 -0.11693605 0.046203803 0.018135764 0.042010546 0.069232315 0.08475152 -0.08530257 -0.019678336 -0.05081245 0.1684526 0.13578671 -0.04760326 -0.01570369 -0.04754642 -0.07504153 0.07282899 -0.03691518 -0.15966263 0.007796047 -0.16565475 -0.048545267 0.051147074 -0.026110386 -0.018160481 0.08004355 0.10815149 -0.119449295 0.053868372 0.058690537 -0.03729129 0.1330603 -0.08483244 0.028937949 0.025331471 0.018765565 0.07662762 -0.03858386 0.09893513 0.1312969 -0.18624863 -0.18625677 0.004353457 -0.07060099 -0.17193332 -0.1294466 0.024221802 -0.0483197
3 0.032470647 -0.050427098 -0.056268282 -0.08389705 0.18037449 -0.0071740095 -0.14297895 0.2044523 0.1155888 0.05904233 0.020517115 0.0009275725 -0.094325796 0.114487484 0.032105837 0.082190506 -0.10707505 0.018955855 -0.18045941 -0.018035937 -0.0066653434 0.04513321 -0.17457084 0.004738082 0.045762323 -0.07318319 0.21257363 0.022142518 0.044590272 -0.026635014 0.032157023 -0.025962193 -0.09356296 -0.13484655 0.025168147 -0.14292543 0.07904828 -0.031761363 -0.03998418 -0.030399883 -0.038007647 0.06832121 -0.16290583 0.035558827 0.06457937 0.044394925 0.095090434 -0.13664968 -0.05590497 -0.012307435 0.12925135 -0.08479114 0.10664494 0.11190472 0.026917782 -0.013985402 -0.080090605 0.15844077 0.06819706 -0.023940027 -0.016343873 0.09953443 0.117924504 -0.098428674 0.06858957 -0.046000622 -0.052568838 -0.10500605 0.055972062 0.119005725 0.1449546 0.095172666 -0.0165151 0.039172783 0.07025448 -0.14477101 0.016194595 0.060900535 0.0058932155 -0.18090802 -0.018235749 0.05202802 0.04253085 0.027754638 0.07283005 -0.011347247 -0.07691108 -0.039255776 -0.063718095 0.046712626 0.021021802 0.04536618 -0.044401735 -0.018795531 0.017780868 -0.08748066 -0.0065601687 0.029074604 0.09901172 -0.11084334 0.0008646318 -0.066908844 0.040833805 -0.13519463 0.0082167275 0.038421407 0.019481463 0.19305335 -0.008014967 -0.079895616 -0.1650699 0.09488066 0.066659056 0.08894595 -0.08296291 0.24876672 -0.107540436 0.02790335 0.05135595 -0.13513973 0.008455052 -0.021193523 -0.015571748 -0.098163575 -0.12520884 -0.095733 0.10528118 -0.019329311 -0.06970993 -0.03742128 0.09908379 0.11024649 0.016793301 0.02818541 0.034607176 0.084575824 -0.023545245 -0.10931264 -0.021585152 -0.09405254 -0.08906151 -0.14941521 0.038604986 0.13193063 0.041957572 -0.033414025 -0.16739805 0.0028033245 0.095220596 0.10726636 -0.08303011 -0.06503898 -0.07368771 -0.022767399 -0.06969579 -0.1090759 0.007936351 0.16156447 0.063103884 0.02874369 -0.025939004 -0.044673637 0.012674257 0.062131163 0.11887846 -0.021203108 0.011069193 -0.012579532 -0.023264466 0.032695316 -0.15825355 -0.1257614 -0.075337164 -0.07497712 0.05697692 -0.003829617 0.059104502 0.0659321 -0.054587148 0.11170187 0.09219489 -0.1193529 -0.018010478 -0.07186671 -0.08535788 0.0002770041 -0.011405833 0.10375304 0.06193902 -0.07117683 -0.008576371 -0.089683294 0.013416216 0.09314617 0.08591645 -0.11620222 -0.04903739 0.009959643 0.006117432 0.11216593 -0.0667233 0.08925005 0.0833494 0.13135037 0.011502449 -0.047467038 -0.2554902 -0.15970643 0.057041112 -0.029191818 -0.06965679 -0.13504408 -0.07785991 -0.1585732 -0.20319471 -0.11025122 0.048188917 -0.015970562 -0.06941322 0.19392495 0.08141645 0.026945842 0.19329889 -0.08443334 -0.048974182 -0.048819155 -0.07714804 -0.059578106 -0.10359439 -0.06682437 0.14328612 0.20140044 0.028424798 -0.15848336 -0.049648885 0.010091299 -0.051168576 0.11147121 -0.010645292 0.036759604 -0.08742377 0.014640673 0.2335941 -0.1699789 -0.050289683 0.012447177 0.03794268 -0.15302728 -0.09258062 0.021919183 -0.07357149 0.013916965 -0.03155646 -0.06437696 0.12354526 0.006164625 -0.15951574 -0.13133514 -0.11555653 0.011150328 -0.021249227 0.08889399 -0.04591997 0.046943456 -0.021813205 -0.044154227 0.002171989 -0.11806232 0.032888815 0.033904452 0.030758519 -0.036623914 0.23905732 -0.14367057 0.063552186 0.002116574 -0.031898815 -0.0663859 -0.1364642 0.089998916 -0.083682515 -0.0710011 -0.050959438 0.08961653 0.06563807 0.11700298 0.040616363 0.07346783 0.06383939 0.070748664 -0.24474454 0.077973194 0.05411854 -0.11561563 -0.0372402 -0.06508392 -0.25607365 0.16412333 0.08225205 -0.05602759
4 0.029240869 -0.03477927 0.047490194 -0.031410456 -0.118973546 0.013778409 -0.020717902 0.08441767 0.13924557 -0.038337022 -0.019726334 -0.055470426 0.0033087274 -0.15945229 -0.037056502 0.058048334 -0.028866308 -0.058662456 -0.09524679 0.058558423 -0.006315737 0.09928137 0.10349063 0.04387989 -0.0004777612 -0.08747795 -0.024351252 -0.15824184 -0.0027192296 0.10348085 -0.121568605 0.0011185389 -0.09261182 -0.02083436 -0.10345617 0.009290576 -0.016682556 -0.17050885 0.0008774531 -0.008282556 -0.11370217 -0.027549725 -0.060126256 -0.04281121 -0.06859976 -0.06254487 0.043874964 0.06778277 -0.002982008 -0.042666007 -0.041111663 0.048899993 -0.124121144 0.030040944 0.014265459 -0.01799267 0.10773502 0.10017099 -0.090358704 0.030182479 0.007869693 -0.1195968 -0.15213808 0.005363125 0.10170005 -0.14013113 -0.1565481 0.13957775 0.053934537 0.072780825 0.036942963 0.00043008575 0.070067495 -0.05310968 -0.057140265 0.07253239 0.042010397 0.0040100054 -0.08110764 -0.061719753 -0.0923942 0.031094695 0.07924344 -0.22180939 -0.056376927 -0.08260724 -0.007388201 -0.042705223 -0.1837294 -0.013797515 0.024016185 0.014861938 0.02401176 -0.07069778 0.015078628 -0.18028262 -0.033271383 -0.09460327 -0.10986259 0.06831337 0.037730716 0.09718072 0.06660482 0.07944685 -0.07690978 -0.07380756 0.055594932 0.009548254 0.035126764 -0.089918055 -0.022634497 -0.12879698 -0.109675825 0.033288553 -0.04972895 0.05753052 0.0012308653 -0.0017381017 -0.0027727052 0.04439732 0.076573186 0.056017663 0.16214448 0.06786784 0.054846175 -0.0634918 -0.13794942 0.03257791 -0.01991586 -0.011493841 -0.15914159 0.11727102 0.011821311 -0.040040247 -0.10612415 -0.02307965 -0.056220926 0.053772725 -0.064667776 0.067563914 -0.08010585 0.01561376 0.031948105 0.12124606 -0.15962178 0.1623578 0.2229395 -0.06923754 -0.0067188204 0.045244705 -0.036313444 0.09374174 -0.09880607 0.042994052 -0.13227557 0.0029482867 0.03419865 0.049385693 0.025980504 -0.019067487 0.017775172 0.01089045 0.05864676 0.007154241 -0.025218906 -0.10090461 -0.044245116 0.13808727 0.01823184 0.10188265 -0.12688395 0.19093476 -0.10140766 0.034581605 0.008416421 -0.06149343 0.11071961 0.15783048 -0.119873494 0.10867735 0.11442254 0.095941834 0.11579214 -0.015273207 -0.112885155 -0.05821853 -0.014056131 -0.06083964 -0.1036508 -0.11502416 0.031994335 -0.13364738 0.005311858 -0.12642984 0.020398192 0.13531199 0.13851699 -0.14725049 -0.08750918 0.044898696 0.110154614 -0.14330427 -0.07261362 -0.117802925 0.05726904 0.022293087 -0.02466933 0.040069774 0.08907393 0.07143206 -0.16997755 0.076740384 0.060197275 -0.053461827 0.069548376 -0.08273467 -0.06384894 -0.10805365 0.09820151 -0.1192108 0.10589996 0.04693281 0.0532172 -0.04714642 0.0105082 0.0029773677 0.017104154 -0.017887786 -0.08469333 0.054602716 -0.11331224 -0.14283812 0.094898514 0.052439865 0.13010304 -0.049541682 0.081918925 0.023903925 0.09279804 -0.12580921 -0.05043811 -0.15993091 0.011981145 -0.011899141 0.024049815 0.13528155 -0.10302939 -0.101410456 -0.08072198 0.045966193 0.047434036 0.057012476 0.18491241 0.022742007 -0.117814176 -0.004806019 -0.010853033 -0.1060617 0.056646306 0.14678249 0.11693058 0.010467658 -0.118683256 0.03639941 0.15292265 0.03967884 -0.05046259 -0.16206297 -0.0007171424 0.091762975 -0.13505049 0.05754576 0.06981512 0.06478023 -0.0014695921 0.076368146 0.008562315 -0.07543835 -0.13452093 0.025926532 0.13687368 0.10883668 0.052925188 -0.0051338435 0.10276101 -0.1493374 -0.11844774 0.022950094 -0.12826626 0.028986566 0.10184603 0.07287349 0.045688305 -0.0746491 0.15891674 -0.04182933 0.00806907 -0.13085474 -0.1587417 -0.11715934
5 -0.031394184 0.07456113 0.11181627 -0.000578987 0.21377309 -0.010935694 -0.038892463 0.14108337 -0.089568436 -0.06996024 -0.093491234 0.14989188 -0.07174003 -0.112361185 0.064538136 -0.13296326 -0.08937495 -0.104904056 -0.13720219 -0.22170588 0.07093409 -0.104072355 -0.15366986 0.18744306 -0.03700829 0.08125573 0.10916225 -0.06343659 0.06839634 -0.016273726 0.009656363 0.02116224 0.06295072 0.10070893 -0.04992294 0.04942615 0.081957355 -0.06633304 -0.113526925 0.08868161 -0.11244937 -0.13629259 -0.1270045 0.19056274 0.11149286 -0.09852868 0.23127368 -0.14992565 0.10477036 -0.013756876 0.1491942 0.025117148 -0.0951737 -0.026505126 0.0021119532 -0.0035252788 -0.015426453 -0.0149902 0.121856704 -0.04915024 0.0028758845 0.035276048 -0.04142639 0.024206879 0.011419534 0.02023247 -0.046281576 -0.049919374 -0.02053739 0.060924564 0.014314926 -0.05817674 0.039280795 0.09502583 0.02386098 -0.102192365 -0.028247781 -0.06810686 -0.029709227 -0.21032152 0.0121151265 0.1084234 0.049753144 -0.055895746 -0.08366539 -0.0007975636 -0.06937948 -0.08451137 -0.14364697 0.042335216 -0.011778958 -0.0518612 0.008310936 0.10670154 0.029336922 -0.06860909 -0.05522022 0.02101717 -0.12039667 -0.13006963 0.024662683 0.1408881 0.025965225 0.029840551 -0.004924115 0.0032208897 -0.1067314 0.112263195 -0.0059849387 0.052211333 0.016881749 0.119938314 -0.025948064 0.07742754 -0.05076895 0.07682276 0.0088896295 -0.012654891 -0.047529425 -0.11909759 0.031909898 0.017193154 0.10906476 -0.042545587 -0.10507405 -0.013693375 -0.054384425 -0.048867613 0.13314886 0.02255612 0.043679886 0.03968734 -0.07216718 -0.017441474 0.16578944 0.0844613 0.00062823755 -0.023561304 -0.039734554 -0.07722516 -0.10065314 -0.08907642 0.16548279 0.1392076 -0.024448143 0.057744194 0.06969571 -0.18893947 -0.008100859 -0.0967923 -0.048135776 -0.13074858 -0.047504723 0.012284165 0.113903 -0.007461065 -0.011563982 -0.08515828 -0.027990602 0.01876948 -0.033576775 -0.15442672 -0.12269366 0.019935315 0.08353702 -0.18337181 -0.169757 0.00949172 0.12776658 -0.008393043 0.027216319 -0.18808408 -0.105968274 0.006086534 0.059387587 -0.017668843 0.0012561505 -0.13276033 -0.029607339 0.08076637 0.04368584 -0.047699675 -0.008563421 0.11629588 0.029711565 0.051350396 -0.22346245 0.03323933 0.008078532 -0.03489412 -0.10048528 -0.07221779 -0.091770224 0.11664566 0.11600603 -0.023130136 -0.036764134 0.047660284 -0.0048745363 0.047052212 0.023441285 0.096292235 0.06247925 -0.020768221 0.036124177 0.1411312 -0.1321401 -0.15823932 0.21693991 -0.074563205 -0.06339146 -0.05840102 0.13985936 -0.021750288 -0.24393113 -0.052843984 0.075878344 0.05129373 0.11313544 0.20998204 -0.06784035 0.018572997 -0.042766366 -0.08914417 0.0066322302 -0.005703939 -0.049969804 -0.1787711 -0.18965602 -0.01978936 0.12837297 0.054620344 -0.10883174 -0.044173352 -0.017275425 -0.012657681 0.04436751 0.068524666 -0.104613364 -0.07756344 -0.035908695 -0.1794337 0.12842724 -0.099584274 -0.024162836 -0.19005093 0.017637528 -0.10763853 -0.07814326 -0.183915 -0.08509847 0.039219208 0.05522217 0.13278404 0.13303904 -0.15651028 -0.037733786 0.20700543 -0.12495078 0.059305348 0.13640505 -0.18806039 0.102082185 0.11641582 -0.05452177 -0.06680616 -0.118761666 0.0030948038 0.13570789 -0.0015055133 0.04439424 0.0334177 0.17640547 -0.07534727 0.11572937 0.057879176 -0.020807564 -0.026041029 0.02472633 -0.084189534 0.049056046 -0.17276113 -0.08279263 0.064286314 0.1132861 -0.02516621 -0.07602952 0.04464113 -0.052514445 -0.08404376 -0.16954362 -0.1299558 0.03688824 -0.050959934 0.09314618 0.07490341 -0.11333817 -0.05189115 0.00929282 -0.024104713
6 -0.08442065 0.0027194172 -0.04677093 -0.07360291 -0.1297788 0.012027014 0.086559996 0.11857153 0.10769189 -0.009911443 0.03405584 0.08144979 0.0093813995 -0.069361165 0.1414457 -0.050636154 -0.06550503 0.058278278 -0.028113643 0.10272767 0.07329349 0.052333992 0.07493158 0.13246942 0.053804293 -0.022066858 0.10242766 -0.07381663 0.12960845 0.16820826 -0.13886222 -0.1600049 -0.035111085 0.052188575 0.16410783 0.08460708 -0.08646736 -0.117228895 -0.011496025 0.010782096 0.0301163 -0.08736809 0.16511549 0.027940089 0.0023163208 -0.0865288 0.068260945 0.021139445 0.090752 0.025603725 0.005289397 -0.08840327 -0.027315745 0.029321289 -0.05204349 -0.07528166 -0.023200423 0.088971324 0.10653172 0.06183999 0.012259917 -0.15449399 0.2299837 0.03684433 -0.02146121 0.11079319 -0.07166053 -0.18226421 0.073114105 0.1943365 0.00552421 -0.0013889694 0.05658302 0.01817089 -0.05368537 0.06816377 -0.0029913476 0.0071194884 0.06361039 -0.16137443 0.039473798 -0.060637224 -0.14931293 -0.048976853 -0.06424279 -0.14847934 -0.039206065 0.1856769 0.012382936 0.007454858 -0.09519505 -0.18881422 0.056783866 0.029021638 -0.0516473 0.14684762 -0.05917312 0.14787745 0.11579185 0.064788476 0.07113332 -0.06710531 0.07498783 -0.21988253 0.02666108 0.032407537 0.011156297 0.037774935 0.0936811 0.05059102 -0.06952916 0.11794683 0.090467386 0.052898686 -0.05431514 -0.0326703 0.21226095 0.14025962 -0.025961839 -0.11080549 -0.013078401 -0.057832494 0.08291472 0.03687119 -0.028211383 -0.08816298 0.07609789 -0.09908326 -0.062911086 0.13388807 -0.07837861 -0.13995416 -0.122909084 0.08881985 0.0077952594 -0.10203965 -0.11389025 0.03830335 0.03751056 0.22897601 0.07851366 0.0053791194 0.07379143 -0.00590345 0.09515835 0.072248146 0.10251373 0.100565106 0.027690047 0.07553387 0.075445786 0.11784205 -0.0837327 -0.038993523 0.18215358 -0.07362152 0.011563883 -0.008483701 -0.019813986 0.16230242 0.014126602 0.09088847 -0.16310723 0.026834931 0.07684157 0.063937634 0.06970989 0.07499828 -0.046564516 -0.0016925738 -0.074209966 0.07711386 0.17291082 0.10206391 -0.017564204 -0.016279522 0.021797042 0.025759386 -0.0041190237 -0.082911305 -0.14143287 -0.09476838 0.00022885726 0.047679007 -0.058172934 0.045120295 -0.0648505 0.072583675 -0.019937286 -0.008666306 0.010854426 0.0029096196 -0.13224581 0.100791045 0.038607508 -0.10842244 0.050401468 0.0546644 -0.023861445 -0.1376596 -0.038026363 0.046823923 -0.11069138 0.057882316 0.10376227 -0.09921307 0.004257243 -0.0121370135 -0.03587771 -0.09484868 0.15597685 0.16270669 0.14057471 -0.010481954 -0.061889276 -0.041952424 0.045092504 -0.15269436 0.13720597 -0.10098136 -0.11190493 -0.037370294 -0.04574287 0.011230085 -0.09914331 0.0016645781 -0.10025207 -0.048162878 -0.015772665 0.0023038464 0.13010539 -0.047813125 -0.03790815 0.11964568 -0.009107306 -0.092167035 0.03604549 -0.21820517 0.026109727 0.15679517 -0.016963717 0.14368306 -0.1578488 0.0385594 0.09522599 0.07892404 0.109365284 -0.009378405 -0.013463817 -0.044911124 -0.012406003 -0.08581798 0.052517943 -0.03810216 0.12912183 -0.053632464 -0.1123071 0.035406172 0.037449118 0.068459384 -0.0006276852 0.1885898 0.024537796 0.059231702 0.07077341 -0.06883319 -0.07763028 0.07443006 0.14735797 0.11104799 0.07312433 -0.053156815 0.06215131 -0.1882658 -0.11311425 0.038638134 0.009309711 0.081108674 0.0055634794 0.008666573 -0.013533807 0.018739933 -0.05882828 0.12127761 0.030575696 0.035619337 -0.052687563 -0.17035638 0.1449919 0.07068981 0.016363576 -0.018075043 -0.16838738 0.120696746 0.009933399 -0.08618785 -0.17350829 0.08005814 -0.01635026 -0.19920075
7 0.07632242 0.081409 -0.08804387 -0.07273958 -0.12249459 -0.064562194 0.037644755 -0.015597811 -0.020576017 -0.11539393 0.06781674 0.08872794 -0.055651695 -0.16319922 0.00435475 -0.09020946 -0.025700428 -0.023500904 0.029334841 -0.07388909 -0.16242157 0.17773099 0.2001541 -0.0007977001 0.053969037 0.112220004 -0.030619718 0.016858585 0.027267909 -0.0099023 -0.07702669 0.0013041375 0.059377104 -0.13814509 0.05038473 -0.012872869 0.00859774 0.20230567 -0.03660102 -0.02014823 -0.032149725 -0.04316255 -0.06234869 0.059379272 -0.08420206 0.049780753 0.03390056 -0.046860542 0.015447228 0.018098382 -0.08246332 -0.012413676 0.04219132 -0.02676146 0.0015793826 -0.012999163 0.15845294 0.026172515 -0.084056355 -0.10731752 -0.0951011 -0.0027121853 0.026644776 -0.0596855 0.086974055 -0.07304061 0.08024972 0.11712648 0.013149242 -0.051268153 -0.2031002 -0.016168863 0.022478692 -0.073583975 -0.12050384 -0.02851042 -0.045377582 0.05807429 -0.0933186 -0.022791099 -0.025808554 -0.12327051 -0.020790802 0.09160765 0.11668612 -0.12740287 -0.15987022 0.02861765 0.008824278 0.023896143 0.070497796 -0.13537824 0.12056955 -0.03731983 0.0773578 -0.0723439 0.055809025 0.017522926 0.13462135 -0.07185247 -0.08609687 -0.06224161 -0.007912786 0.07687585 0.061170112 0.112599805 0.060118202 -0.06552028 -0.007577238 -0.04289213 0.14568974 -0.034006685 0.04481492 -0.04273229 0.08665663 0.11240647 0.039196394 0.007266772 0.12458648 -0.04745173 0.16031654 0.01610276 0.14334853 0.173482 -0.066175506 -0.06627315 0.03320919 0.12603712 -0.122417 0.024661569 0.12922135 -0.13703048 0.09349858 -0.0021243938 -0.2256407 -0.068142645 0.025509639 -0.10204121 -0.09885378 -0.042679813 0.029389374 -0.09934086 -0.01396665 0.047440857 0.06277918 0.11343081 -0.18125063 0.067226306 -0.058836877 -0.0047450587 -0.13697366 -0.072362855 -0.027581632 -0.04076144 -0.054809783 0.22028752 -0.10279631 0.023658155 0.06636917 -0.062711544 -0.0022076792 0.02352624 -0.02733881 -0.05543521 -0.15760241 -0.093369044 0.029433971 -0.089248076 0.010023904 0.08096395 0.02462201 -0.0038837988 0.036732547 -0.10833508 0.07375711 -0.009029896 0.03113269 0.06549095 0.021525161 0.078848265 -0.10372995 -0.07435551 0.0795319 0.15667365 0.028070483 -0.091546096 0.026829723 0.07910326 0.109737046 0.13505574 0.0487085 -0.054758705 -0.03342935 0.046253674 -0.043768294 0.096717134 -0.036498558 -0.10158985 0.050167304 0.04015906 -0.01283644 0.083612114 0.052235514 0.028678773 0.103674494 -0.017935984 0.10625178 -0.031282116 -0.095764644 0.07851518 -0.05904452 0.015577788 0.10445264 0.05458365 0.05329501 0.0992008 -0.019876914 0.08104884 0.010610479 0.03416669 -0.0767169 -0.011161126 -0.083656356 0.016583903 0.0139643345 -0.0021599128 0.12241699 -0.12465899 -0.0265293 -0.06264013 -0.04471118 -0.0010963425 -0.054308906 0.064880624 -0.16894324 0.0151432 -0.05973847 0.012337736 0.010330365 0.03190026 0.05982456 -0.04009323 -0.051115934 -0.057051778 -0.061882854 -0.004337198 -0.094676375 -0.005499532 0.008918334 0.12521073 -0.16195832 0.014883218 0.03637731 0.008228524 0.05614859 0.014864465 0.029341947 0.10684657 0.055006802 0.044880554 0.068864934 -0.046878114 0.0290335 0.12790433 0.026870107 0.18319432 -0.00045558045 0.040509503 0.11023235 0.062334713 0.057504594 0.038723037 -0.051148873 -0.027500028 -0.0029422445 0.07604226 -0.07759438 0.07315044 -0.023457872 -0.059667774 -0.07355467 0.12061726 0.07510167 -0.0465515 0.1386012 -0.07980882 0.0019621938 -0.044712216 -0.0042826394 0.17246087 -0.018224722 0.13835259 0.03464183 -0.054938152 -0.032649484 -0.14819854 0.046517406 -0.081865065 -0.003012254 0.07383392
8 0.034181986 0.10513479 0.03239656 -0.08694234 -0.033175785 0.16278628 -0.05452613 0.1224748 0.028858928 0.18471271 0.060896315 0.20352973 0.076884404 -0.0011491781 0.13251549 0.022088038 0.077713735 0.07064572 -0.023931041 -0.001100901 -0.034024667 0.014146377 -0.031163316 -0.004997794 0.00047122795 0.024062376 -0.036798682 0.15561451 0.03131493 -0.04992222 0.022242771 0.060322642 -0.0713589 -0.06754461 -0.016571442 -0.15296167 -0.04194548 0.14067152 0.09593846 -0.14773127 -0.013400161 -0.015438936 -0.060976762 0.15470624 0.053864814 0.08175398 -0.092537634 0.070269845 -0.070315115 0.15067221 0.0490833 -0.13820668 0.073143356 -0.023742821 -0.0117187565 0.0723412 -0.11256191 -0.08066579 -0.10034524 -0.07528563 -0.03587675 0.10857324 0.08459447 -0.06458378 -0.0625108 -0.011247042 0.018298954 -0.102062926 0.11681466 -0.13145348 -0.038117412 -0.06744017 0.055262517 0.03799709 -0.032057337 -0.1344158 0.10747841 -0.06242806 -0.11702862 0.026736448 -0.09267075 0.023739222 0.065679304 0.014539456 -0.10981733 -0.123550534 -0.07342042 -0.044650666 -0.010859873 0.15084903 -0.07050143 -0.08731205 0.023329843 0.034276046 -0.036575835 0.101722606 0.08039747 0.083991244 0.15971729 0.08998064 0.104446575 -0.23308772 0.08454156 0.096604496 -0.105573274 -0.0009683403 0.01733361 -0.021553842 0.08230911 0.0797387 -0.064684294 -0.050238114 -0.001743949 0.06390428 -0.20033376 -0.15442489 -0.10678481 0.028481731 0.1630476 0.18516578 0.086263165 -0.0017003125 -0.13273612 0.21438856 -0.10195883 0.030374615 0.09218281 0.13284853 -0.07948732 -0.0066448613 0.16890748 0.10286809 -0.13622795 -0.10915881 -0.00028262302 0.17018852 0.08031931 0.10386607 0.06392336 -0.046595052 -0.03649932 0.0832478 -0.06304477 -0.053361375 0.13254747 -0.0107552195 0.024197526 -0.1804814 -0.025499092 0.13418159 0.036222402 -0.022958672 0.059761163 0.009380477 0.030397637 -0.0013604152 -0.0633293 0.011713233 0.08246158 0.05128502 -0.122758545 0.0027295079 0.02724283 -0.20390642 -0.006509377 -0.08389397 0.15498891 -0.0156333 0.04013404 -0.16510026 -0.084096536 -0.044870093 -0.024523975 0.12980436 -0.030093683 -0.123118974 0.05161916 0.055159427 0.033843536 -0.027335914 -0.051842414 0.09958172 -0.03816087 -0.0324775 0.09512096 0.0072661326 0.010769289 -0.09911488 0.032999072 0.05525786 0.011320707 0.04116481 0.06734423 0.108682446 -0.055049013 -0.08246393 -0.002562258 0.13821732 0.001195321 -0.027666004 0.012875743 -0.18507323 -0.16887663 0.043287016 -0.11020414 0.06243833 0.059307605 0.09540089 0.22280043 0.022945423 -0.028513696 0.03820377 0.032009926 0.08331183 -0.06650814 0.12889606 -0.018635893 -0.09569338 0.16987385 0.18520415 0.06650142 0.024222273 0.14687239 -0.059629954 -0.14064741 0.08005502 -0.023824275 0.14117306 -0.03469362 -0.050906785 0.043133218 0.014507213 -0.09278067 0.028145427 -0.017768139 -0.10220953 0.14470422 0.058901932 -0.10692319 0.08775187 0.11787647 0.07835752 0.15081477 -0.053012837 0.12187699 0.11674881 0.13066386 -0.022011278 -0.024833525 0.0029937904 -0.09033068 0.11813932 -0.08304004 -0.11244973 0.08126041 -0.10678307 0.101887606 0.12807576 -0.047717925 0.17138636 -0.03880231 0.042067546 -0.017371833 -0.06619791 0.044327214 0.10458609 -0.07909318 -0.1024361 0.038576245 0.038788456 0.07182085 0.10175249 -0.030934593 0.10613205 0.11197459 0.13053581 -0.11614171 0.000366992 -0.24180737 0.03449759 0.019421857 0.009099929 -0.12189098 -0.025016587 0.043013792 0.042736065 -0.08561266 -0.025501963 -0.095008634 -0.07828626 -0.116561525 0.114811644 -0.027693704 -0.07546808 0.025903556 0.0070496504 0.07825994 0.14286044 -0.027768085 0.019429358
9 0.1005993 0.12229814 0.06896388 0.15364346 -0.01535361 -0.0014418669 0.06754569 0.14477603 0.041237034 0.1672904 -0.02024332 -0.0631639 0.018558607 0.12230757 0.11061799 0.06250353 0.15715972 0.043085117 -0.14757839 0.0423284 0.2615979 0.19048244 -0.09832894 -0.050311692 0.009033715 0.107318096 -0.025341365 -0.15858035 -0.035042025 -0.1721965 -0.014267945 -0.15453587 0.01391191 0.063429385 -0.01836624 0.022908023 0.16628209 0.053835634 -0.034040842 0.009690075 -0.037477117 0.034751922 -0.089046665 0.051632512 -0.058256876 0.10073176 -0.09315131 -0.15732512 0.10072425 0.020665973 0.08228275 0.1062552 -0.18039984 0.18730897 -0.04365187 0.17633379 0.1035194 0.030161893 -0.18359378 -0.026668737 -0.0153486375 0.06793172 -0.021648861 0.03931748 -0.08928938 -0.03136624 -0.09517988 -0.08594346 -0.072037384 -0.035284385 0.07888493 -0.056564216 0.016642032 0.082333855 -0.10014244 0.01682038 0.10999432 0.036078442 0.08418582 -0.08309114 0.031343043 -0.04966073 0.036124118 -0.085225984 -0.024861941 -0.022069575 -0.08353869 0.057695627 -0.003944915 -0.16860129 0.12155194 -0.16492224 -0.11622178 0.07792391 0.03781054 -0.097246066 0.3138262 0.0247325 0.118605256 0.055059634 0.17862433 0.22578743 0.009833425 0.01206625 -0.046980165 -0.05829192 -0.03772354 0.03228203 0.1243456 -0.038856145 0.01594219 0.0022235864 -0.18027705 0.15592541 -0.0043944353 -0.032249365 0.035684038 0.047515422 0.025511114 0.06714855 0.03424673 0.17543258 0.05044564 -0.09888382 -0.104608215 -0.1531234 0.1472111 0.106062405 -0.12798244 0.03430851 -0.0482258 0.057812776 -0.059585337 -0.0023465608 0.025751473 0.075065084 0.13965228 0.20577766 -0.16470206 -0.064530045 0.0027427382 -0.024756992 0.0043087685 0.00015186494 0.027043356 -0.10997748 -0.022202061 0.087763384 0.082167976 -0.03597676 0.044842627 -0.12152314 0.073400535 -0.06254708 0.16829622 -0.032317486 0.019990962 0.031024938 0.135525 -0.07134889 -0.12907888 0.047590222 -0.14878736 0.05518853 -0.041081414 -0.044607252 0.069889694 0.1756372 0.1051399 -0.022614758 -0.015162671 -0.1336456 -0.06886798 -0.04429591 -0.041840803 -0.13404398 -0.08880111 -0.01706838 0.1229944 -0.016007897 -0.04781929 -0.03515178 0.0023652131 0.15018132 -0.054661814 0.14404072 0.08069984 0.10317715 0.025208656 0.2645606 -0.0565629 -0.11630326 -0.07227916 0.022044413 0.2008761 0.057436075 -0.16696675 0.15003054 0.040478382 -0.05218006 -0.08925008 -0.080011226 0.09218349 0.018973276 -0.080992535 0.23618491 -0.06871337 0.07095622 -0.062297933 -0.044940107 0.11167529 0.030342063 -0.0036030319 0.015243104 0.11827217 -0.010118154 0.021572137 0.18196198 0.06845822 0.04946026 0.10273731 -0.040382393 -0.01309847 -0.12838899 -0.14615075 -0.07584505 0.0433044 -0.04397937 -0.021588484 0.04041437 0.008439926 0.11266794 -0.10902144 0.057508137 0.11247776 0.06422176 -0.035868835 0.012967549 -0.11412615 0.004439045 0.03851401 0.011023182 0.21934411 0.11253486 0.012812111 -0.102988586 0.009543309 -0.015351084 0.059805803 0.07215947 -0.036265522 -0.28649613 -0.02844616 -0.021845175 0.0330538 -0.015693331 -0.11776354 -0.044992685 -0.14945725 0.040963102 -0.027032899 -0.049721915 -0.0039758817 -0.0029442334 0.13437672 -0.014253314 0.05482581 -0.084333606 0.2219414 -0.05430239 0.041026983 -0.17708017 -0.09090916 0.019413952 0.15245624 0.07384118 -0.09969876 0.0042121075 0.07631301 0.009171362 0.011586864 -0.12017728 0.034555785 -0.03786667 -0.0047508786 0.02610119 -0.13598275 0.0034892412 0.0316194 0.1294981 0.07646306 0.015325287 -0.04151365 -0.065385416 0.0020631563 0.13164686 -0.06402024 -0.07516179 0.13871749 0.06318196
10 -0.101543866 0.051506486 0.013375369 0.024276806 -0.17533258 -0.0060422136 -0.20597546 0.15176453 0.08233745 0.08303729 -0.087201826 0.09458037 0.054412916 -0.06141856 0.07244768 0.011120763 -0.06566079 -0.116807535 -0.056845225 0.10300231 -0.04544612 -0.013307613 0.010155547 -0.09384154 0.09940095 0.075833395 -0.1408756 -0.1517884 -0.032308765 -0.058553666 -0.118795924 0.061872177 -0.083079755 -0.045835838 -0.09531116 0.15713954 0.051063288 -0.1980302 -0.041625734 0.003750813 -0.191188 0.13059707 -0.053157866 0.021769121 0.0171119 0.019253459 0.004594197 0.10286991 0.054578584 0.0024272674 -0.100219764 0.10491834 -0.027376799 0.051326375 0.0338076 0.07391011 0.04101295 -0.08632361 -0.062157925 0.02595978 0.050037388 0.088914275 -0.07735559 0.034367703 0.15689634 -0.08248223 -0.051642384 0.024652272 -0.103949174 -0.10726881 0.036194835 0.0714699 0.044235196 0.00017520475 -0.039540324 0.11886044 -0.107042015 0.022546403 -0.15253317 0.010133898 0.019918814 0.06652001 -0.056502886 -0.16119228 -0.030108437 -0.022462633 0.005004991 -0.05997005 -0.1214889 0.07345475 0.019716442 -0.008618152 0.089520566 -0.037366025 0.1382508 -0.08438832 0.021234596 -0.15312555 -0.0055354265 -0.034184445 0.08233399 0.066069864 0.00045801298 0.09376518 -0.093964525 -0.077273235 0.0147467535 -0.11220181 0.0025941497 -0.045917004 -0.086125515 -0.13709696 0.013809696 0.06881363 -0.12331466 0.08273375 -0.10958713 -0.004241688 -0.05525443 -0.08007032 0.06588089 -0.028869603 0.037079863 0.096906774 0.14312805 -0.08972258 -0.08561065 0.027301528 0.0084793335 0.06754414 -0.1724974 0.058044724 -0.078179054 -0.0098034125 -0.041668437 0.016112195 0.007952007 0.065609604 0.009055055 0.07792299 -0.19627698 -0.08740248 0.15536754 0.079121105 -0.15001155 0.02772881 0.04599955 -0.01840986 -0.12191373 0.031824015 -0.085647166 0.098681286 0.025690762 -0.035655864 -0.016912483 0.028906677 0.14010216 0.008510494 0.14322133 0.14812724 0.08641794 0.08555406 0.0002916852 -0.06892371 0.049719978 -0.057123203 0.04230765 0.04309716 -0.024680723 0.12242862 -0.054928623 0.21927397 -0.05949863 0.09824459 0.07101713 -0.07646243 0.057841513 0.07547201 0.009948044 0.02406436 0.08833417 0.11592646 0.1332828 -0.07463751 -0.019418595 -0.10145245 0.14588049 0.106539644 -0.002983518 -0.03360168 -0.028198486 -0.029453758 -0.0075278007 -0.15390089 0.013956414 0.10746242 0.035232898 0.009545645 0.082758695 0.105173156 0.010800884 -0.123918645 -0.01109055 -0.07501547 -0.06721915 -0.1318737 0.08473315 0.1264296 0.047541447 0.060321704 -0.1728475 -0.0219103 0.035074983 -0.0075817723 0.059942886 -0.008292986 -0.049092084 -0.108159535 0.09250206 -0.15396263 0.056737408 0.016401116 -0.006442475 0.10142389 -0.024518682 -0.016422523 -0.12736931 -0.08226655 -0.11205558 0.113387026 -0.061199054 -0.07346239 0.024733461 -0.06793123 0.11925088 0.007659916 -0.18509401 9.7812925e-05 0.14855792 0.0575798 -0.08453616 0.0004883259 0.049344208 -0.09537406 0.14927582 0.058519695 -0.14584604 -0.08921992 -0.025905058 -0.12648252 0.18910192 -0.037345428 0.19659199 -0.0804445 -0.09587717 0.01189997 0.082851924 -0.108665586 -0.052121937 0.16417028 0.068848774 -0.0965571 -0.07602628 0.12398429 0.13802074 0.0688754 -0.069638155 -0.01696446 0.009425576 -0.106184244 -0.08401172 -0.042167272 -0.015190816 0.03262206 0.048865587 0.023627212 0.04041381 -0.0050037308 0.032993745 0.021358527 0.11152736 0.07283525 0.048824508 0.15173902 0.070669465 0.026386462 -0.061948866 -0.09217946 -0.03125586 -0.14613508 0.065137535 0.014127252 0.015972735 -0.06074438 -0.110634334 0.05826715 -0.0065132296 -0.1426313 -0.10918229 -0.02357005
11 0.16381556 -0.05032506 0.111104 0.017578647 0.07016049 0.049799662 0.008589957 0.17889622 0.05046687 0.03585959 0.0096427 -0.074393705 -0.09193467 0.12621187 -0.03593318 0.060696974 0.008284958 -0.1111187 0.06694045 0.074841656 0.06398196 0.037750766 -0.058344025 0.09018312 0.036845777 0.0007428808 0.0639348 -0.05775108 -0.04617821 0.05693298 -0.043363433 -0.08767773 -0.02180907 0.028132036 -0.13585885 0.026729083 0.024837872 -0.045574885 0.040736698 -0.1314725 -0.09565066 -0.15950929 -0.04508364 0.15834446 -0.009990993 0.13364613 -6.721612e-05 -0.013592796 0.097584926 0.024476629 -0.116213016 0.094484344 -0.05727462 -0.13159648 0.070959166 -0.1790918 -0.102364436 -0.08299721 -0.108673014 -0.16771519 -0.13254745 -0.07182061 0.016708724 -0.012059605 0.01933223 0.015511568 -0.04037093 -0.015435104 0.07551757 -0.12385774 -0.15736958 0.028843677 0.10450652 0.0060517774 0.034285903 -0.037585076 -0.12092489 0.1476609 0.1749752 -0.066645354 -0.023655783 0.2060863 -0.009547849 -0.11498947 -0.011739669 0.14869466 -0.033743773 -0.06812518 0.027159134 -0.017088333 -0.13169518 0.059210863 0.0065977555 0.035150606 -0.0016943115 0.0034613884 0.109791815 0.09492656 0.06989579 -0.015010005 0.019270003 -0.029960595 -0.11584177 -0.123859406 0.112209916 0.065467715 0.03273857 -0.017791154 0.002841109 -0.08999857 0.19451888 0.056620892 0.050066676 0.00010875701 -0.22477782 0.018355092 0.10983449 0.09091059 0.06455692 -0.0149484305 -0.12686995 0.026754916 -0.008983936 -0.011836676 0.008615536 -0.07252117 0.05524324 0.11717254 -0.15866499 0.0029758504 0.10543618 -0.005784008 -0.015976636 -0.054700814 0.061872046 0.08907841 0.037963703 -0.029499238 0.06678304 0.07900462 -0.13821876 -0.08199241 -0.07999734 0.04980324 0.09898251 -0.059709933 0.03335496 0.013079451 -0.07534497 -0.07940525 0.17320521 -0.008728864 0.063011974 0.0028279696 -0.05313834 -0.11350358 -0.008648557 0.21380724 -0.018751165 -0.07541774 -0.119261704 0.01856228 0.025859911 0.032101188 0.14405026 0.046026707 0.044344153 0.03345519 0.04616869 0.01381754 0.0076029417 0.0042160912 0.16474678 -0.037793 0.007399237 -0.014082404 0.18742006 -0.0179447 0.08308859 -0.0029972973 0.043283693 0.13579936 -0.059754796 0.014085039 -0.07763456 0.119602166 -0.016574116 -0.15361243 -0.06511665 -0.12212956 -0.035967115 0.116266936 -0.033684604 0.15551591 0.03864189 -0.16473114 -0.036120266 -0.18366598 -0.04150038 0.007893231 0.11765275 0.041388955 0.027208736 0.013699472 0.01829126 -0.035493035 -0.010450799 0.109845385 -0.025480468 0.10309074 0.099945545 0.066193394 -0.026366549 -0.035410307 -0.039679963 0.09410209 -0.09367359 -0.011299632 0.0808029 -0.026947374 0.13765608 0.11442708 -0.06391522 -0.089821495 0.13721855 0.041750744 -0.10741914 0.17784546 -0.09333888 0.0013830275 -0.044521842 -0.2405578 -0.042529985 -0.030182505 -0.010919044 -0.03880346 0.06930844 -0.056142658 -0.19904609 0.0010830581 0.112270966 -0.08585209 -0.024408415 0.24865979 -0.19674142 -0.04331297 -0.09047463 -0.014746608 0.08400167 -0.054776814 0.05065882 0.028971668 -0.065239236 0.12908852 -0.076482475 -0.05568764 -0.07739962 -0.019001149 0.1113568 -0.09612785 -0.0795726 -0.14183342 -0.046391014 -0.020895034 0.024884267 -0.08877398 -0.19683197 0.023613721 0.09465624 -0.0520565 0.04393162 0.04806216 0.05050118 -0.09560426 -0.025943192 -0.035265364 -0.09495126 0.041769713 -0.040955216 0.14069341 0.059087504 -0.087514125 -0.03637226 -0.05195064 0.10089622 -0.093269356 -0.012993474 -0.050464254 0.037748702 0.14686078 0.07435202 0.24411875 -0.09423897 -0.0673408 -0.16022378 -0.048071187 -0.16099368 0.05767159 0.07257955 0.10934456
12 -0.026116828 -0.0744322 -0.06283818 -0.08729647 0.024654573 0.013217694 0.040086705 0.0311059 -0.020609563 -0.063496254 -0.18561137 0.0929716 0.05086307 -0.12994678 0.008126979 0.0012143207 -0.024723237 0.06340501 0.07452651 -0.006957859 -0.19418798 -0.10686581 -0.095443204 -0.094618805 -0.13191031 0.10040961 0.024215175 0.024718342 0.11419944 0.0022869748 -0.10521302 -0.060966354 0.026963307 -0.14454192 -0.084593624 -0.14999354 0.041066468 0.1255422 -0.04688335 0.0705304 -0.07367315 -0.2161108 0.04836954 0.029269617 -0.041213036 -0.038621936 0.13453405 -0.09405567 0.030044498 0.037251893 -0.13222387 -0.056243945 0.07602963 -0.1407246 -0.15852194 0.01046198 0.06662313 0.09134265 -0.073076956 0.06465453 -0.032526128 0.012912895 -0.10901426 -0.0011265946 -0.037967145 0.048586998 -0.02258256 -0.01533965 0.117339686 0.09847371 -0.053028073 -0.07995473 -0.09628503 -0.12789206 0.0491692 -0.017900473 0.021411281 0.09632739 0.03562224 -0.04949601 0.13070308 -0.05356093 0.0863962 0.1278991 0.0014118649 0.17691505 0.19265518 -0.032515906 0.017873004 -0.07767749 -0.027489962 -0.031437997 0.009011459 -0.079040445 0.17979331 -0.090601936 -0.02443875 -0.17827979 0.08022443 -0.010259258 0.19970702 -0.18777311 0.091113046 -0.0898642 -0.0017005296 -0.08927048 -0.023554362 0.028527293 0.13999347 0.03440012 0.13345048 -0.032869037 -0.05527207 -0.017012442 0.11411271 0.07142566 0.085754976 0.081190266 0.097064935 0.09916858 -0.05058149 0.04933389 -0.08301541 -0.026493335 -0.20023501 -0.058446404 0.047704745 -0.05781462 -0.0905209 0.027501466 -0.08486094 -0.08295745 -0.0030080872 0.018634176 0.035609104 -0.019375242 -0.044714954 -0.095836826 -0.068643704 -0.06325969 0.010319843 -0.21183193 -0.017568234 0.08302206 -0.039950926 0.047801197 -0.0060886317 0.03082409 0.030956954 0.09796594 -0.009332258 0.0037049928 0.07615433 0.041102536 0.09922021 -0.062840596 -0.06902862 0.046082675 -0.088412166 -0.04810837 0.01400109 0.19252715 -0.003563078 -0.08970421 -0.13299392 -0.07413596 -0.0007619814 0.026621072 0.028937964 0.013297308 -0.087873735 0.101912744 -0.18097158 -0.033028364 0.035388585 0.10502902 0.06283711 0.026741514 -0.047429483 -0.026813999 -0.13800567 -0.026600221 -0.114296414 0.06640858 0.10518215 -0.034501623 -0.11210998 -0.033793014 -0.056682754 -0.051544867 -0.014505644 0.14943552 0.038027316 0.0021433372 0.026895061 -0.042135652 -0.020607477 0.11425211 -0.07940168 -0.07792787 -0.0887864 0.12956561 -0.023058143 0.02746322 -0.106428966 -0.026300559 0.14904428 -0.13699575 -0.11937955 0.019653698 -0.055894595 -0.066855215 0.020460142 0.02168867 0.080722034 0.03677248 0.11874298 -0.16884635 -0.025387082 -0.015592966 -0.09918139 -0.13762045 -0.072590224 -0.18985412 0.15617532 0.07219664 0.11912099 0.06142156 -0.0066374107 -0.14465412 -0.05273987 -0.13586132 0.047992334 0.07312158 -0.12500376 0.08030797 0.09315579 0.033247314 -0.0049892142 0.029859107 -0.075456135 -0.13491328 -0.051025648 -0.078141294 -0.016533064 0.0052473587 0.019421658 0.017203996 -0.16594525 0.053502474 0.033436585 -0.06279401 0.0834431 -0.08640577 -0.16695334 -0.08662367 0.054538205 -0.12808852 0.04054419 -0.050675463 -0.0012642089 -0.07921155 0.014221637 -0.12156601 0.16197191 0.11597173 0.03473 0.0571067 -0.029665058 -0.0942033 0.0076956744 0.020025324 -0.00069277897 0.20618194 0.032514468 -0.14304252 -0.043985125 -0.11363001 0.010632341 -0.034815747 -0.26174048 -0.0020993182 -0.07889585 0.040299926 -0.014710344 0.007040007 -0.16654788 0.0061480026 -0.15888442 0.118230484 -0.049559165 -0.009903767 0.017612983 -0.044551466 0.12774546 -0.058614306 0.063893616 -0.0076490394 0.046566118 0.028757412
13 -0.048379757 -0.039218843 0.031942315 0.10692534 -0.1259198 0.048023872 0.06698976 -0.1508185 0.020228801 0.06874444 0.014494504 -0.00554033 0.029760253 -0.08722347 -0.13076892 0.030366369 0.13916424 -0.07678429 -0.040126503 0.035862837 -0.005970568 -0.03730677 -0.057674292 -0.0018317521 0.079575054 -0.017255036 -0.058561176 -0.1174958 0.09107956 0.047798328 -0.0015919402 0.1476707 0.20975663 -0.08622234 0.078809336 0.05343051 0.07713152 -0.03651337 -0.1655227 0.062300786 -0.084700584 0.1718717 -0.013731191 -0.006507122 0.14755653 -0.1853149 -0.067180716 0.08983116 -0.07865054 -0.08830308 0.013279733 0.062328912 -0.014564952 0.052025855 0.04086292 -0.16741802 0.07396147 -0.106932685 -0.09599644 -0.002632325 0.03427044 -0.048272528 0.12592639 -0.029731417 -0.041640017 -0.107918195 0.07731846 0.017949779 -0.12404355 0.018661559 0.03135981 0.15626115 0.016601512 0.020332793 0.060404185 -0.13131191 0.047990173 0.006664098 0.0873901 -0.07195516 -0.066516906 -0.08156079 -0.048673827 0.08295405 0.095383376 -0.01809167 0.001027072 -0.12286097 0.15329021 -0.076171435 -0.013162997 0.012069667 0.025800329 0.08419016 0.08239877 0.07029595 -0.107513085 -0.061946183 0.08922646 -0.057636473 -0.04786601 -0.065200455 -0.068381436 0.021881897 0.12384813 -0.011178395 -0.04064054 0.058184817 0.040253356 -0.07625661 0.11606339 -0.010217052 -0.26036036 0.094680645 -0.08205028 -0.05640228 0.096737504 0.042382214 0.13558528 -0.01739792 0.159657 0.016013095 0.07019344 0.02011936 -0.06279703 0.18131453 0.044504657 -0.15344857 0.0050988286 -0.122020505 0.005544613 -0.0404186 -0.044135906 0.023218473 0.06522879 -0.0875279 -0.01337478 -0.050771765 -0.048356112 0.019054588 -0.03854943 -0.004675804 0.07310169 -0.033133592 0.06401587 -0.021760562 -0.06684242 -0.029531391 0.11710072 -0.08640351 0.123230174 -0.0062759863 -0.02159092 0.07219594 0.10887052 0.008058773 -0.01236046 0.054501448 -0.090830885 -0.08072337 -0.018864026 -0.07768718 -0.016935088 -0.15750033 0.0041586407 0.075861774 0.01779824 0.038359575 0.09781604 0.024154006 0.20802346 -0.17818119 0.027665447 -0.055015367 0.09922346 0.013522506 0.107855484 -0.08806783 0.18390043 0.01666244 0.18291242 -0.17450547 0.10475061 0.15532365 -0.010038686 -0.08937886 -0.08138558 0.14589536 -0.11505107 0.041434992 -0.11008139 -0.073740356 0.08641641 -0.04334632 0.047180448 0.13808253 -0.10262678 0.1350988 -0.010961736 -0.06730119 -0.10174846 -0.05713029 -0.025280803 0.10119706 0.08267323 0.10217991 0.08544729 0.02011833 -0.16669498 -0.16094948 -0.033095233 -0.11017579 0.10174916 -0.095410645 0.077194504 0.112829745 -0.108254194 0.08998475 -0.012022289 0.066780925 -0.023263872 -0.16645007 -0.020979447 0.053154204 0.1168805 -0.16150713 0.17479058 0.043369327 0.07111496 0.06809075 0.123822555 0.01998896 -0.15454382 -0.15499769 0.09372611 -0.02727581 0.048954144 0.105436474 0.008607402 0.006051046 0.12530138 -0.13523798 -0.014859836 -0.0093609635 0.0074414597 -0.073387176 -0.005822389 -0.077464275 0.13046393 0.040071364 0.056055058 -0.05462822 0.08199916 0.093057916 -0.03525582 0.093056515 0.06480557 0.12283108 0.11311923 0.23816594 0.047319837 -0.0507542 0.066213466 -0.057409238 0.13285437 -0.05705741 0.09179982 0.03829556 -0.09372303 0.0223079 -0.16282101 -0.06887458 0.1734807 -0.042957198 -0.15783945 -0.026390731 -0.010968456 0.024112366 0.025507834 0.030595906 0.022548366 -0.12470046 0.123030506 -0.061665792 -0.023936117 0.098349854 -0.03720199 -0.21263254 -0.18524984 0.0351835 0.13535333 -0.07845916 -0.0066191666 -0.1323161 -0.089542 0.0008186425 0.095619656 -0.110229194 0.1071971 0.0052710045
14 0.08013812 -0.09811399 -0.08719773 -0.08284883 0.12399304 -0.058029816 0.06986163 0.028124487 0.022477884 0.1806852 0.023334878 -0.008694996 -0.23339589 0.09675845 0.069738165 -0.032065053 0.0043040523 -0.009172041 -0.12675872 0.11043287 -0.08617689 0.08690371 -0.117793486 -0.058278855 0.040260505 0.2712266 0.14882669 -0.041044552 0.005449028 0.09495279 -0.09777152 0.1271812 0.06126977 -0.042804495 -0.046147484 0.025587695 -0.033830076 0.023570254 -0.027160197 -0.057056226 0.08139546 0.13339968 0.10367727 -0.031785674 0.097775035 0.099328466 0.031626236 -0.013383128 0.019675901 -0.09171743 -0.11078898 -0.0451547 0.07853502 -0.16631489 0.0747246 0.07225754 -0.10766884 0.104451455 0.0050461194 0.082262315 -0.033113558 0.05312253 0.057203867 -0.009188884 -0.1965697 0.05580881 0.08125542 -0.035077482 0.092302755 0.1086151 0.06925348 0.018965853 -0.063707285 -0.03967851 0.056988064 -0.050416872 0.076565884 -0.0019132347 0.1447981 0.11042819 -0.054617032 0.074694134 0.16203335 0.049943335 -0.05390434 -0.12905172 0.012026809 -0.027169906 0.05017037 -0.01504696 0.0035153548 0.08781592 -0.0017395882 0.076515056 0.066788524 0.056157395 -0.020516321 -0.13409026 0.05915931 -0.11060921 -0.20969002 0.030395735 -0.07320872 0.068652496 -0.024876868 -0.026174242 -0.019221472 0.07171866 -0.12366912 -0.19716267 -0.12898026 -0.022743369 0.17170607 0.022736253 0.03705987 0.09483299 -0.15838356 0.027138231 -0.10325129 -0.099549115 0.12700023 0.08145655 0.016813323 -0.15069057 -0.0033901394 -0.029901125 -0.16059402 0.012881052 -0.1238008 -0.13111989 0.19967467 0.005047911 0.14143586 0.021431614 0.013874402 -0.045439456 0.019135071 -0.006253969 0.056881856 0.09034224 -0.004928971 0.06813484 0.014350673 -0.09089517 0.030120006 -0.20411304 -0.13085268 0.07174823 -0.077960916 0.16166508 -0.051978737 0.068061605 -0.016947754 -0.13003972 -0.03063512 -0.11524233 -0.09419078 0.052273255 -0.07115985 -0.015813371 -0.11946096 0.027315488 0.074294075 0.10249239 0.04739242 0.03921105 0.070699595 0.04894185 0.08935641 0.2028565 -0.13266028 0.006811395 -0.08750734 -0.052363653 -0.06723934 0.1773812 -0.0587196 0.019590423 -0.11603439 0.10119794 -0.07664283 -0.11909732 0.022729902 0.06031282 0.06438 0.026097806 -0.006941412 -0.022856157 0.0064186305 0.06020576 -0.054340336 -0.0075312555 0.10857918 0.07009588 0.20405608 0.15216292 -0.076868184 0.08317799 -0.013412423 -0.05623553 0.07443902 -0.0055113197 -0.025088936 0.04225622 0.077487186 -0.011744578 -0.18785383 0.18535793 0.038361248 -0.09172724 0.09792924 -0.12572584 -0.08108062 0.008283798 0.00090840226 -0.06863184 0.0054535395 -0.06309906 -0.06293993 0.11565418 0.08089955 0.17028847 0.19723502 0.07017095 0.032822426 0.005370874 -0.035830952 -0.007466876 0.02553801 -0.0008609064 -0.032787696 0.050776914 0.012872061 -0.15400515 0.26033103 0.06830526 -0.17164463 -0.014421087 0.09707133 0.085962914 -0.051397618 -0.0014742923 -0.013645772 -0.115567334 0.077223726 -0.014248039 -0.03219728 -0.2284695 -0.05385575 -0.119751416 -0.008907356 0.009406006 -0.028902847 -0.04100363 0.011707982 0.013309964 0.03862244 -0.019163758 -0.10615071 -0.112268336 -0.13521083 0.17765823 -0.07375986 0.03868931 0.019989325 -0.07788924 -0.012480443 0.08594427 0.06811136 0.14021015 -0.013543911 0.061606403 0.14938642 -0.067299515 0.0068410537 -0.06815354 0.08654516 -0.1489793 -0.05448945 -0.03678165 -0.054567304 -0.11242897 -0.022156332 -0.07864127 0.020662619 -0.05799723 -0.010840726 0.11711539 -0.10893352 0.079134755 -0.02515197 0.18544802 -0.10095918 -0.048671056 0.1135143 -0.10833247 -0.0525498 0.10527035 -0.140477 -0.045016617
15 0.00679538 0.06630792 0.047028836 0.06367635 -0.090684 -0.040578987 0.04833194 0.084721036 0.00011843176 -0.016282497 -0.027677823 -0.0022217925 0.119654484 0.08271509 0.22767435 0.076295786 -0.058827594 0.019091072 0.102708474 0.021749847 0.1535626 -0.009712916 0.16970468 -0.03337301 0.07595186 0.024516396 -0.045916937 0.03319943 -0.043299794 -0.023577396 0.13651153 0.0035947238 -0.06700583 0.07647934 -0.051736504 -0.1284493 0.046894882 -0.03453683 0.19081387 -0.09519932 0.0075337384 -0.008371883 0.035133712 -0.10032162 -0.08884431 0.11774247 0.09217379 0.13895133 0.0029629085 0.103772424 0.1268248 -0.12925237 0.12053559 -0.007951284 -0.037192706 0.09135261 0.09675193 -0.016289992 0.0072372667 0.097825825 0.08165062 0.07633895 -0.09529104 0.024877433 0.106011234 0.051301975 -0.04959126 -0.09177657 -0.09764289 -0.009968146 -0.020065704 -0.12533289 0.02376156 0.02935183 0.011757626 0.035676762 -0.14683796 -0.0029957904 -0.10178462 0.060085375 -0.11391073 0.13948517 0.15339649 0.0349222 0.022039441 -0.160368 0.07169637 0.03523891 -0.0965703 0.033586875 0.06041673 -0.047871064 -0.09037932 0.05910108 -0.16360162 -0.07838608 0.0027588177 -0.065977216 0.16558099 -0.0013227538 -0.007993252 0.009398166 0.07132886 0.05951055 0.04898867 0.07413727 -0.038595896 0.026699893 0.00083998387 0.014121562 -0.103189394 -0.01973846 -0.023262318 -0.06992993 -0.069827415 -0.10831877 -0.060749233 -0.14693657 0.019566817 -0.07015743 -0.118163325 -0.002502291 -0.0764962 0.027938504 0.09634907 0.12546101 -0.11030406 -0.16110078 0.07795219 0.1797253 0.09872865 0.043272045 -0.013808101 0.060867712 -0.044088528 0.004141106 -0.1758385 0.05682406 0.060331877 -0.047898076 0.05765154 -0.21215342 0.018493952 -0.04634704 0.22362746 0.002444517 -0.011681175 0.011588172 0.06305255 -0.07786554 -0.08273355 -0.10328781 0.09835073 0.24387962 0.063856095 -0.07565743 0.0007468351 0.10365205 -0.105577745 -0.040303804 0.170123 -0.27045926 -0.081736356 -0.07720769 -0.09432485 0.072199576 -0.015384502 -0.057092793 -0.19550799 -0.007256331 -0.12972876 0.0075721554 0.05651169 0.14915042 0.040541787 0.15133455 -0.010341946 0.016756125 0.09787403 -0.042095527 0.02541958 0.016703239 -0.09520037 0.05944909 -0.04204954 0.054399334 -0.10828722 -0.121082485 0.062436394 0.06066671 -0.029581212 -0.072272 0.120493814 0.012628541 0.06923436 -0.026337517 0.06667125 -0.153884 -0.229139 0.016191684 -0.014967577 0.041971255 0.0067992015 -0.105367266 -0.029066768 -0.05149627 -0.055236 0.1481259 -0.16794032 -0.041247915 0.1042122 0.11807829 -0.09206194 -0.13612133 -0.046419386 0.15281825 -0.0076397303 -0.19932033 -0.016602563 0.20663762 -0.035469588 0.0025708391 -0.11313318 0.098492764 -0.095742635 0.11228712 -0.06360517 0.01116956 0.03829568 -0.08910142 0.022223493 0.019317754 -0.16775529 0.09439838 -0.072030336 -0.0076286923 0.13646644 0.01305692 -0.017911153 -0.19857675 -0.037003662 -0.05609651 -0.15756346 0.1522321 0.008796291 0.030955004 0.025633527 0.031486932 0.04842513 -0.20109512 -0.091825366 -0.13512567 0.014464801 0.00873445 0.106950514 -0.14162557 0.13082029 0.0035388332 0.0781376 -0.050588846 0.17537951 0.006721631 -0.13129532 0.01314825 0.06752033 -0.10291914 -0.047771875 0.13454653 -0.07370467 -0.015166222 -0.0742097 -0.27974018 0.029265603 -0.067404404 -0.12291007 -0.047838807 -0.17427771 -0.011205992 -0.14099354 -0.05127128 -0.15177602 0.062160727 0.08325999 0.13025907 0.026418276 -0.038193062 0.04494995 0.011802278 0.019662328 0.15950818 -0.014644597 0.05455037 -0.07114097 -0.090047106 0.059390437 -0.10032011 -0.16548291 -0.11019204 0.017314574 0.029068613
16 -0.18415545 -0.04266946 -0.15509212 0.056439515 0.19303216 -0.043559216 -0.0834111 -0.051444042 -0.031050516 -0.07884167 -0.1594593 -0.000652064 -0.16762215 -0.028149713 -0.15076703 -0.052599926 -0.14418629 -0.1611687 -0.054035064 -0.07687758 0.020711578 -0.03647366 -0.090608515 0.11249561 -0.16158772 0.04044284 -0.03232943 0.018628426 -0.058530778 0.0009382592 0.22045754 0.06899979 -0.08806679 -0.06143759 -0.15581971 -0.08485993 0.08044299 -0.124883905 -0.1534549 -0.0065442245 -0.0046208585 -0.0033876258 -0.07888507 -0.056636192 0.04161895 0.021094818 -0.044517063 0.030233884 0.07142493 0.07277545 -0.11228623 -0.20068394 -0.056697685 -0.11414487 0.027524067 0.061733298 -0.24993135 0.059224628 0.058031965 -0.12140046 -0.07548881 0.06674555 0.058809686 0.033661824 -0.0648606 -0.008744417 -0.15638788 -0.097049914 0.023791885 -0.008404396 0.008892979 -0.113152474 -0.07726723 0.16959389 -0.0021339073 -0.020447675 -0.15172513 -0.042559624 0.01721753 -0.14481574 0.09553072 -0.12962791 0.15761138 0.029736305 -0.0868913 -0.057221327 0.12587942 0.026416868 -0.00079135806 -0.0006340211 0.116152324 -0.15728147 0.11837425 0.0018874543 -0.15844709 -0.16591749 -0.08411191 0.16804014 -0.03477641 0.006542743 0.10945253 0.015742783 -0.03783904 -0.072088346 0.058483873 0.09655041 -0.030313583 -0.096728995 0.05848743 0.14260767 0.13555561 0.10485985 0.02929149 -0.021982651 0.007242896 0.0023912657 -0.042606674 -0.0012301784 -0.06842098 0.17642288 0.10084416 -0.11539524 -0.025656553 -0.010759352 -0.0782199 -0.04936624 -0.021028573 -0.15054151 -0.12339328 0.066741034 0.0023830694 -0.031207578 -0.009102832 -0.03522994 0.014765186 -0.0414405 -0.02407564 0.051825363 0.05487491 -0.015345511 0.12011528 0.058481235 -0.10564951 -0.17559923 -0.05615808 0.05669563 0.04056609 0.13011278 0.03909646 0.037415892 0.15439838 -0.08130379 -0.11554157 -0.007391724 0.11944016 -0.034760684 0.06615662 -0.17562604 0.022391051 0.028459117 0.041140568 0.08325367 0.063809484 -0.21245076 0.12324909 0.05698468 -0.0074118543 0.06388668 0.05263308 0.0055577806 -0.07593033 0.010571799 0.060339976 0.058530517 -0.08208258 0.0033560542 -0.04169328 0.009693186 -0.07427303 0.18376881 -0.016667662 0.057928294 -7.3956326e-05 -0.073396035 -0.22857036 0.12750496 -0.0977161 -0.011767349 0.09673214 0.19280873 -0.04582279 -0.034554504 -0.05336703 0.07705534 -0.06959195 0.11234559 0.0638895 -0.02042374 -0.0052715307 -0.09209656 -0.07700087 -0.15241116 0.094382025 -0.041727725 0.04832243 0.062186353 0.050326057 0.13107258 0.011722559 0.14476112 -0.009903867 0.07287617 -0.09613206 0.074397445 0.011724857 0.024909716 -0.05513918 0.064252146 -0.09174008 -0.008043811 0.011708518 -0.077396356 0.048553053 0.028190294 -0.05783932 -0.07982761 -0.07959746 0.05514965 -0.2461981 0.20187305 0.02438051 -0.02751279 -0.24952808 0.004159268 0.030480942 -0.14575441 0.0802899 0.083918475 -0.0537144 0.060130842 -0.11027794 0.07344105 0.0955315 -0.06745068 -0.16345187 -0.17772017 0.1525802 0.05304955 0.13747008 0.013708302 0.01995413 0.021726388 0.12531476 -0.15859322 0.10107865 -0.17891037 0.05753708 -0.1158707 -0.1903225 0.0067013693 -0.15077895 -0.082824886 0.058916677 -0.08596567 -0.02770942 -0.21234798 -0.022598002 -0.03644937 -0.24886337 0.03994167 -0.010627046 0.12206948 -0.12436727 0.026393179 -0.07656205 -0.17299807 0.027359521 -0.084122635 0.16275857 0.118709974 -0.05519848 0.043607704 -0.0052108113 0.049981706 0.03643282 -0.13867286 -0.058309857 0.095072664 0.029885294 0.11689568 0.044072475 -0.09670605 -0.08015076 0.037481952 -0.096146114 -0.13995434 0.017313134 -0.18465051 -0.052800518 -0.07000841
17 0.045590628 -0.018239567 0.065025724 -0.17267007 0.01220749 0.09556952 -0.09492702 -0.15349595 -0.008486696 0.0021470864 0.14554128 -0.15759268 -0.044042934 -0.14674467 -0.15029103 -0.13035133 -0.05599307 0.07991521 0.10368305 -0.0263411 -0.08370081 0.015692364 -0.013870143 0.16260049 0.09548238 -0.020122314 0.17364624 -0.014514755 -0.033629447 0.0043950346 0.10679558 0.025327597 0.06955098 -0.052649003 0.007496388 0.05207305 0.078452066 0.14381206 0.04819362 -0.095223464 0.068230644 -0.004785633 -0.033742137 -0.17256904 -0.10644534 -0.19334842 -0.07653797 0.040138636 0.2482072 0.018719852 0.03646338 -0.039612204 -0.0008614591 0.14184472 0.06563145 -0.11823179 0.0028691778 0.036592294 0.16039442 0.096950516 0.022533473 0.012422671 0.07097913 0.012435651 0.055478953 0.007399312 0.11916683 -0.0757398 0.123119846 -0.03441353 0.08070296 -0.07638391 -0.012706026 -0.04930244 0.06733411 -0.009299341 0.062061258 0.093720496 -0.065721124 0.0012174728 -0.00651792 0.08637879 -0.052846313 -0.058225513 0.018875971 -0.009114355 0.055356532 -0.027027834 -0.052938968 0.016623512 -0.058250338 -0.012488795 -0.004863665 -0.07486093 0.002115507 -0.0050984286 -0.04691423 -0.061429713 -0.1731468 -0.08114898 -0.011151342 0.031205485 0.077633455 0.11606203 -0.07583279 0.028619375 0.17501302 -0.024480758 0.06275182 -0.034574658 -0.12991136 -0.046437345 0.1578692 0.15342271 0.17954384 -0.00042188162 0.12012504 -0.0025619043 0.049151216 -0.075788096 0.011103028 -0.014467833 0.009311514 -0.044603623 -0.07248072 0.17652115 0.059242196 -0.09485803 0.0047372757 0.004285025 -0.1947816 0.0389031 -0.058206756 -0.06433789 0.065952405 -0.0031693187 -0.13077804 0.004106737 -0.042942513 0.007929468 -0.11654559 0.05352658 0.041210268 -0.09353133 -0.056462493 -0.07282258 0.1673902 -0.0072186366 -0.1172223 -0.016817836 0.09467224 0.04733904 -0.06961626 -0.051546697 -0.2061376 0.001268715 -0.024660923 -0.016157357 -0.011384572 -0.014329655 -0.22623998 -0.017889779 0.013449262 0.0067970823 -0.11065398 0.07370898 -0.12464025 0.1162216 0.01793782 -0.012231799 0.071994185 -0.08122792 -0.03552191 -0.06366148 0.0022587557 -0.08100216 -0.20079373 0.022047449 -0.09076403 0.0009177337 -0.018571202 -0.07392051 -0.0850761 0.06484746 -0.12346001 -0.028561905 0.0019612699 -0.0032824033 -0.0083433 0.037856314 0.013198656 0.011764617 0.04434627 0.00015407783 0.18643379 -0.015260003 -0.08853219 0.15058675 0.03602333 -0.022990296 0.15615548 0.12076676 0.05441991 0.027284563 -0.026327444 -0.021137154 0.031054556 -0.119048715 -0.10896347 0.043789517 0.025409883 -0.23262484 0.001727966 -0.019543462 0.073664 0.044545203 -0.003700796 -0.09353089 0.06796246 0.025997529 0.13316093 -0.15355362 0.02049289 0.049960855 0.17546625 0.032665253 0.0648742 0.062006284 0.092995875 -0.020685863 -0.0066183377 0.048294425 -0.06749333 -0.18069567 -0.08507334 0.0656831 -0.045194793 0.14020154 -0.056733787 0.06425404 0.050540358 0.078096524 -0.06721403 0.021882247 0.006825022 0.102376 -0.072700344 -0.13517287 0.019938158 -0.0036549214 0.05163917 0.123288766 0.052434664 -0.08330632 0.15826468 0.12090144 0.036638614 -0.07720706 -0.048905518 -0.05223401 0.05425594 -0.06979758 -0.108541645 0.09422504 -0.09635605 -0.01040579 -0.006795846 0.031403366 -0.09427677 0.028461033 0.13101254 -0.09912607 -0.0014945533 0.05354704 -0.051483087 0.11608378 0.09719967 0.1571213 -0.1809864 -0.040191505 0.063901745 0.028237699 -0.036609504 -0.0037695696 -0.14935996 -0.061309982 -0.0002386629 0.16231892 -0.12006128 0.017539268 0.08331768 0.015190153 -0.13697529 -0.10441299 -0.033962004 -0.012257665 -0.07524956 -0.06852929 0.0298012 -0.023458341
18 0.12795982 0.016550604 -0.11692725 0.047927257 -0.119884044 0.018669758 0.06684114 0.008726588 0.091138385 -0.11651575 -0.12180101 -0.01646708 0.0015889826 0.10374242 -0.07902676 -0.012495673 -0.041420814 -0.09182654 0.0035033044 0.05046154 0.009837966 0.0015264403 -0.11638645 -0.07306177 -0.120860524 -0.058522362 0.09738395 0.042400748 0.10962751 0.03199153 0.015691282 0.057134047 -0.071385466 0.008805289 -0.023375768 0.107795745 -0.024454178 -0.015302483 0.068936266 0.07287823 -0.05514627 -0.06761892 0.10231294 -0.028389221 0.0022720264 0.0019101242 0.07959985 -0.04701131 -0.035341408 0.012422628 -0.054810338 0.058681235 0.04710121 -0.036986534 -0.09572529 -0.00077344873 0.0077251215 -0.0137546295 -0.11787239 -0.100168295 -0.10242825 -0.033489726 -0.038404934 0.14218287 -0.004560563 -0.0059641264 0.09831111 -0.12534936 0.054226648 -0.04980642 0.08424715 0.04796757 0.009691911 0.12872411 -0.026822263 -0.05771799 -0.054480586 -0.052181225 0.037501078 -0.067754686 0.045162216 -0.07952095 -0.13693906 0.038297668 0.0054247435 0.048778735 -0.08138437 0.006500963 0.042042594 -0.04280037 0.029961618 -0.1750668 0.13022816 -0.06501532 0.012591922 0.04659333 0.0032740305 0.0093849655 0.093685076 -0.06683107 -0.11589809 0.18104097 0.10375347 -0.020388199 -0.14240818 0.19059908 0.12210766 0.17685442 0.060401987 0.0764242 0.09061565 -0.019581301 0.0018769287 0.0043451847 -0.10272983 0.016191565 -0.1392533 0.07022257 0.0885961 -0.07004889 0.02398708 -0.089616135 0.098825134 -0.124820985 0.04238773 0.014987784 -0.038196206 -0.14989084 -0.09160336 -0.12183213 0.030187748 0.017406026 -0.075168006 -0.10280244 0.118708774 0.11274111 -0.07063334 -0.026782876 -0.07302801 0.21111284 -0.0110731805 -0.001613875 -0.020531463 0.062181316 -0.14109986 0.19408977 -0.049348805 0.06047911 0.009764271 -0.12762374 -0.03848378 0.13444145 0.04558171 0.04828929 0.051792566 -0.0944632 -0.11660668 0.04374628 -0.0047359136 -0.019903403 0.17651682 0.05319401 0.12656046 0.11426135 0.011454045 0.010178811 -0.04724232 -0.051576298 0.16926162 -0.029171573 0.012266967 -0.113806166 0.122012034 -0.050048076 -0.112707965 0.0015750604 0.04755903 0.06347037 -0.039876826 -0.057384748 0.021200178 -0.062592655 -0.042931776 0.038890235 -0.11643301 -0.073331736 -0.18264155 0.058490325 0.06194843 0.106104426 0.07199485 0.06118399 0.00787154 -0.0105876215 0.14523073 0.13667499 0.056844503 -0.07792619 -0.032497387 -0.048396368 -0.102936424 0.2177508 0.031097993 0.118104376 -0.069789454 -0.046846148 -0.14136404 0.1465895 0.093074195 0.00026525356 -0.061799914 -0.04681799 0.03145361 0.15151945 0.08510286 0.22466563 0.14050971 0.12332856 0.043357886 0.103984214 0.093299866 -0.11221401 -0.1125435 0.09013518 0.097180285 -0.020024065 0.060645573 0.11286515 0.07151115 0.0106520625 -0.09521755 0.038333397 0.045529895 -0.023581963 0.054943364 0.022115033 -0.025591178 0.027442133 0.005401582 0.11913129 -0.04850598 -0.094540894 0.024873488 0.008740052 -0.05829356 -0.10554479 -0.055317596 0.15186685 -0.047160864 -0.07199958 -0.2288205 -0.037816174 0.05017015 -0.071144104 -0.028201055 0.0042753806 0.07681384 0.07500531 -0.08262459 0.12929687 -0.091895714 -0.12722811 0.17010756 0.24641152 -0.013238704 0.11813013 0.12354711 -0.09132252 0.015926369 -0.09934986 -0.072906196 0.12587082 -0.010009718 -0.1489051 -0.04118746 -0.0051350556 0.03353609 -0.0490922 0.0772252 0.020020792 -0.039276846 0.12430786 -0.06268447 -0.057520673 0.070295684 -0.037031133 0.039342187 -0.19113459 -0.0141768595 0.0490676 0.079113714 -0.0741845 -0.08573914 0.09886482 0.086089686 -0.006142881 0.01998878 0.08809079 0.09144955 0.13033728
19 -0.080386676 -0.050863527 0.16240776 0.14431807 -0.22549057 0.14487141 0.1801273 -0.092589416 -0.14329231 -0.021248834 0.10043044 0.046130817 0.05277227 0.01314769 0.09735088 0.11506307 -0.12123439 -0.10384356 0.069039464 -0.069265395 -0.06249188 0.18125856 -0.15788382 0.064473495 0.06992226 -0.008184592 -0.17578498 -0.20485823 0.09253302 -0.024701472 0.12578788 0.14223982 -0.10561847 -0.044662386 0.08579063 -0.14372376 0.11495482 0.058350973 -0.028189579 0.07645549 -0.024213577 0.12037281 -0.058991484 0.16920713 0.01130687 -0.055395912 0.06124156 -0.168063 -0.016949574 -0.07253111 -0.04651119 -0.10338935 -0.10120704 0.006670892 0.031013262 0.052477002 0.08375052 -0.06258541 0.0150353685 0.07046441 0.1000924 0.13757645 -0.040003043 0.046006087 0.007607665 -0.008186626 -0.18081181 0.015788343 -0.019847782 -0.11141835 -0.109906875 0.06772832 -0.103847094 -0.1305858 -0.03000989 -0.0035257484 -0.008057805 -0.0881642 0.026049752 0.011822489 0.023015546 0.020333871 0.029025694 -0.088816784 0.10676641 0.11038827 -0.018065536 0.08861338 0.041942406 0.059421517 0.08074791 -0.13288593 -0.05613649 0.07309568 0.020863967 0.015354083 0.08321995 0.035572942 0.07360203 -0.07772964 -0.03909334 0.0019447542 -0.038583968 -0.10783499 0.062352657 0.06545451 -0.077102296 0.0077879797 -0.06204946 0.06840749 -0.0072355303 0.019613741 0.15407689 0.056023706 -0.0057105613 0.087738685 0.0076608346 -0.13358456 0.26606587 0.047597915 0.095442824 -0.017356502 0.07990913 -0.022749577 0.103506975 0.104745686 -0.0140428785 0.0017182728 -0.008418034 0.035814047 0.12807687 0.0014666523 0.01492149 -0.0024352707 0.1744285 -0.008541765 0.015914619 0.047952406 -0.0071286266 -0.19546437 -0.14226834 0.056425814 -0.08298412 0.16697216 -0.013497984 -0.0045106327 0.013881376 0.00015332515 0.10581739 -0.2264031 -0.04583898 0.051526554 -0.09358368 -0.12935625 0.10749457 0.037942372 -0.0670472 0.13825744 0.027287178 -0.090737045 -0.038176164 -0.0029255701 0.10146059 -0.018974535 0.07815763 0.1269106 -0.11284439 0.10203338 -0.03606069 -0.09713647 -0.107674554 -0.12673806 -0.1193106 0.03822197 -0.01835665 -0.10987963 -0.018946718 -0.045374412 0.016203376 -0.055738494 0.06133446 -0.0059156558 0.07529261 0.04837003 -0.025282767 -0.055316955 0.1902954 0.11116415 -0.156063 0.07628792 0.051510196 -0.114208475 -0.078661 0.014865855 0.025375616 0.030161927 -0.09660577 -0.045237493 0.0023324017 0.030416125 0.030954255 -0.024729766 -0.018608421 0.084048666 -0.08780624 0.015351266 0.090416856 0.06684766 -0.039692793 0.007120516 -0.0686791 -0.12753063 0.04023209 -0.06298383 -0.034330532 0.1547403 -0.06489795 0.0300709 0.076594345 0.0067073302 -0.031003028 0.16511314 0.11641664 0.048111226 -0.13956282 0.021688493 0.035018343 0.19538294 0.05484847 0.12057014 0.08046932 -0.104889356 -0.05899073 0.004568158 -0.06616842 -0.10133531 0.14595322 0.061033163 0.03302895 -0.07348679 -0.021555109 -0.07622894 -0.0466698 0.088839605 -0.017473994 0.016085992 -0.08514195 0.005946309 0.12289349 0.09414037 -0.0069772415 -0.016829038 0.04116446 0.07303056 0.016631227 0.037556708 -0.12776633 -0.07053754 -0.07646885 0.065627344 -0.013797331 -0.12639275 -0.058845542 -0.084810354 0.13790189 0.21081913 0.010226248 -0.05392039 -0.10951484 -0.0032690433 0.0340482 0.00067597686 0.1531692 -0.032816723 -0.01774711 0.039544135 -0.067720376 -0.024520783 0.074771665 -0.03891675 0.0041148043 -0.11031002 0.09931815 -0.011969852 -0.017777082 -0.12028361 0.107407495 0.052906092 -0.08317389 0.0056624357 0.23731014 -0.07490832 -0.041019067 0.117255144 -0.060985353 -0.15228528 0.059307326 -0.049362183 0.10596783 -0.0025543056
20 0.062227562 0.008270479 0.05408564 0.16356018 0.13917893 0.008455084 0.052526634 0.084801555 0.03473019 -0.050221797 0.08663232 0.14848371 0.0018289353 0.04301345 -0.17511758 0.0724393 0.08136084 0.081816435 -0.11769751 -0.14659391 0.16042915 -0.05816094 -0.0287226 0.0007202716 0.04849605 -0.09347878 0.016441105 0.105893515 -0.1714804 -0.046252843 0.015981507 -0.035884734 -0.08456911 0.046803057 -0.009768221 -0.10348779 0.004161291 0.11074033 -0.08493853 -0.019753158 -0.15514717 -0.031363178 0.12854818 0.06186572 0.05712176 -0.014577993 0.023007397 0.04923451 -0.10110732 0.113399975 -0.037721943 0.038439352 0.05097693 -0.025368795 0.04890029 0.06370152 -0.076290645 -0.075303346 -0.008484545 0.034004755 0.14017504 -0.00927669 -0.1251316 0.17800646 -0.024806824 0.19261816 -0.028443187 0.08843254 0.08539152 0.07668277 -0.048324104 0.06553194 -0.015959047 0.049965695 -0.00756036 0.10685101 -0.00610655 0.073373295 0.06977658 0.050780226 0.138985 -0.010301762 0.030198272 -0.044955216 -0.07689278 -0.113340735 0.1050509 -0.0032583722 0.004117804 -0.10279324 -0.21167299 -0.039610934 -0.009739721 -0.011211175 0.024053188 -0.020324104 0.054126028 -0.004159896 0.009073376 -0.036667746 0.06395998 -0.013398831 -0.011965172 0.03666436 -0.1456855 -0.080054685 0.07604412 0.08120946 0.025742043 0.043497562 0.048153687 0.026708627 -0.087758616 -0.16934936 -0.11269453 0.104745045 -0.013884791 -0.025275476 -0.013224075 -0.06709701 -0.03292163 0.12951005 -0.08588655 0.028366541 -0.08792569 -0.03371577 -0.036796317 -0.039621346 0.0887279 -0.12278452 -0.0037072045 0.06937501 0.017938135 -0.01946331 0.14201756 -0.104747824 -0.04746033 -0.061868444 -0.114371404 0.013039952 0.095262714 0.06389469 0.029983815 0.05203431 0.012821953 0.019546311 0.019063074 0.0020760105 -0.011596587 -0.023815254 -0.008475645 0.057823572 -0.023633061 -0.07299974 -0.041325316 0.04190179 0.04711496 0.066346414 -0.012089845 0.040037375 0.079644516 0.08976423 0.048566688 0.081048325 0.0054723565 0.11423913 0.1626116 0.036813594 -0.009102894 0.0730983 -0.0005733826 0.07293833 0.16236676 0.15915792 0.13813856 -0.011230562 -0.2049854 0.05211609 0.089975566 -0.030351557 -0.0868833 -0.085615546 -0.10445387 0.03486484 0.038284738 -0.026743818 -0.023867168 0.036333658 0.09268256 -0.15607539 0.019531885 -0.07269771 0.055096675 0.13252296 -0.018750291 0.00022990089 0.2103193 -0.15586448 0.15786253 -0.06576123 0.06107384 -0.07795596 0.06617258 0.041912332 -0.03396035 -0.108586945 -0.13864787 -0.07360031 -0.10724613 -0.07225262 0.006296237 0.11792965 0.06604001 -0.0032883922 0.060666155 0.021104258 0.05660495 0.07176727 0.069420785 0.076286584 -0.0956298 -0.13441995 -0.13391505 0.079652674 0.086116016 -0.07221132 0.0400292 -0.075743124 -0.059179325 0.13343118 -0.066305034 -0.005974342 -0.086255915 -0.015297887 0.14672565 -0.084374785 -0.010559509 0.09020831 0.008346507 0.065714926 0.057876848 0.019219907 -0.068069525 -0.0029697628 -0.11334784 -0.031965025 0.04360626 -0.09178473 -0.04520988 0.09500903 -0.030203452 0.032930817 -0.06451332 -0.14668965 0.08539281 -0.10395601 0.019145196 -0.075595066 -0.014121936 0.17817788 -0.1640717 0.0856969 -0.08704563 -0.10094049 0.015338107 -0.012258847 -0.07286738 -0.02899755 0.102844045 0.032452144 -0.0010667746 0.09338195 0.15740669 -0.09863553 -0.0161457 -0.10781374 -0.07344054 0.1808443 -0.050540205 0.10560462 -0.012605836 0.0010858448 -0.06769598 0.10460251 -0.06757926 -0.06897382 0.035395116 0.1289223 -0.027279476 -0.14419283 0.17368555 -0.17262387 0.12048579 -0.17303188 0.039072625 -0.007973562 -0.07487658 -0.09918103 0.003898549 -0.028783264
21 0.016553476 0.03339799 0.0663023 0.030006025 0.052228287 -0.002004742 -0.09104348 0.09291526 -0.17315553 -0.042103384 -0.09557371 0.017529108 0.11880861 -0.19087443 0.112979874 -0.034433465 -0.060898792 -0.092179246 -0.09722533 -0.11937638 0.19062832 -0.14815553 -0.12042481 0.013643868 -0.13744034 0.10121518 0.10027938 -0.04025632 -0.028605863 -0.064989865 -0.15032156 -0.018276075 -0.016028663 0.046466943 0.009724551 -0.0799856 0.004048593 0.015223085 -0.0986951 0.033553295 -0.050830927 -0.21044911 -0.16303496 0.18525717 -0.05523212 0.004489847 0.25049558 -0.14590204 0.004598719 -0.059227202 0.109871894 0.11985929 -0.09982206 0.109466776 -0.035121545 0.07022655 -0.118140124 -0.13038923 0.11010634 0.15713033 -0.021643505 0.10124218 0.042482436 -0.025667151 -0.1215102 0.02054487 -0.06826785 0.057561517 -0.062781714 0.059392545 -0.043719888 -0.043085124 0.038580984 0.14984255 -0.08012238 -0.18551894 0.018259548 0.11697181 -0.061392833 -0.03708978 0.011329434 -0.043256003 -0.005022519 0.038585737 -0.032780875 -0.040490884 0.07276643 -0.20855562 0.026735073 0.052008696 0.022383379 0.03575548 0.010864063 -0.02478248 0.049472917 -0.068024024 -0.09480491 0.10294485 -0.06409356 0.124381945 -0.028544977 -0.017357228 -0.020507773 0.0059599327 0.10881028 0.058075976 -0.01775861 0.023761505 -0.00699605 0.0028134896 -0.018895207 0.04807446 -0.03258162 -0.11326601 -0.1775051 0.04394734 0.07513242 0.048911076 -0.07015859 -0.07505364 -0.036479317 0.016962852 -0.06964258 -0.024348946 -0.058612864 0.1165629 -0.061744392 -0.0980785 0.08615587 0.024489295 0.024584435 0.089389116 -0.0056677856 0.10365147 0.046914242 0.08817506 0.009155334 -0.025131935 0.07776596 0.010962948 -0.095417686 -0.0025960673 0.113719635 0.13765259 -0.0910913 0.005315841 0.15120193 -0.13218406 0.02877625 0.08066675 -0.1700165 -0.032429297 -0.07749809 -0.03134319 0.11286336 0.034115512 -0.105111904 0.093515225 0.08956429 0.17803219 -0.11946366 0.019883987 0.087139666 0.16384232 0.03955043 -0.15829267 -0.06280569 -0.09435173 0.021035496 -0.092868134 0.19048941 -0.1385711 0.001595182 -0.15792184 0.104447424 0.030417893 0.061265886 0.059371114 0.06681051 0.10520619 -0.05950959 0.007478514 0.026344057 0.11903601 0.06483472 0.059788704 -0.057764616 -0.020982878 0.030412428 -0.015038125 0.041500177 -0.020060834 0.0038816815 0.07116147 0.02334512 -0.037466917 0.09497907 -0.09798615 0.00024326138 0.15156764 -0.079282716 0.14332415 0.11033495 -0.024930073 0.025737407 0.08170817 0.002994353 -0.13632245 0.2015647 0.024772743 0.045319922 -0.2313881 0.085879475 -0.14662293 -0.18478762 0.036471132 0.035901554 0.22884427 0.016224299 0.03136068 0.035021964 -0.014392687 -0.09153751 0.13389306 0.01632835 0.118350886 0.014560049 0.043444578 -0.18516548 -0.12929812 -0.0031545924 0.030978538 -0.13269074 -0.033150665 0.026458496 -0.24829546 0.076250225 0.06345232 0.0050692805 -0.10554511 -0.111076444 0.0011068893 0.07298694 -0.15385908 0.03667295 -0.00070462876 0.13240965 -0.13059302 -0.03256342 -0.15018149 -0.036139917 0.06467968 0.034398783 0.06258188 0.06759899 -0.23396118 -0.11112154 0.2540263 -0.2293053 0.028961865 0.09669468 -0.00837581 0.1484881 0.0853291 0.02669231 0.018440748 -0.06646474 0.031767484 0.03683112 0.07992193 0.13306999 0.07053191 0.09229037 0.06306513 0.061990783 -0.0024657114 -0.08898566 0.057357233 0.032886967 -0.0013618582 0.15485512 -0.1625612 -0.076076575 -0.021429347 -0.071214385 -0.006452886 -0.1566909 0.19601354 -0.040390316 -0.016469792 -0.11314224 -0.06462034 0.07140217 -0.03489185 0.10968598 0.00980273 -0.21094333 0.10596188 -0.022183206 -0.06809604
22 -0.12587 -0.059065524 -0.09862494 -0.0058533093 0.023342224 0.104814544 -0.030631103 -0.09054723 0.03025142 -0.01648313 -0.065553986 -0.008508333 -0.091930926 -0.08330433 -0.041270252 -0.023783233 0.1230437 -0.11734725 -0.038695842 0.005887338 0.0507831 -0.098092414 -0.07629119 0.010027165 0.049687427 0.054003805 0.010266237 -0.065826535 0.15333615 0.03498687 0.010611488 0.07863689 0.17156161 -0.049444042 -0.09230304 -0.010568911 0.07853955 -0.05931661 -0.1059 0.020857316 -0.09145675 0.10885676 -0.13418429 0.008076938 0.114146434 -0.08978649 -0.0126645705 0.0045404555 0.025010318 -0.087997176 0.10520285 0.050652493 -0.013482274 0.04098052 0.062035274 -0.09380793 -0.019207465 0.00024495623 0.046925146 -8.411735e-05 0.030869503 -0.06329756 0.10489863 -0.030776538 -0.027005222 -0.0010376106 0.07209434 0.00071940303 -0.07766985 0.0636212 -0.07088685 0.16916795 0.011147933 -0.047765117 0.056721725 -0.0863636 -0.07341159 -0.037340425 0.033675466 -0.13172148 -0.036175795 0.01900743 -0.127778 -0.00898299 0.06155851 0.045998655 -0.022663545 -0.064847074 0.07500596 -0.08442304 -0.01200364 -0.08618579 -0.01319621 -0.017260846 0.06515666 -0.052415676 -0.06799477 -0.020013202 0.010326922 0.02171669 0.11684366 0.026045052 -0.011593898 0.0029675683 0.040767502 -0.021655269 0.044936556 0.039986115 0.030488752 -0.08917072 -0.029358039 0.13617545 -0.11240092 0.033208735 0.01962091 0.063172914 0.034318216 -0.03178101 0.026557093 -0.06955973 0.05550985 -0.01848169 0.0008120874 -0.07659252 -0.11536569 -0.041827705 0.099067524 -0.07086126 0.088695504 -0.12115183 0.08345063 0.0093137575 0.07039585 -0.027757503 0.061875716 -0.0796552 0.031330332 -0.08667423 0.059423245 -0.122764535 0.011950796 -0.029281242 0.13761808 0.011353166 0.039567947 0.057181504 0.00306582 -0.0432085 0.031504888 -0.15294516 0.089973666 -0.08656408 0.10857007 -0.008176094 0.035636835 -0.03491071 0.028785847 -0.02481102 -0.102320686 -0.051235747 0.03269786 0.004666251 -0.022141686 -0.08780194 0.09000656 0.051163692 0.032931507 0.018040773 0.07196225 0.044950966 0.09795876 -0.19882852 0.0061890567 -0.025557512 0.028979883 -0.07735326 -0.066389106 -0.016165065 0.07612157 -4.3778764e-05 0.22335653 -0.14554487 0.09261266 0.15090954 -0.019114293 0.0017408631 -0.019508317 0.14857015 -0.07529707 -0.08175851 -0.14646806 -0.017610759 0.01033271 0.042404115 0.0639638 0.0716952 -0.12280089 0.16090322 -0.017835226 -0.077396534 -0.08873501 0.04922428 0.08366959 0.11921177 0.14905652 0.103520274 0.060656134 -0.07435245 -0.11551031 -0.09752621 -0.08548995 -0.0575136 0.029939717 -0.015971493 -0.12630837 -0.0038328243 0.05500683 0.101390064 -0.01835053 0.10371929 -0.020815762 -0.115943655 0.02562089 0.012489992 -0.039561514 -0.09425441 0.14727734 -0.09200713 -0.021671608 -0.0043287138 0.09680436 0.04911877 -0.17781237 -0.10369041 0.00978501 -0.011645274 0.1267038 0.16716091 -0.061943058 -0.09603248 0.0752953 -0.13505025 0.13650522 -0.09219453 0.040934447 -0.14364468 0.013551444 -0.08004646 -0.05546162 0.011149826 0.0054067383 -0.05050915 0.013568039 0.011170901 0.05470943 0.0146606015 0.10264386 0.12549359 0.027673474 0.101410605 0.14126651 0.005143543 -0.059754826 0.015286088 0.043318745 0.004251039 -0.05388025 -0.063926786 0.017194944 -0.07962212 0.005479785 -0.050286304 0.039136976 0.00858366 -0.13476777 0.038758885 0.11611801 -0.010583281 0.07024053 -0.0012521917 -0.031663824 -0.10701493 0.041109692 -1.4135473e-05 0.019839626 -0.044619426 0.0605479 -0.14677893 -0.10574034 -0.025594499 0.056673687 0.032748427 -0.037001334 -0.083780505 -0.029763713 0.121933445 -0.017528405 -0.018833898 0.083653815 0.093855284
23 -0.0036705395 0.10421215 0.032688674 -0.14199409 -0.017434431 -0.056279097 0.031343237 0.047455262 0.041062288 -0.0041278396 0.13824342 -0.10015614 -0.17007424 0.015364088 0.07458106 0.004279221 -0.0001142458 -0.25166285 -0.04192919 0.13795954 0.057803493 -0.21227793 0.08862051 -0.210107 -0.09938381 -0.14861815 0.14151663 -0.036871728 -0.14478128 -0.03069607 -0.14848457 -0.15383106 0.010193926 -0.08547958 -0.09334727 0.08513159 0.049399924 -0.04727522 0.21249057 -0.03671443 0.05183365 0.15315065 -0.16764875 0.014823743 0.07873495 0.048502535 -0.023208473 -0.17130148 0.21924387 -0.08954215 0.03953987 0.02618904 0.03793004 -0.019442447 0.030493334 -0.07711408 -0.050835747 -0.016094008 -0.03992006 0.026419727 -0.13314204 0.10031483 0.043160837 -0.12239238 -0.007892475 -0.12579677 0.030477745 -0.0060372157 0.17199844 0.034692083 0.010673424 -0.009336048 0.052181374 0.010663893 0.115627885 0.12112448 0.0072168945 -0.064233884 -0.20416711 -0.028866153 -0.054751847 -0.05717414 -0.13180494 0.1381248 -0.098792225 -0.046854798 0.0564299 -0.05126007 0.06594484 0.060515653 0.108078234 0.052383687 0.16680162 -0.06135269 -0.052176394 -0.05321228 -0.031209156 -0.030678362 -0.075392365 -0.0057068253 0.019061977 0.073189534 -0.015307697 -0.09729388 0.15580943 0.13453594 -0.025154844 -0.12455514 -0.19512612 -0.07381371 0.11748577 -0.098233335 0.038840294 -0.0006026753 -0.14213455 -0.00051615824 0.18397062 0.17985296 0.04094106 0.06854009 -0.000529474 0.057610363 -0.06765115 0.020521713 0.14780377 -0.013520609 0.06366726 0.10045105 0.0041016885 0.034137562 0.18942308 0.010359638 0.073180944 0.0029150662 0.018985271 -0.09822277 -0.0064938855 0.043419674 -0.018960016 -0.016558718 -0.1440679 0.076207794 0.026325516 -0.041524813 -0.10943643 0.026968377 0.05908027 -0.09466373 -0.05060541 -0.053956494 0.093188696 0.006970497 -0.077891506 -0.0035085636 0.028592214 -0.19315241 -0.02327013 0.14218502 -0.037677616 0.025071362 0.039748814 0.11248816 0.06582396 -0.013836178 0.044123407 -0.15485537 0.04761576 -0.09332646 0.09233716 0.026361799 -0.04548272 0.09388293 -0.008016324 0.2243058 -0.14454703 -0.11212886 -0.16315901 -0.17532551 -0.00594907 0.111248076 0.003973202 0.0668408 0.17903855 0.19313489 -0.027518116 -0.12605429 -0.014136717 -0.14060932 0.01015733 0.062325846 0.053357124 0.039402388 -0.20272122 0.16213942 -0.01299741 -0.13824792 -0.022449408 -0.081539154 0.012076742 0.0682376 -0.021366872 -0.119523965 -0.036191095 0.11794606 0.10382188 0.055649735 -0.05030671 0.08409075 -0.046038937 0.18299362 -0.06680919 -0.025812691 0.019349456 -0.07333988 0.0026716688 -0.065697 -0.03192681 0.0790921 0.029282456 -0.042053137 0.20333035 -0.09760013 0.012422078 -0.057925828 0.1704226 0.08529786 -0.092120625 0.24092211 0.06982968 -0.15820715 -0.12571515 0.103222296 0.17690061 0.045443036 0.052526303 0.04257847 -0.038189813 -0.10586307 0.011100762 -0.002312728 0.30309257 -0.13686503 0.10296129 -0.09984352 -0.04308604 -0.004629543 -0.15574539 0.0631527 0.059187815 0.00031616073 -0.025193742 0.013515333 0.18740061 -0.0008333526 0.0685515 -0.054879855 -0.09398835 0.10450579 0.12000234 -0.035646748 -0.037125386 0.008572407 -0.03496529 0.00933015 -0.07394916 -0.048454817 -0.07447822 -0.10455257 0.12673146 -0.03615319 0.008099522 -0.011046259 0.019348888 -0.039786566 0.09058487 0.041995715 0.06818981 -0.20068543 0.05618517 -0.012065617 0.045625385 0.050502278 0.115591235 -0.013341585 0.042824455 -0.046166148 0.12459083 0.047236953 -0.014786584 0.09213291 0.14332397 -0.09000739 0.06579856 0.15661016 0.08128078 0.05620668 0.011451523 0.0027122507 -0.039053194 -0.021300398
24 -0.027635647 0.03702801 0.02982675 -0.06950111 -0.03365527 -0.09959271 -0.053167604 0.036040314 0.13432316 -0.04144496 0.09681685 -0.1035807 0.019045971 -0.058449622 0.09068077 -0.06590037 0.0065182666 -0.05100733 -0.07875737 0.056907583 -0.04452467 -0.038663484 0.0323765 -0.016246492 0.03325118 -0.03532965 0.074840985 0.11292725 -0.052420385 -0.047596134 -0.031449407 0.09150672 -0.0992977 -0.0024250643 -0.041754946 0.017831767 -0.0017411078 0.054690573 -0.0042065037 -0.0038518691 -0.011633905 0.06975308 -0.005357006 0.15136081 -0.13607134 -0.09517255 0.10880121 -0.018039156 -0.03531212 -0.008566292 -0.0026201599 -0.016860966 0.15439989 0.09622054 0.013950103 -0.02381803 -0.003374382 0.07498449 -0.0017982388 -0.010209696 0.109356314 -0.08655115 0.10502939 -0.08485833 0.10952917 -0.081010185 -0.04749137 -0.04476621 0.021827072 0.0858082 -0.03200677 0.084640056 -0.08644066 -0.0048439205 -0.09793546 -0.03454415 0.054178134 -0.05522233 0.04359913 -0.062417213 -0.0699828 -0.01742965 0.115575574 0.11875206 0.015629109 -0.037993506 -0.029099919 -0.06584849 -0.010162153 0.005321958 -0.036855906 0.032370433 -0.07943998 -0.11579821 -0.0020027354 0.063920505 0.03600292 0.055061374 -0.02723505 0.024924101 0.073799275 -0.05418168 0.07029225 -0.19456388 0.001991917 -0.11254459 0.05484659 -0.0609233 -0.03562331 0.09251308 0.05736183 -0.03862908 -0.008816351 -0.006190123 -0.0022433938 -0.044348717 0.027506348 0.10381408 0.11453104 -0.0009030118 0.016084231 -0.039976325 -0.02845946 -0.118467264 -0.22905022 0.15010406 -0.03723612 -0.061964706 -0.08437649 -0.12753196 -0.08266132 0.03585551 -0.08005591 -0.012027804 -0.054632165 0.017266775 -0.072836146 -0.22070862 0.008856859 -0.0140442 -0.07216992 0.0016521801 -0.09070622 0.062285285 -0.0018408401 0.06854457 -0.10927139 0.018503511 0.010569393 -0.03211182 -0.04664536 -0.07345182 -0.0880459 0.074241735 -0.045096476 -0.010201829 -0.10060883 -0.011031705 -0.16257332 -0.074878566 0.068440974 -0.02643754 -0.029589029 -0.18908982 -0.039858576 0.09987444 -0.069406845 0.008173306 0.024079494 -0.05114009 -0.012174015 -0.119764656 -0.069618136 -0.0069342125 0.011959686 0.06113231 0.058385953 0.106873885 -0.05555868 0.07208576 0.11282965 0.122244075 -0.022822816 -0.018070526 0.06271804 0.050706957 0.037870828 0.25049192 0.009564338 0.0060265716 0.17328604 0.020294843 -0.039135005 -0.04673491 -0.07016017 0.00798393 -0.06180875 -0.016825335 0.071010634 0.04603537 0.020059759 -0.030897366 0.07285173 -0.07145656 -0.06421616 -0.017418666 -0.12476042 -0.015065064 0.11025294 0.04185372 -0.07305536 -0.08993566 -0.037432797 0.050421283 -0.02859048 -0.039628867 -0.038130604 0.027172087 0.011828198 -0.034534574 0.08368877 0.09747527 0.07297415 -0.023492252 -0.04964983 -0.041821275 -0.013345439 0.060237035 0.06403127 0.052262302 0.054436076 0.123178355 0.050727703 -0.088554285 0.0066798073 -0.034780335 -0.07597513 0.16248415 0.031504903 0.012018466 0.045830145 0.02380235 -0.068742365 -0.07624765 -0.06547173 0.12472464 -0.01472217 0.0277215 -0.19753401 -0.022800634 0.08905473 0.052446935 -0.030962713 -0.028707784 0.06502339 -0.10621995 -0.047304858 -0.07764791 -0.17033017 -0.008239486 0.028214294 0.21094956 -0.022703554 0.10031851 0.029728247 -0.025798412 -0.06287192 0.0069789817 0.005577792 -0.073266484 -0.0006766822 0.08173237 -0.0018107757 -0.09543588 -0.04138959 -0.04213119 0.036134604 -0.08396646 -0.09464326 0.004284379 0.10880175 -0.090680264 -0.051507004 -0.08116679 -0.050636057 0.020304268 0.016658634 0.0101912245 0.0628478 -0.039501045 -0.13761823 -0.021034094 0.151595 -0.06093729 -0.06886829 0.018913055 -0.12545906 -0.023109911 0.06571126 0.011550564
25 -0.19310544 -0.06616268 0.010372695 0.12858237 0.05039813 0.078060485 -0.09047754 0.07291324 -0.13076293 -0.052761994 -0.16388936 0.13855775 0.053218704 0.07848919 -0.0062399097 0.027605997 0.016048657 -0.07233086 0.0020910033 0.20116116 -0.11763442 0.024143454 -0.045993585 -0.113413826 0.062056277 -0.042295605 -0.12642412 0.076193266 -0.050991654 0.012482935 0.15065348 0.077111706 0.0619056 0.11592914 0.0512798 0.010834349 0.031634297 0.07642339 -0.02259916 -0.24214974 0.032137066 0.011190484 -0.034608446 0.038722914 0.087465525 0.029005047 0.10634402 -0.059316248 0.11697979 0.017645368 -0.04700649 0.10465167 -0.014839669 -0.049135458 -0.075653404 -0.04797741 0.07733695 0.04559974 -0.16743268 -0.004274743 -0.023514116 -0.011608689 0.08492241 0.018350521 0.06288223 -0.03210624 -0.12075055 -0.09527192 0.07424095 -0.010611273 -0.085125275 -0.00220418 -0.010818913 0.063236676 -0.024804624 0.07997061 -0.0010225209 0.054327708 0.035621565 0.054710183 -0.1471432 -0.11830258 -0.14885089 0.054300863 0.14692643 -0.09123519 0.066852 -0.05811813 0.032584235 -0.0654988 -0.030561581 -0.07167968 -0.030758033 -0.01738891 0.033079162 0.08972082 -0.04813273 0.0439816 -0.023731576 -0.029384725 0.055796035 -0.040879305 -0.008561254 0.102316424 -0.059370767 0.076567575 0.040117085 -0.026434852 0.08292333 0.02102569 -0.21455482 0.054045893 0.104016386 -0.045990426 0.082102366 0.08113803 0.066265136 -0.057022147 -0.1582488 -0.010109746 -0.11405042 0.07760196 0.15482542 0.04170872 0.1696799 0.045165386 0.111015566 0.022156462 -0.032426655 0.15854122 -0.03114954 0.0881363 -0.028017338 -0.1339323 -0.21530564 -0.021925526 0.018636683 -0.080895245 0.024330327 0.1706154 0.09042128 -0.01357873 -0.15181883 -0.014754823 0.013008253 -0.07256543 0.044040218 -0.06036342 0.09059876 -0.050896734 -0.006705677 0.020908885 -0.05428536 0.0015905516 -0.003790626 -0.0648671 0.074434645 0.01419 0.055876926 0.17529108 0.052172154 0.13500251 0.107658796 0.21456331 -0.054170165 0.016965441 -0.043975867 -0.061212663 -0.08603509 -0.0008690339 0.2071817 0.00832661 0.13740428 -0.09097073 -0.0422349 -0.0039106454 -0.027059035 -0.019879125 -0.02392139 0.15160057 -0.03703056 -0.03731948 -0.045379817 -0.0030496703 0.018167766 0.06766332 -0.113666646 0.0354657 0.021612937 0.11243654 0.09910276 0.21713969 0.09015451 -0.014445269 -0.0016020978 -0.078797735 -0.12042998 -0.06143562 -0.026263183 0.14291799 -0.097385116 -0.01657693 0.19597228 0.05652115 -0.017540038 0.18787082 0.088495515 -0.024040807 0.02604349 -0.017467046 -0.05719128 -0.025971036 -0.09453374 0.079021774 0.067061976 -0.09423438 0.028585374 0.08621358 0.029412242 -0.049550585 -0.008495466 -0.13069269 -0.021869918 -0.0051944996 -0.08355734 0.088187665 0.024115596 0.0029935853 0.0042947186 0.04795657 0.13063627 0.13512796 -0.18954417 0.08242362 -0.12589875 -0.10771473 -0.1365345 0.0049158162 0.18025427 0.0049174265 -0.08143658 -0.2318696 0.018862588 -0.1260407 -0.009913688 0.11656722 0.082751766 -0.05388998 0.025782 0.11343368 -0.035951246 -0.021931661 0.074639685 0.02827717 -0.00821299 -0.0354105 0.0070127435 0.0069794618 0.121926665 0.015177423 -0.09459933 -0.027907731 -0.085363194 -0.011313787 0.10941771 -0.040468425 -0.11687223 0.11420073 0.009228731 0.02708144 0.022908932 -0.09163612 0.000478408 -0.123752475 0.05024325 -0.19997652 -0.08360877 -0.009479847 -0.032429382 -0.017971521 -0.042795353 -0.009378998 0.09251329 -0.037732087 0.062566206 0.03251228 0.022097703 0.018388662 -0.14903103 -0.103725284 0.05068324 0.0028806971 -0.03809591 0.116129756 -0.17294186 -0.08528615 0.06459752 0.079050705 0.023864068 -0.15957564
26 0.027856493 0.08175993 0.09613504 0.038669836 0.10779832 -0.0857144 -0.0349777 -0.039185625 -0.085270494 0.096156456 0.102473356 0.12414795 0.059785392 0.04738963 0.111041315 -0.07934542 0.012252546 0.041542146 0.12822205 0.06097895 0.11280883 -0.036048476 -0.055050034 0.049397077 -0.0951911 -0.13215001 0.0058626235 -0.0013602586 -0.12326532 -0.04485993 -0.19506787 0.031745557 0.08197529 -0.12064241 -0.13399433 -0.19962388 -0.09397596 -0.039205637 0.08152637 0.0076522953 -0.046003506 -0.09460066 -0.01124397 -0.025471702 -0.06144978 -0.20041193 0.03911639 -0.05380483 -0.013589319 0.019870529 -0.014728168 0.021011516 0.14744104 0.042464342 0.112540774 -0.18094702 0.08132733 0.08673505 0.009107212 -0.24122308 -0.12313186 -0.18911184 0.028351547 0.02325923 0.1682063 0.052659243 0.04897848 -0.09569506 0.0363629 -0.001378645 -0.0052284165 -0.04232716 -0.051799756 0.06784737 -0.06533528 -0.14844513 0.022102168 -0.177817 -0.041109595 -0.11359157 -0.089707956 0.14566071 0.07596181 0.132926 -0.06775652 -0.07983965 -0.008767434 0.12680611 -0.037393417 0.0681065 -0.029206505 0.014370851 0.021526752 -0.089281626 -0.055642385 -0.0817601 -0.21867082 0.035472665 -0.032965675 0.18762414 -0.08319285 0.08727401 -0.15210427 0.038210563 -0.0031274632 0.008355939 0.07549145 0.08451243 -0.024217317 0.121218845 0.061735738 0.062616505 -0.09946739 -0.09863835 -0.056350064 -0.034742914 0.014305293 0.002127373 0.05751552 -0.00097319996 -0.19972093 -0.043850616 0.009419568 0.14567496 -0.20936042 -0.066773385 0.1348713 -0.1790459 0.12519963 0.12822165 -0.023537688 -0.06904021 -0.033113305 0.04517253 0.08334445 -0.10632678 0.05906168 0.014336437 0.102508806 -0.061939165 0.05227332 -0.053398967 0.058303032 -0.071944594 0.16046023 0.037744228 0.10753129 0.117232665 0.029919146 -0.08470818 0.011547252 -0.05062513 0.16093063 -0.13477048 0.037023135 -0.025656166 0.14127748 0.04685852 0.15566702 0.11166167 -0.041994557 -0.12666309 0.01541198 0.0035906064 -0.07702322 -0.033684272 -0.03966012 0.1573236 -0.11640181 -0.06111567 -0.044840943 -0.04594139 0.20009539 -0.21138193 0.023904838 -0.0020888725 -0.19166385 0.0035837097 0.071337566 -0.043554623 0.12259356 0.0044519817 -0.08493124 -0.19346248 0.12804471 -0.06090252 -0.07727418 -0.029220505 0.052521065 0.13723484 0.20821755 -0.07369994 0.010756695 -0.060119703 0.029349174 0.0027700742 0.06859467 -0.17663878 -0.0041364226 -0.07805872 -0.16478164 0.01806119 0.0733408 0.004720489 -0.03275366 -0.025272055 -0.036397163 -0.07166746 0.013237428 0.0026990408 0.042087983 0.17173372 0.17337582 0.13463672 -0.031186432 0.042647354 -0.07302855 -0.049329042 -0.16718075 -0.060615722 0.06899469 0.017020408 -0.03541136 0.18213028 0.017547691 0.06483909 -0.07821524 0.1510247 -0.14185134 0.08388297 0.0349541 -0.20718881 -0.057071093 0.11270337 -0.10512322 0.012973649 -0.04142583 0.00017186976 0.05545026 -0.032476883 0.008045353 -0.058158606 0.066557914 0.046598375 0.10588517 -0.11361831 0.028993674 -0.03911204 0.16928786 -0.0900782 -0.078137614 0.063437164 -0.03369556 -0.054417685 -0.22840866 -0.053989977 -0.17839262 0.06104814 0.031030867 0.06511543 -0.045114063 0.055445112 0.009741126 -0.0058985977 0.09145638 -0.13914874 -0.07710596 0.07153861 0.056313727 0.052125495 0.17565495 -0.008086444 0.014171985 -0.17144115 -0.11930491 0.027220154 0.022950575 0.0022552996 -0.079570144 -0.079287976 -0.01822556 0.028743956 -0.03439613 -0.010697825 0.113404125 0.092877164 -0.02881205 0.042668976 0.098609366 -0.06369764 0.060087427 0.083418235 -0.071882844 0.18831201 0.033171527 -0.0996043 -0.034999292 -0.10810249 0.1196836 -0.07555875
